822 300
， -0.376618 0.839624 0.600746 0.375052 -0.211719 0.339741 0.303020 -0.707256 0.556830 0.199536 0.319082 -0.367001 -0.119293 -0.122342 0.213779 0.682719 0.317469 0.213966 0.137147 -0.582956 -0.281739 0.430298 0.640260 -0.446182 -0.019095 -0.218857 0.181958 -0.092618 -0.073011 -0.195290 -0.859632 -0.420630 0.197496 -0.401196 0.386490 0.048741 0.076626 -0.255721 -0.476345 -0.505533 -0.791416 -0.074457 0.192356 -0.697542 0.304317 -0.663978 0.775545 -0.184185 0.131214 0.483118 -0.119470 0.444107 0.389554 0.201792 -0.503398 -0.354973 -0.442188 0.194707 -0.214472 0.127438 0.362843 0.438390 1.070590 0.230055 0.140218 0.275903 0.422157 0.443563 -0.062263 0.351694 0.034325 -1.012812 0.089511 0.526770 -0.239284 -0.054446 -0.835907 -0.138105 0.073576 0.131908 0.157045 1.156305 -0.231074 -0.016960 -0.443271 0.007343 0.141801 -0.173893 -0.119158 -0.128663 0.063516 0.297862 -0.450288 0.215209 -0.359874 -0.747944 0.472753 -0.230641 0.214345 0.854663 0.189869 -0.387422 -0.300635 -0.055933 0.191831 0.024632 0.227448 0.394647 0.148588 0.184366 0.421171 0.223179 -0.022964 -0.035162 -0.162302 0.335905 0.556454 0.085274 -0.238576 -0.423614 -1.042552 -0.624233 -0.580669 -0.269042 0.350300 0.530780 0.086845 -0.233148 0.074635 -0.255263 -0.791506 -0.285088 0.062208 -0.029576 -0.303166 0.384387 -0.421846 0.204509 0.103346 -0.127812 -0.178904 -0.016258 -0.015556 -0.422409 0.736114 0.266966 -0.269037 -0.495453 -0.073546 0.433035 -0.115445 -0.998857 -0.478261 -0.959649 -0.868309 1.040049 0.737613 -0.213209 -0.179522 0.623330 0.463808 0.061579 0.059139 -0.149799 0.351335 0.500624 -0.716983 -0.000377 -0.888980 -0.190033 0.484597 0.105681 0.526092 0.001490 0.272799 0.164978 0.748688 -0.676652 0.021846 0.201548 -0.303880 0.819432 -0.537450 -0.502549 0.046474 -0.085590 0.017811 0.125652 0.473210 0.319827 -0.150393 0.014746 -0.292124 1.049515 0.472077 -0.756677 1.040484 0.474747 -0.133034 -0.772944 0.479556 -0.108850 0.140911 0.356717 -0.152764 1.126421 0.160426 0.099489 0.996706 -0.354693 -1.539447 -0.826485 -0.433362 0.216620 -0.978603 0.055813 0.256211 0.132752 -0.040488 0.412437 -0.333040 0.654527 0.722104 0.562257 1.065377 0.371379 -1.052732 -0.107802 -0.052110 -0.265926 0.121481 -0.379401 0.074526 0.405804 0.118108 0.637776 0.665966 -0.086760 0.378045 -0.636061 -0.307991 -0.007311 0.185542 0.159512 0.375581 0.766095 -0.464397 -0.219668 0.509403 1.116915 1.363883 -1.537225 1.455118 0.120364 -1.192589 -0.661234 -0.132438 -0.157065 -0.226591 -0.244369 -0.435742 0.222742 -1.814670 0.342366 -0.357296 -0.266642 -0.035991 1.424841 0.150673 -0.195866 0.105090 -0.634085 -0.697143 0.473005 -0.043470 -0.656603 -0.349193 0.126793 0.093870 0.246736 0.120176 0.308854 -0.101423 0.508899 0.306205 -0.140797 -0.050857 0.023785 -1.043017 0.745789 0.602636 0.040524 0.557044 -1.111674 -0.068634 -0.700979 0.144005 -0.162735 -0.013054 -0.203122
。 -0.051655 0.225672 -0.448893 -0.099608 0.451458 -0.423605 -0.603247 -0.298092 -0.286207 -0.249668 0.085566 0.564198 0.576158 0.160582 0.119809 -0.395453 -0.678433 0.068350 -0.231672 0.346178 0.090940 -0.137067 0.454468 0.342914 0.419914 0.683758 -0.304379 -0.549561 -0.250724 -0.655204 0.581327 0.612257 -0.935207 -1.368829 -0.248357 0.081458 0.438933 0.358435 -0.159324 -0.075490 0.033897 -0.132193 -0.316130 0.242738 -0.117387 0.469468 -0.227969 0.106861 0.577973 0.611506 -0.476880 0.973451 0.336346 0.424769 0.289787 -0.025716 -0.767352 0.026962 -0.632739 0.011581 -0.045403 0.409809 -0.283159 -0.809866 -1.152311 0.165948 -0.170587 -0.014857 -0.181812 0.608224 -0.335939 -0.322222 0.185402 0.600265 0.154718 0.166052 0.210813 -1.432800 0.087554 0.500986 -0.003886 0.520484 -0.218590 0.124066 -0.110730 0.271540 -0.404014 -0.127242 -1.225210 0.170508 0.937297 0.451172 0.246417 0.113430 0.347755 0.006292 0.092848 0.791832 0.522650 -0.297170 0.423608 0.013386 0.645353 -0.534069 -0.758179 -0.284257 -0.100284 0.389849 0.120013 0.006141 0.252931 0.481934 -0.395961 0.473654 -0.910898 -0.136418 0.345777 1.116325 0.469526 0.602185 0.354588 -0.264602 0.512332 -0.561171 1.116229 0.272429 1.375934 0.757869 -0.599237 -0.578549 -0.706288 -0.998706 -0.774754 0.077202 -0.383124 -0.022364 -0.669022 0.404653 -0.503186 -0.160565 0.054849 0.290423 0.881014 -0.232879 -0.003626 0.371080 0.351987 -0.005030 0.582926 0.055797 0.178042 -0.846081 -0.163933 -1.104986 -0.686980 0.727404 -0.306837 -1.048436 0.404845 -0.005136 -0.393692 -0.941284 0.315357 -0.146644 0.449486 0.461091 -0.421515 -0.276565 -0.068445 -1.245059 0.783536 -0.856616 0.824102 0.178561 -0.741708 0.954760 0.675985 0.306117 0.010499 -0.194940 -0.374436 0.795305 -0.817406 -0.438304 0.158250 0.122539 -0.589919 0.364043 0.021647 -0.349958 0.729583 0.474911 0.001195 0.389595 -0.180053 -0.359434 0.502483 0.845727 -0.361834 -0.350052 -0.413729 0.326271 -0.141048 -0.191554 -0.324833 0.942280 0.184873 -0.040299 0.109848 0.083190 -0.068308 0.034893 -0.108963 0.660586 0.150518 -0.235716 0.072482 0.002937 -0.360136 0.158828 -0.562764 0.904206 0.223479 0.145509 0.793609 0.415910 -0.520940 -0.512997 0.057483 -0.185054 0.746588 -0.206644 0.122697 -0.069180 -0.130670 -0.076350 0.259087 -0.437160 -0.552662 0.512303 -0.394599 -0.164748 0.199775 -0.219105 0.409326 1.195647 0.245295 -0.975330 0.446243 1.267839 0.761694 -0.792945 0.028907 -0.021148 0.397634 -0.498000 0.211761 0.275769 0.212690 0.222871 -0.742202 0.772146 -0.588001 -0.133768 -0.160054 -0.256569 1.464668 0.880432 0.907765 -0.398408 0.738165 -0.765817 -0.000136 -0.311268 0.641470 -0.087716 -0.285736 0.149710 -0.043658 0.562386 0.034999 -0.160539 -0.544144 -0.394478 -0.577117 0.293855 -0.414960 0.316859 -0.483347 0.290737 1.179593 0.498242 1.320960 -0.494646 -0.025235 -1.705960 -0.593503 -0.448641 0.215542 0.089370
见 -1.279767 -0.309012 -1.262300 -0.431075 0.191315 -0.816954 0.534447 -0.344839 -0.890955 -0.221727 0.492948 -0.451154 1.450079 0.913474 -0.100856 -0.771381 -0.109520 0.466209 -0.451754 1.525830 0.458201 -0.261293 0.848934 -0.550259 -0.425257 0.018824 -0.661707 0.829102 -0.907672 -0.065158 0.443913 0.616757 -0.476177 -0.296066 -0.033623 -0.596605 0.578069 -0.053668 -0.112343 -0.041887 0.578134 0.891174 -0.434623 -0.313336 -0.905171 0.907779 1.037294 -0.350120 -0.638449 0.692224 -0.610621 -0.221144 -0.232386 -0.490206 -0.595363 0.605573 1.240248 -0.574828 -0.782582 1.373710 -0.733614 0.193499 -0.793267 -0.865817 -0.372429 0.262848 -0.482473 0.326887 -0.667977 0.285705 0.908632 0.093295 -0.003681 -0.035609 -0.211746 1.039011 -0.058838 0.011672 -0.323168 -0.237963 0.219927 0.777417 0.117568 0.030057 -0.096218 -0.150786 1.177542 -0.106928 -0.492999 -0.271604 1.032254 -0.379989 0.704652 -0.071974 -0.418815 0.385196 0.086890 1.205840 1.220614 -0.173480 -0.696469 0.843276 0.354243 0.553650 -0.460948 -0.309982 0.074690 0.510682 -0.226995 -1.528502 0.471310 -0.051030 -0.463884 0.033397 0.623970 -1.086007 1.135073 -0.502900 0.515164 0.541532 0.791486 -0.266899 0.024090 -0.587832 -0.515547 -0.241840 -0.242279 0.628242 0.277953 0.369948 -0.080616 -0.234423 0.196272 -0.303235 -0.814816 0.118864 0.088178 -0.411432 0.474306 1.307354 -0.232379 0.744451 0.003991 0.063097 0.536150 1.504140 0.687907 0.286559 -1.346558 0.026374 -0.401533 0.149303 0.625887 0.041581 0.922262 -0.879319 -0.493865 -0.941430 0.305930 -0.625225 1.258482 -1.379036 0.401894 0.212421 1.208395 0.263824 0.469231 0.842783 -0.271275 -0.381843 -0.350487 -0.532958 1.446669 -0.007473 -1.107283 -1.411755 0.124967 -0.041406 0.295720 -0.652132 -0.459961 -0.302123 0.110609 -0.658260 0.431775 -0.141593 -0.297240 0.348263 0.742655 -0.572460 0.117901 -0.249267 -0.205838 -0.235545 0.528876 0.060704 0.621646 0.403741 -0.598466 -0.120182 -0.323907 0.469533 -0.251711 0.343087 0.934538 0.259667 0.611820 0.345187 0.115989 0.971683 -0.410609 -1.312314 0.046856 -0.045056 1.054704 1.130988 0.005397 0.389894 0.112711 -0.064508 -0.993292 0.792891 -0.213282 -0.857535 0.880177 0.177067 1.198281 -0.047716 0.173215 -0.662478 -0.509304 -0.000207 -0.983616 0.340215 -0.830391 0.063779 -0.138368 -0.239617 0.300471 0.436342 -1.168798 -0.147914 -0.653137 0.600309 -0.169992 1.004544 0.543430 -1.051170 -0.172990 1.581504 0.491578 -0.290388 2.159196 -0.534473 0.124193 -1.118415 0.486360 -0.554519 -0.015230 0.059568 -1.139867 -0.276488 -0.790321 0.022000 -0.233723 -0.316834 1.566848 1.661306 1.300697 -0.158478 0.893353 -0.450887 -1.197552 0.553066 0.594408 -0.348204 -0.078075 0.190396 -0.501223 1.091555 -0.287996 0.424471 0.196569 -0.046988 0.209889 0.520849 0.029014 -0.328656 0.066083 -0.418659 -0.482292 0.090475 0.364325 -0.663969 -0.283556 -2.151073 0.552709 0.046054 0.939818 0.076337
M -0.592111 0.436893 -0.180587 -0.903522 -0.131474 -0.216901 0.342686 -0.179091 -1.368103 0.489196 0.500697 -0.265023 -3.087184 -1.118317 -0.781347 1.506045 0.541447 1.024295 1.122227 -1.614195 0.233773 -0.318641 0.615252 0.887068 -0.765021 -1.034337 0.242813 0.148218 1.216859 -0.720511 -1.167165 -1.088162 -0.880047 -0.762949 0.304284 0.144152 0.800281 -0.863987 -0.397835 0.290955 -1.167934 -0.990055 0.510585 0.870479 0.202953 -0.564067 -0.129317 -0.778473 0.919925 -0.123224 -1.183850 0.677308 -0.028669 -0.454896 -0.237799 0.391156 0.375762 -0.044570 -0.163415 0.376875 -0.303514 0.933497 0.334209 -1.090449 1.505014 0.849667 0.238175 0.225484 -1.245370 0.209054 0.597921 -0.423766 0.644313 0.753146 1.035264 0.653202 -1.887874 1.609977 -1.175608 -0.123495 0.557436 1.910814 0.919663 0.324892 0.221650 -0.396140 -0.835194 -0.295432 2.155756 -1.510106 -0.687910 0.107293 -0.213076 0.497193 0.274793 0.338974 0.119918 -0.518512 0.357290 -0.549768 1.158813 -1.048628 -1.837912 0.813788 -0.025587 0.080771 0.048599 0.940738 -0.144258 0.322738 0.953060 -0.035088 -1.601167 0.565999 0.735718 2.033673 0.261596 -0.014226 0.126749 -0.220614 0.298475 -1.717274 -0.403092 0.117056 -0.076645 -0.209821 -0.886688 -0.721429 -0.343492 -0.632160 -0.460361 0.118991 0.352590 0.447335 0.060158 1.682858 -0.062185 -0.763454 0.245922 -0.880876 -0.247722 -0.211681 -0.728200 -1.063685 0.460807 0.702775 -1.208954 -1.348193 0.021951 -0.063331 -0.248445 0.558976 0.143415 -0.148616 -0.859416 1.268184 1.468197 0.398209 -0.924066 -0.976356 -0.598142 -0.175116 0.598866 0.560295 -0.054436 0.282388 0.358763 -0.102456 -0.763294 0.463428 0.027258 1.658201 -1.014108 -0.570802 1.205218 -0.522357 -0.942262 -0.045968 0.513306 1.140804 0.073170 0.281724 0.277926 -0.542487 0.145936 1.483359 0.234052 0.177688 0.099840 -0.896197 0.497179 0.946032 0.074949 -0.102380 -0.161906 0.254193 0.272051 0.347202 0.233207 -1.305412 0.687654 -0.228249 -0.177567 -0.071870 -0.327385 -0.639963 0.520323 1.201405 0.899066 0.198742 -0.756630 -0.455476 0.114712 0.340281 -0.660200 0.715034 0.548973 -0.459352 -0.520474 -0.494079 -0.493092 0.884225 1.224355 0.217006 -0.483991 0.729421 -0.608557 0.320511 0.226552 -0.119711 -0.759106 -0.059835 -0.777888 0.202463 0.209462 0.851898 -0.220316 0.147419 0.763639 -0.727473 -0.181826 -0.023216 0.451168 -0.001946 0.129348 -0.833922 -0.492397 0.141401 1.201919 0.079137 0.771607 -1.686715 1.143701 -0.307897 -1.377908 -0.013792 0.484220 -0.540287 -0.636906 -0.326535 0.111910 -0.121181 -1.865886 -0.316026 -0.697201 -0.151172 -0.560076 0.224193 -0.041035 0.308053 -0.160004 -0.896776 0.031286 0.572116 -1.738587 -1.067563 0.046659 -0.434921 -0.578923 0.356593 -0.156306 -0.706909 0.913221 0.179872 -1.200591 0.506953 -0.520718 0.057422 -1.423308 -0.929357 0.781244 -0.240013 0.336027 -0.220690 0.359215 -1.107693 -1.558157 0.421053 -0.030324 -1.945490
0 -0.765762 0.027771 -0.765661 -0.700954 -0.302653 0.154589 -0.477443 -0.019033 -1.733539 -1.476409 -0.235522 0.642878 -0.997372 -0.484830 -0.145068 0.022693 -0.333436 0.509458 0.909891 0.146674 -0.617933 -0.108442 0.630976 0.683355 0.779865 0.279357 -0.750758 -0.621773 0.190492 -0.596031 0.906395 -0.069019 -0.492865 -0.494138 -0.373596 -0.003046 -0.599409 0.445388 0.102137 -0.157763 -0.222224 0.002337 0.405954 1.089920 0.082916 -0.066299 -0.398626 -0.564815 0.583593 -0.199245 -0.456981 0.317133 -0.234323 -0.960397 -0.542271 1.660771 -0.753556 -0.246137 -0.282674 1.199430 -0.514031 1.663396 -0.172033 -2.439228 -0.670191 0.091906 -0.350074 0.025840 -0.209154 0.189250 0.402378 -0.583642 -0.382861 0.468138 0.145510 1.011866 -0.725371 -0.367232 -0.417053 0.313510 -0.228705 1.139336 0.823636 -0.104357 0.223610 -0.060008 -1.197580 -0.724703 -0.373450 -0.179686 -0.387958 0.796952 -0.305121 -0.176653 0.175979 0.629217 -0.939360 -0.076186 0.685048 -1.465444 1.623419 -1.267767 -0.268439 0.756537 -0.862347 0.877352 0.088390 1.669864 -0.523045 -0.086736 -0.320248 0.720818 -0.957582 1.155470 -0.061906 1.532192 0.397877 0.750054 1.166182 1.004580 1.231368 0.033446 0.200831 -0.494506 1.246779 -0.269062 0.921176 -0.032777 -0.810904 -0.077922 -1.831646 -0.390769 -0.743826 0.464659 -1.248496 0.805154 -1.098375 -0.353441 -0.534267 -1.571564 0.291273 -0.081250 0.188486 -0.299763 0.646614 -1.513717 -0.791634 0.006240 0.075876 0.125902 -0.284188 0.915228 -0.016183 -0.613722 -0.460816 0.774798 0.316436 -0.152524 -0.510148 -1.062741 -0.295938 0.263187 0.999116 -1.048110 0.380207 -0.379393 0.465286 -0.470977 -0.366635 -0.255908 1.451702 0.335522 0.057349 -0.574448 -0.414228 0.342655 -0.628009 0.190529 0.415303 -0.142598 -0.297479 0.193197 -0.186710 -0.208684 0.071654 -0.771452 -0.790250 -0.250765 0.580745 -0.280770 0.548696 1.582426 0.854554 -0.621937 -0.595016 0.040142 0.186638 1.066596 0.962535 0.206456 0.532370 -0.526735 -0.242261 -0.355936 0.018479 0.463097 -0.543944 0.033805 -0.913658 0.031350 1.235451 -0.161388 0.243011 0.743693 0.588288 0.336880 -0.802965 -0.439177 -0.377568 -0.202946 -0.563693 0.610783 -0.856850 0.428534 -0.846227 0.142197 -0.616508 0.220877 0.197807 0.465999 0.288643 0.053739 -0.295059 0.442166 0.854533 -0.133956 -0.059259 -0.594071 -0.198874 -0.157399 -0.083205 -0.073286 -0.911569 -0.123541 -0.091498 -0.420932 -0.209361 -0.790918 0.444047 -0.946990 -0.674143 -0.675216 -0.772835 0.419329 0.344000 -0.354294 0.614077 -0.012645 -0.630474 -0.712021 -0.811535 0.759028 -0.417219 -0.410550 -0.600722 0.348643 0.941191 0.011118 0.249684 -0.402027 0.831451 -0.731485 -0.514833 -0.053279 -0.181418 -0.028135 0.090962 -0.751394 -0.083897 0.211082 -0.126222 -0.230719 -0.119929 -0.664583 -1.201971 0.154024 0.663013 0.577147 -1.202407 0.488216 1.209215 0.060114 0.618445 -0.254529 0.437909 -1.482997 -0.483973 0.362194 -0.490323 -0.075719
, -0.206296 0.750877 0.438431 0.613926 -0.425967 0.173754 0.029671 -0.491656 0.641195 -0.099536 0.464808 -0.269311 -0.076786 0.240983 -0.022039 0.724478 -0.112881 0.017137 0.339836 -0.196361 0.045487 0.713346 0.216264 -0.346689 0.113882 0.093830 0.326538 0.134283 0.074018 -0.155370 -0.951269 -0.608999 0.040975 -0.308517 0.242748 0.398338 -0.303042 -0.365024 -0.517793 -0.667791 -0.551561 0.171785 0.271076 -0.529644 -0.121341 -0.739993 0.600403 0.040402 0.415652 0.328507 0.249034 0.326568 0.229286 0.040655 -0.515314 -0.583773 -0.601526 -0.015228 0.108366 -0.245304 0.549491 0.486536 1.135018 0.632663 0.179737 0.194384 -0.009917 0.122630 -0.104582 0.035394 -0.325459 -0.393970 -0.313244 0.705623 -0.434129 -0.227832 -0.183658 -0.256546 0.158599 0.755800 0.057182 0.049482 -0.481019 0.011325 -0.010143 -0.104262 -0.044922 -0.116488 0.071153 0.127396 -0.507277 0.361331 -0.369119 0.199159 -0.402216 -0.406788 0.312957 -0.564855 0.005867 0.752082 0.143273 -0.760687 -0.071720 0.185580 0.804993 0.019533 0.171141 0.352757 -0.233599 0.258631 0.043295 0.040158 0.058366 -0.050230 -0.211840 0.262995 0.440893 -0.205746 -0.322049 -0.884690 -0.840436 -0.240898 -0.420412 -0.389499 0.224655 0.350277 -0.569912 -0.229789 0.205783 -0.192221 -0.068592 -0.164842 -0.103138 0.016403 -0.265416 0.181690 -0.285260 0.356186 -0.129559 0.029491 0.428236 0.149597 0.123537 -0.233274 0.679711 0.186799 -0.257370 -0.063232 -0.002624 0.128868 0.107589 -0.339329 -0.580840 -0.581625 -0.574979 0.586593 0.840907 0.016724 -0.256028 0.593270 0.234784 0.459482 0.200278 -0.165418 0.105932 0.255187 -0.896025 -0.100851 -0.476424 -0.062443 0.195859 0.346539 0.050310 0.024262 0.424643 0.446251 0.375410 -0.471248 -0.252700 0.138576 -0.398148 0.716779 -0.203847 -0.140412 -0.134021 -0.264876 0.039955 0.001909 0.598457 0.352673 -0.155314 0.090326 -0.094331 0.599386 -0.066909 -0.384342 0.654042 0.115952 0.145303 -0.418596 0.169450 -0.565701 0.208684 0.040321 0.070121 0.967654 -0.218769 -0.071057 0.715825 -0.272837 -1.483515 -0.378083 -0.129495 -0.026647 -0.677960 0.235172 0.039650 -0.285182 -0.159491 0.492694 0.067855 0.297595 0.547216 0.425580 0.271206 0.442570 -0.612675 0.395971 -0.034304 0.114583 -0.240094 -0.222530 -0.167274 0.229325 0.251876 0.268647 0.562784 0.192166 -0.234899 -0.877769 -0.122868 0.085967 -0.149098 0.294799 0.219908 0.349406 -0.544328 0.028253 0.395672 0.465055 1.212554 -1.051606 0.775621 -0.023628 -0.968267 -0.588407 0.143130 -0.478014 -0.191541 -0.189465 -0.151469 0.405908 -1.197767 0.275812 -0.474446 0.033614 -0.043904 1.207155 0.217011 -0.073766 0.223815 -0.372388 -0.571829 0.234174 -0.068007 -0.373770 -0.124176 0.097431 0.293285 -0.125031 0.060213 -0.126304 -0.243284 0.671958 0.338072 -0.109805 -0.331896 -0.097415 -0.683747 0.471053 0.126823 -0.034353 0.271139 -0.776995 -0.119922 0.087425 -0.084870 0.206398 -0.118295 -0.093889
大 -0.658484 0.208616 0.306802 0.339068 -0.886449 -0.506204 0.916386 1.040257 -2.135322 0.128998 -0.295168 0.337745 -1.785333 -0.316860 0.465044 1.134525 1.356560 0.775822 0.743721 -0.282484 1.017755 -1.063325 1.431896 0.481325 -0.355732 -1.089019 -0.488014 -0.402300 -1.256699 -1.379377 0.868457 0.368608 -1.853781 -1.037201 -0.518544 -0.619497 0.718839 -0.006839 0.176018 0.846899 -0.017244 -0.490651 0.485121 1.919886 -0.426701 1.091743 0.084221 0.418905 -0.539788 0.515318 -0.463315 -0.299802 -0.312308 -0.767361 -0.851840 0.539765 0.819590 -0.517156 0.543787 0.963603 0.170852 0.427097 -1.179997 -1.189858 -0.165720 -0.505601 -0.200703 0.725171 0.580895 -0.386031 0.821307 0.040094 0.534060 -0.771784 0.354421 0.432769 -0.418857 0.153806 0.168112 -1.387394 0.246240 2.032459 0.035589 -0.218443 -0.205319 1.130100 -0.112194 0.518153 0.188566 0.749007 0.687628 0.122155 0.812209 0.080718 0.314510 -0.243722 0.446505 0.516274 0.740578 0.179234 0.042471 0.016923 -0.942950 -0.097119 -0.089078 -0.131758 -0.336585 0.608934 0.454847 -0.492841 0.179559 0.104724 -0.771079 0.061451 -0.312826 0.243510 -0.186799 0.006699 -0.250132 -0.453786 0.064213 -0.678227 -0.705231 -0.127745 -0.121465 -0.002908 0.846160 -0.006562 -0.611111 -0.790485 -0.510991 -0.325159 0.166058 0.048611 -0.537026 1.087589 -0.742006 -0.080767 0.897390 -0.072028 -0.385030 0.900566 -0.278933 0.018732 0.719916 -0.244018 -0.445709 0.343686 -0.620880 -0.092125 0.127007 -0.460942 -1.020852 0.090811 0.704016 0.540712 -0.323030 0.216916 -1.227252 0.204130 0.125890 -1.173067 -0.207501 0.040827 0.599728 0.646906 -0.570041 -1.127891 -0.016282 0.209658 0.443937 0.770056 0.990267 -1.041875 -0.086819 0.254241 0.309938 1.063627 -0.397389 0.181834 -0.826074 0.238899 0.123041 -0.732104 0.345709 -0.009227 -0.908313 -0.179580 -0.058097 0.800956 0.531109 0.172379 -0.659421 -0.122191 -0.283224 0.028038 0.725815 1.008803 0.187920 -0.299268 0.123377 -0.144345 0.607083 0.547030 -0.335180 0.504769 0.407846 0.048415 0.853944 0.393705 -2.107364 -1.019687 -1.111663 -0.124361 -0.131026 0.536229 0.435254 -0.177550 -0.046105 -0.083159 -0.625603 0.402294 -0.034693 -0.317520 -0.091456 -0.723590 0.143293 -0.572590 0.110426 -0.423714 0.051775 0.156013 -0.684238 0.627176 -0.298481 -0.364797 -0.330247 -0.366734 -0.182288 0.313287 0.004209 -0.517703 0.143341 0.141829 -0.209812 0.175569 -0.768239 0.096089 -0.553123 0.603378 1.395540 -0.940112 1.128290 -0.063107 -0.512734 0.482825 0.181699 -0.033927 0.251156 1.195245 0.283487 -0.397620 -0.840063 0.569692 0.501265 0.171453 -0.005351 1.338307 -0.035276 0.281873 0.182540 -0.092867 -0.654263 0.294997 -0.466600 -1.184973 -0.191759 -0.092261 -0.624034 0.852236 0.113443 0.622206 -0.130492 0.140041 0.103041 0.055604 0.010648 -0.441092 -0.493700 0.722450 0.229672 0.190475 0.974135 0.627959 0.645706 -0.025907 0.119963 0.587919 1.223871 -0.632197
未 1.204029 -0.655455 0.070771 -0.043377 0.785354 -0.763833 -0.456728 1.726618 -1.895464 -0.437071 0.074918 0.566362 0.413493 0.807701 0.641979 -1.008688 0.961043 -0.092928 0.778117 -1.000819 0.152333 -0.548916 -0.165664 -0.014325 1.467317 0.672677 -0.327808 -1.461499 0.160603 -0.210618 -0.008854 1.752319 0.545204 0.931163 -0.554211 -1.178628 -1.085282 0.750509 0.036885 0.315434 0.674432 0.086597 -0.938524 1.694927 0.292590 0.865107 -0.566719 0.462834 -0.958773 -0.713643 -0.413623 0.188970 -1.761855 0.354444 -1.010708 0.864222 -0.428781 0.327899 -1.323106 0.221153 0.027667 -0.316062 -0.942682 -1.199409 -1.750528 -0.807428 0.379297 0.132291 -0.221995 0.327932 0.855959 0.627745 1.128594 0.101033 0.286820 0.651895 -0.337568 -1.332109 0.758213 0.644928 0.230244 0.872270 0.337770 -0.278767 -1.035361 1.287440 -0.492253 0.463184 -1.061484 0.166389 1.430314 0.201009 0.651691 -0.312924 0.090930 -0.340877 0.273074 0.567969 -0.685694 -1.339473 -0.387442 0.668934 0.390292 -0.033124 0.502842 -0.597909 -0.777054 -0.029300 0.092230 -0.441924 -0.109942 -0.072827 -1.330395 0.404351 -0.199749 0.174725 0.775151 0.078759 1.414839 0.818045 0.049202 -0.940431 0.280095 1.225812 0.091981 0.108511 1.778339 0.234365 -0.038955 0.780304 -0.259484 -1.198639 -1.076058 0.967237 -0.244712 0.567618 0.859966 0.487027 -0.162260 0.798482 0.054334 0.281132 1.700702 0.686420 -0.020002 1.061931 0.249872 -0.643592 -0.903375 0.140324 0.450799 -1.261471 -0.246380 -0.039271 -1.121804 0.425060 -1.101164 -0.236129 -0.065974 -0.177925 0.412498 -1.899212 -0.454917 0.284389 -0.375330 -1.015849 1.080763 -0.237072 -1.094480 0.002955 -0.235636 -1.748099 1.226038 -0.015249 -1.230279 -0.154072 -0.681768 0.464071 0.775409 1.315792 0.054621 0.883550 -0.758983 -0.083906 -0.494083 -1.125379 -0.131420 0.442470 0.325640 -0.073874 0.101333 0.428724 -0.205632 -0.783954 0.209968 0.371111 -0.040352 0.592001 -0.371737 -0.342046 -1.121551 -0.699937 -0.545753 -0.239850 -1.298329 0.756723 0.084196 -0.455902 0.187248 0.645430 1.568068 0.005377 -0.207151 -0.638111 0.764791 -1.241499 1.325631 -0.893203 0.270293 0.975271 -0.198018 0.972576 1.149523 0.266424 0.848498 -0.204079 0.055384 -0.931742 -1.000216 -0.654069 0.576323 -0.731304 1.235061 1.065387 -0.695631 -0.662624 -0.035798 -0.175182 0.441817 1.631401 -0.207211 -0.030754 -0.228561 -0.451058 0.339319 0.433472 0.169042 -1.438987 -0.747723 1.976693 0.415295 -1.205971 0.486916 -1.270639 0.862521 -0.224291 0.357806 -0.375671 0.962434 0.406260 -0.777346 -0.891415 -0.546956 0.909807 0.305588 -0.342799 1.188731 0.357450 0.637798 0.508210 0.528982 1.330011 0.209921 -0.579218 -0.840456 0.266873 -0.228165 -0.203832 -0.204827 0.491720 -0.915239 -0.643873 -0.652348 -0.246947 -0.323920 -0.739347 -1.227503 0.754886 1.021904 -0.564751 0.101099 1.052788 0.873465 1.030039 1.230178 -0.437071 -0.466149 -0.772305 -1.369552 1.147797
、 -0.258658 0.431856 -1.964656 -0.670353 0.149218 -0.389767 -0.536468 -0.533965 -1.735538 -0.144041 0.183586 0.901803 -0.670537 0.115744 0.356490 0.129680 -1.346274 0.471742 -0.515670 0.505018 -0.173326 -0.544837 -0.179235 0.136234 0.173020 -0.225495 0.039499 0.224452 0.933753 -0.163949 0.471871 -0.317722 -0.658598 -1.159819 0.112548 -0.263390 0.201965 1.644651 -0.455141 -0.193657 0.827487 -0.140884 -0.658973 -0.237493 -0.271659 0.918704 -0.198964 0.022868 0.952249 0.912445 -0.420695 0.011794 -0.533533 0.051312 0.320575 1.359551 0.059476 -0.069287 0.008266 0.229985 -0.290521 -0.044053 -0.994978 -0.783587 -0.671546 0.130084 -0.661121 -1.323161 -0.882746 -0.368024 -0.424816 0.456952 0.122289 0.333503 0.632425 0.594032 -0.068283 -0.059395 0.207513 0.418929 -0.314220 -0.606305 -0.225880 -0.085469 0.263470 -0.077804 -0.266646 0.156440 -0.511057 -0.135512 -0.059646 -0.171549 0.576253 0.031658 1.029569 0.528195 -0.790868 0.616521 0.085177 -0.870076 0.340769 0.529768 0.424553 -0.007712 -1.573389 0.633220 0.131448 0.491019 -0.594663 -0.331577 1.098824 1.271726 -0.848212 0.227198 0.237096 -0.340887 0.127629 0.712622 -0.059833 0.354146 0.970180 0.438968 0.037689 -1.218706 0.322252 -0.078950 0.288986 0.285929 0.118312 0.231275 -0.132133 -0.659462 -0.283845 -0.870879 -0.155478 -0.226627 0.100174 0.809104 -0.458362 0.751837 0.109337 0.923708 1.141381 0.430326 -0.175915 0.994748 0.989687 -0.530478 0.578833 -0.422875 0.401269 0.707295 -0.122187 -1.746591 0.078775 -0.189445 0.048673 -1.162260 0.122769 0.413313 -0.904826 -0.285409 0.442445 0.508609 -0.709171 0.896366 -0.470649 -0.230779 1.394007 -0.529012 -0.590475 -1.205521 -0.752209 -0.086705 -0.218985 0.236283 -0.140409 -0.052808 0.095047 0.186802 0.452152 0.061315 -0.403004 -0.672001 -0.382442 0.320517 -0.350035 0.443755 -0.133693 -0.977924 -0.319486 0.371729 0.299367 -0.448866 -0.837292 0.116826 -0.118991 -0.503772 0.189158 0.164152 -0.156473 1.131465 -0.287521 -0.288698 -0.451749 -0.343640 0.236886 0.066405 -0.069634 -0.226358 -0.537069 0.247369 0.236447 0.025725 -0.210939 -0.051143 -0.270574 0.292876 0.877549 -0.136649 -0.023783 0.746387 -0.090685 -0.520815 -0.697290 1.141144 0.237630 0.846862 -0.029556 0.342254 -0.779488 0.285318 -0.213852 -0.476904 -0.290204 -0.014875 -0.078537 -0.660799 -0.470203 0.330398 0.602419 -0.055715 0.671522 1.116594 0.736170 0.153539 0.627809 -0.368439 0.441807 0.280711 -0.166174 -0.110855 -0.452821 0.446561 0.763584 0.178649 -0.253709 0.132133 -0.166396 0.418992 -0.065429 0.925335 1.060240 -0.639460 -0.325181 0.839006 0.697245 -0.188902 0.422409 0.405966 0.859933 -0.390788 -0.082384 -0.206077 0.052426 -0.616906 0.131592 0.051318 -1.178405 -0.307500 -0.369131 -0.698950 -0.786474 0.743881 -0.257237 0.410653 -0.864960 0.045069 -0.178121 -0.181237 0.270299 0.661903 -0.108953 0.271965 -0.854868 -0.198081 -0.450519 0.433479 0.342695 -0.370970
肺 0.316129 0.685346 -1.084636 -0.350781 0.866835 0.986063 -0.512946 0.792336 -0.779030 0.535093 -0.014232 0.695350 0.533438 -0.946403 0.272683 0.073769 0.578094 -0.978136 -0.039321 0.536948 -0.909048 0.953616 0.002554 0.968918 0.741798 1.267953 -0.367247 0.690834 -0.718942 -1.651426 1.503636 0.259742 -0.154339 -1.474216 0.762272 0.572609 -1.127135 0.074269 1.743532 1.543292 0.401953 0.262530 -0.117134 0.097076 0.308179 -0.087714 -0.567109 -0.190736 0.102052 -0.563120 1.848701 0.240189 -0.903292 0.332727 1.073740 0.055272 1.142558 -0.231374 -0.237330 0.493475 -0.140534 0.238696 0.896918 0.164745 0.234307 0.587192 -0.205785 -0.208073 0.610100 0.781654 -0.699711 -0.087693 -1.092845 -0.308018 -0.681739 -0.549643 0.068092 0.246692 0.856818 0.196628 0.714737 0.108237 -0.366378 0.037524 -0.073558 -1.605681 0.119290 0.647396 0.097572 0.646653 0.681032 -0.109449 -0.682835 0.548295 0.717063 0.385134 0.522862 1.087248 -0.233825 -0.188972 -0.252706 0.653513 -0.048691 0.245111 -1.538491 0.660564 1.164623 -0.470022 0.091561 0.883772 -0.858473 0.224810 -0.458839 0.551476 -0.084136 -0.262680 -0.151617 0.157495 0.076673 -0.612519 1.237869 0.664537 -1.083602 0.344044 0.435158 -0.272108 -0.618967 0.536088 0.706872 -0.329719 -0.884940 0.025585 -0.309764 -0.326365 -0.639986 0.148035 -0.414105 0.325941 -0.138684 -0.991269 0.814366 0.046026 0.609257 0.756749 -0.217000 -1.330829 0.190872 0.793635 -0.212921 -0.411007 0.420995 -0.611584 0.286286 0.843385 0.756433 -0.213828 -0.732126 0.051355 0.325632 -1.001248 0.275483 0.287202 0.074367 -0.096448 0.765430 -0.522834 -0.334227 -0.034790 0.384054 0.845857 -0.482383 0.146116 0.228421 -0.622270 0.413518 0.100289 -0.385692 0.525589 -1.818911 0.281565 0.316551 0.753395 -0.609318 0.723942 2.173864 -0.801273 0.780981 -0.199594 0.024214 0.305400 0.202777 0.289278 0.451306 -0.516583 -0.255884 0.358672 0.603608 -0.414456 0.659401 1.126012 -0.222557 0.034208 -0.142406 -0.346410 0.729005 0.010125 -0.623443 0.314134 0.488649 -0.529521 0.607285 0.559308 0.098068 -0.505665 0.473763 0.078357 -0.146201 -1.645191 0.041951 -1.411747 1.202707 -1.595740 -0.680313 1.025149 -0.072709 -0.564737 -0.374350 0.853401 0.193741 0.714333 -0.242154 -0.945780 0.776656 0.540661 0.106434 -0.864968 0.183577 -0.139144 -0.399616 -0.283539 -0.711406 -0.645600 -1.185796 0.192591 0.902045 -0.146188 -0.350081 -0.342412 -1.452203 0.571634 -0.001872 0.259838 -0.077605 0.498922 1.409829 -0.108512 -0.349296 1.021971 -1.013794 0.197935 0.633539 0.087597 0.123481 0.536059 0.718411 -0.548839 0.131461 -1.241668 0.713229 -1.063632 -0.459513 0.077873 -0.669955 1.717371 -0.244311 -0.499073 0.756820 -0.087828 -1.733785 1.406368 0.046241 -0.239683 0.039764 -0.847392 0.146756 2.631917 0.978247 -0.046320 -2.686608 1.930363 1.070585 0.029859 2.490928 -1.355865 -1.616862 -3.779898 0.752851 -0.321360 0.665654 -0.160425
结 -0.764472 -1.342339 -1.515549 0.178520 0.490701 -0.040548 1.025221 0.161813 -2.193189 0.057925 -0.600631 0.438857 -0.333255 0.720819 -0.150078 0.991790 1.531311 0.396419 0.718810 -1.076991 1.141769 1.064681 0.458361 -0.038774 -0.444266 -0.807918 -0.113691 0.866202 -1.861997 0.036324 0.365347 0.224483 -1.605598 -0.959215 -0.869037 -0.314694 -1.498183 -0.484867 -0.568479 -0.093666 -0.360246 -0.558635 0.024815 0.802210 -0.638193 -0.153502 1.810862 1.282982 -0.229195 1.466357 -0.090640 0.787045 0.398400 0.809319 -0.925347 1.322462 2.407990 -0.201365 1.335638 1.805507 0.453737 0.873555 -0.303270 -2.104832 0.592423 0.157688 0.887332 1.032198 0.841001 0.115864 0.367122 -0.851995 0.808987 -0.915991 -0.418725 0.581941 0.370427 0.341049 -0.167756 -0.710708 0.194944 0.103119 -0.430422 0.040315 -0.489973 1.153318 0.137111 0.333721 -0.026822 0.412777 0.314398 -0.242968 0.461194 -0.088311 0.296651 -0.268117 1.275674 0.055123 -0.697730 -0.171183 -0.612707 -0.715523 -0.406356 -0.214648 0.123425 -0.851863 -0.216986 0.223276 0.263474 -0.352505 -0.462627 -0.258732 -0.505866 0.763537 0.727342 -0.657360 0.484025 -0.241796 0.185485 -0.939185 -0.613127 0.354597 -0.172927 -0.019748 -0.882424 0.392977 0.277542 -0.033044 0.444681 -0.460937 -0.320192 -0.856815 -0.761696 -0.417531 0.313600 0.382299 0.300628 -0.529025 0.675614 0.489921 1.157171 -0.207631 -0.567666 0.181823 0.099101 -0.147543 0.518694 -0.030934 -0.625975 -0.761047 -0.022746 -0.319731 0.695599 0.948450 0.083675 -0.994072 -1.089047 0.352837 -0.240751 0.229081 0.172185 0.523896 -0.223584 0.617445 0.088393 0.400795 -1.190589 0.853233 0.140431 0.622682 0.563126 0.000854 0.498325 0.669693 -0.536765 -0.192164 -0.109860 0.484614 -0.001632 0.207605 0.446409 0.730877 0.284393 -0.930246 0.098937 -0.051760 0.212400 -0.523674 -0.299543 -0.867155 -0.097221 -0.408781 0.681386 -1.519413 0.157245 0.010134 1.365469 0.271657 0.338446 -0.311876 0.517488 -0.711734 0.010952 1.360101 -0.598337 0.849620 -0.524825 -0.736070 0.468766 -0.259394 -2.152586 -0.337209 -0.236539 -0.509473 -0.949703 -0.308990 0.843967 -0.649812 -0.531310 0.335653 0.036238 -0.440366 0.003798 -0.311838 1.026624 -1.031231 0.778758 -0.662958 0.531590 0.335054 0.283922 -0.834015 0.026932 0.492028 -1.600626 -0.610334 -0.980218 0.169187 -0.668471 0.400672 -0.266218 -0.042443 -0.464658 0.233465 0.333227 0.189261 -0.060252 0.110543 -0.529292 1.190989 -1.102922 -0.111784 0.466355 -0.436515 0.677871 -0.266846 0.512251 0.901437 0.768874 0.050650 -0.054867 0.171837 -0.900951 0.738047 0.564399 0.262879 1.273821 0.946239 -0.465573 -0.182379 -0.737218 0.510475 -0.866796 0.781867 -0.202247 -0.222541 1.087723 0.442547 -0.027398 0.734145 0.127751 -0.637565 0.270866 -0.212695 -0.244258 2.206379 0.606651 -1.161725 -0.382884 -1.004562 -0.023099 0.660092 0.602764 -0.345687 -0.063803 -1.072393 0.461058 0.768462 0.063101 -0.276333
1 0.028283 0.497955 0.697096 -0.660311 0.030481 0.152579 0.061111 0.080150 -0.748188 0.068033 0.343687 -0.235140 -2.328260 -1.420037 -0.411319 1.004112 0.220523 0.453660 1.094962 -1.361322 0.168428 -0.125947 0.189984 1.033280 -0.944605 -0.249649 0.162692 0.438414 1.438535 -0.261327 -0.618491 -0.885731 -0.077406 0.122377 0.329786 0.807948 0.510403 -1.066064 -0.683620 -0.265454 -1.223269 -0.802788 0.105714 0.703290 0.106017 -0.664261 -0.084091 -0.586008 0.724600 0.250578 -0.499783 0.309246 -0.132823 -0.719884 0.541194 0.016907 -0.008562 -0.430845 0.228151 0.704845 0.078824 1.736390 0.314998 -0.600717 0.920341 0.821751 -0.022286 0.314953 -0.342111 0.279227 0.434625 -0.412972 0.373245 1.056857 0.619749 0.490967 -0.811567 0.984596 -1.242003 -0.343124 0.259399 0.687159 1.145308 0.435822 0.364905 -0.588422 -1.253915 -0.720895 0.783615 -1.127978 -0.808351 -0.561849 -0.840103 0.440139 0.004001 0.405137 -0.188660 -0.449670 0.753254 -0.692457 1.290538 -0.928956 -0.623734 1.306008 0.340055 0.125696 0.218882 0.776966 -0.651260 0.508839 0.034247 0.375741 -1.298123 0.678496 -0.044465 1.469981 0.332676 0.080080 -0.088499 -0.057816 0.615686 -0.953524 -0.253310 0.422393 0.415777 -0.433994 -0.956287 -1.224628 -0.006049 -0.422863 -0.482938 0.102731 -0.071072 0.313138 0.637750 1.118319 -0.756979 -0.323514 0.163113 -1.144982 0.094466 -0.484019 -0.628420 -0.605907 0.222380 -0.385964 -1.100451 -0.721290 -0.110944 0.208526 -0.390514 0.597622 0.316831 -0.076842 -0.110195 1.530962 0.544704 0.005521 -0.052507 -0.403123 -0.163863 0.896760 0.268497 -0.075461 0.037657 -0.519978 0.599564 -1.007943 -0.198926 0.557503 0.267512 1.305058 -0.538447 -0.223777 1.177043 0.114108 -0.364136 -0.486171 0.700871 0.553116 -0.287121 -0.454209 0.416124 -0.261259 0.287496 1.088451 -0.036311 -0.331203 -0.145525 -0.544489 -0.099352 1.185532 0.044018 0.169134 0.042023 0.392130 -0.164109 0.423044 1.180415 -0.142664 0.431637 -0.629821 0.007871 -0.302815 -0.373615 -0.255078 -0.601257 0.257751 0.760299 0.216478 -0.555542 -0.471705 0.266176 0.576565 -0.130884 0.491051 0.031949 -0.373656 -0.591551 -0.004024 -0.365924 0.391661 0.971916 0.157198 -0.924452 0.220425 -0.873332 1.245153 0.081995 0.388132 -0.178177 0.608665 -0.805714 -0.055675 0.256590 0.041569 -0.097804 0.533573 0.013593 -0.620078 -0.203185 -0.152616 0.701431 -0.067813 0.187367 -0.477581 -0.242962 0.319588 1.021364 -0.151767 0.162349 -0.823793 -0.055406 -0.525276 -1.110366 0.363523 0.323370 -1.089775 -0.556491 -0.587307 0.069588 0.027124 -1.151310 -0.653524 -0.619684 0.384110 -1.009016 -0.926105 -0.352957 -0.066048 0.008655 -0.745631 0.366231 -0.317934 -0.818349 -0.273809 0.216366 -0.497013 -0.159583 0.341044 -0.132979 0.142389 0.294740 0.231923 -0.807363 -0.278342 0.117680 0.243703 -0.734200 -0.116501 1.003370 -0.532205 -0.128328 -0.068472 0.093046 -0.034089 -0.745959 0.010639 0.366247 -1.146237
右 0.049246 -0.145312 -0.771227 -0.528637 -0.667831 0.516582 -0.845038 -0.796140 0.392950 -0.505820 -0.271392 0.153261 -0.227221 -0.146256 -0.270017 -0.696904 -0.216718 -0.311617 0.307620 1.504559 -0.406527 -0.618049 -0.154670 -0.392522 0.426535 -0.017024 -0.192573 0.631645 0.410707 0.027067 0.196175 -0.525945 -0.427116 0.087780 -0.349599 -0.538170 -0.139293 1.300319 1.165575 0.295989 0.486133 -0.529313 0.446037 0.604732 -1.315537 0.772367 0.055647 0.484182 -0.227592 1.646662 -1.001077 -0.420665 -0.474660 -0.286078 0.485685 0.903012 0.551634 -0.776497 0.179127 1.015161 -0.557967 0.633094 -0.622576 -0.617590 -0.153504 0.895164 -0.515495 -0.109248 -0.062167 0.470926 -0.662092 0.322980 -0.069271 0.027080 0.511811 0.317513 -0.703813 1.382267 0.560380 -0.906566 0.436087 1.778244 1.102121 -1.179185 -0.159882 -1.781458 0.021520 -0.810878 0.607524 -1.178023 -0.381422 -0.449960 -0.124955 -1.403583 0.533264 1.284016 -0.342383 0.152636 0.215027 -1.152582 0.340380 0.148693 -0.199250 0.908412 -0.512631 0.458026 -0.370240 0.973302 0.331469 0.281552 0.366153 1.254534 -0.959664 0.328853 -0.312405 -0.172671 0.570333 0.175026 -0.036259 0.047836 1.050462 0.726366 -0.038532 -0.351910 -0.429255 0.096438 0.093198 0.320480 0.124703 -0.645212 -1.573404 -0.383517 -0.553341 -0.752528 0.086829 0.633527 -1.079056 0.018778 -0.238702 -0.388036 -0.375807 -0.142977 0.027493 0.350760 0.734803 -1.032521 0.023829 0.243843 -0.137793 -0.354054 0.471850 -0.217511 0.787666 0.271010 1.044439 -0.112362 -0.117261 -0.128360 -0.336500 0.096652 0.119478 0.444845 -0.593792 0.132262 0.196013 -0.482969 0.485850 -0.717839 0.683206 0.338813 0.399503 -0.161851 -0.372515 0.638536 -0.854159 0.602264 0.054353 -0.287811 0.433573 0.534863 0.900771 0.115728 0.041784 -0.136917 -0.789731 0.174172 -0.587671 -0.220507 0.859828 -0.226483 0.800382 1.224251 0.360566 -0.221612 0.587747 0.185830 0.170518 -0.826973 0.399931 0.796376 -0.075318 0.037987 -0.889171 -0.593434 0.365153 -0.212852 -1.373328 -0.305103 0.160266 -0.001980 0.259598 0.260673 -0.777360 -0.704322 -0.469578 -0.746752 -0.731715 -0.397528 0.093234 0.584928 -0.191631 0.490987 -0.365434 0.129048 -0.160850 -0.106474 -0.439270 -0.424694 -0.036694 0.769230 0.990634 -0.980942 0.374714 -0.116423 0.079170 -1.603912 -0.712811 0.017570 -0.117244 -0.366738 0.310043 -0.323169 -0.512899 0.192780 0.843100 0.250795 -0.374401 -0.673619 -0.390376 0.113145 -0.723618 0.602649 0.150666 -0.359586 0.324382 0.486748 0.311112 0.499862 0.107928 -0.398067 0.152721 0.924358 0.279790 -0.543900 0.142941 0.068187 0.215842 -0.124359 -0.255384 -0.275189 0.311447 -0.401236 -0.692094 0.722512 0.342135 0.084454 0.837385 -0.301158 -0.788825 0.257845 -0.025879 0.404678 -0.582984 0.373069 0.469236 0.357571 -0.814859 -0.343904 0.876343 0.203894 -0.278361 0.902818 -0.135489 -0.367503 -0.111963 0.872412 -0.170287 0.090207 -0.466873 0.531901
常 -0.018516 0.512585 0.040835 -0.203125 0.649741 0.173778 0.489049 0.429768 -1.808798 -1.539641 1.256633 0.364610 -1.667270 0.948401 0.800225 -0.155619 1.332412 0.774805 1.031349 -1.017247 0.968513 -0.753879 -0.507492 -0.001055 0.980141 -0.918052 -0.021632 0.235739 -0.549467 -0.883912 0.598452 0.270678 -0.776045 0.716459 0.750564 -1.777151 -0.414211 0.298226 0.215219 -0.109409 -0.835955 0.216895 -0.349858 0.674343 -1.088941 0.999603 1.202497 0.022643 -0.650756 0.788641 -0.813481 0.131017 -0.530302 -0.751435 -1.847661 -0.108255 -0.967497 -0.171869 -1.023203 -0.022242 -0.523033 0.182398 -0.796771 -0.980397 -0.546549 -0.826164 0.099327 -0.132358 0.123031 0.570254 0.540397 0.880814 0.071603 0.521149 -0.284472 0.642724 0.375488 -0.305528 0.718866 0.493882 -0.632882 0.201295 0.390467 -0.698205 -1.389474 1.020153 -0.407198 0.174344 -0.475751 -0.181761 1.780931 -0.395407 1.035972 -2.049155 1.126974 0.240427 1.046327 0.353839 1.335780 0.033363 -0.873785 0.938507 -1.227691 0.237174 -0.429233 -0.539459 -1.025277 0.313322 0.514609 -0.140698 0.374967 0.038214 0.492787 -1.218835 0.287322 -0.594843 0.300249 0.446097 0.835977 1.091956 -0.957315 -1.202414 -1.856101 0.131666 0.745687 0.184206 1.561678 -0.247075 0.537056 1.183516 0.299358 0.156454 -1.158957 -0.171195 -0.445692 -0.248459 0.418557 -0.001813 0.494890 1.212622 -0.344961 -1.074236 -0.121197 1.435633 -0.157883 1.351525 0.263563 0.054816 -1.339157 1.310308 -0.770150 -1.355885 -0.241027 0.037846 -0.608942 -0.295646 -0.933359 -0.008014 -0.098655 0.421772 0.732985 -1.410065 -0.327601 1.008385 0.398220 -0.661933 0.535804 -0.138389 -0.922028 0.274367 -0.912232 -3.160472 0.940916 0.277015 -0.861554 -0.582641 0.885915 0.429755 1.124599 0.167568 -0.719449 0.365213 -0.598024 0.036284 -0.981291 -0.171368 0.392091 1.253776 -0.190907 -0.296237 -0.229329 0.081879 0.752766 -0.233143 -0.336555 -0.860980 -0.648845 -0.014015 -0.630112 -0.517601 0.380261 0.434015 -0.624214 -0.527609 -0.143466 -0.208144 0.917286 0.386071 -0.230029 0.352419 1.646059 -0.598335 -0.058736 -0.736330 1.014600 -0.220293 0.374717 0.871134 1.218685 0.148592 -0.488622 1.040958 1.457334 -1.312343 -0.198577 1.737604 0.551310 -0.415531 -0.960102 -0.097188 -0.022123 -0.425692 -0.673399 0.358502 0.414674 0.709986 -1.340381 0.509586 0.343838 1.660293 -0.576859 -0.336265 -0.332771 0.981610 -1.175981 0.703241 0.080620 -0.217414 0.666308 0.473961 -1.445635 -0.106720 -0.107413 0.707476 2.431490 0.405652 0.873737 -0.742540 0.896068 -0.011219 -1.078837 0.004722 -0.809193 0.233480 0.781926 -0.007988 0.829222 0.249380 1.660090 0.420437 0.653704 -0.218503 -0.477188 0.175856 0.186594 0.479517 -0.672015 -0.404752 -0.221133 1.307689 -0.996055 -0.805508 0.031707 -0.360129 0.061014 1.165786 0.240377 -0.219944 -0.345028 0.207057 0.604852 0.395208 0.373896 0.235841 -0.288188 -1.336576 -0.260756 0.370771 -0.678279 -0.036685
侧 -0.013838 -0.200156 -1.551138 -1.236478 1.474040 -1.333064 -1.063947 0.655642 -2.589365 -0.070512 0.073557 0.515642 0.311407 -0.693504 0.466450 0.394353 -0.725497 0.207692 -0.398749 -0.263230 0.262059 -0.099200 -0.102560 0.255463 -0.458762 0.536626 0.893273 -0.611653 0.190531 -0.446702 1.599368 0.698999 -0.830009 0.304226 -0.926566 -0.495427 0.048326 0.187629 0.075780 0.432395 1.537874 -0.490157 -0.365310 0.572342 0.462430 0.721253 -1.336608 0.207895 -0.074617 -0.198233 0.737442 0.307212 -0.276196 0.394776 0.628903 1.086864 0.909988 -1.098233 -0.436421 -0.183706 0.146455 -0.222967 -1.120970 -0.921575 -0.795540 0.218694 -0.514052 -0.328367 0.008690 0.532270 0.355906 0.693005 0.216958 0.132316 -0.289589 0.990745 0.387636 -0.454905 -0.577336 -0.010417 0.718833 -0.714631 -0.607526 0.180865 -0.122887 -0.777444 0.597456 0.065631 -1.190492 -0.356933 -0.164135 -0.221338 0.425700 0.277864 -0.038235 -0.335923 0.551098 0.571840 0.333775 -1.262602 0.294142 1.192086 0.210029 0.480028 -1.325773 0.343016 -0.082603 1.064796 -0.832975 -0.827992 0.515441 -0.016214 -1.601876 1.022659 -0.383950 0.149795 0.385179 0.973611 0.560807 0.656928 1.337986 -0.358651 0.186277 -0.003209 -0.680263 -0.833142 0.555111 -0.007413 -0.331375 -0.001034 -0.500883 -0.445639 -0.318266 -0.018067 0.306536 0.425683 -0.132738 0.863655 -0.590441 -0.042459 0.565560 1.299100 0.324330 0.450490 -0.339814 0.691421 0.950758 0.432329 0.198525 -0.627509 0.328011 -0.099582 0.810834 -0.377901 -0.432777 0.263759 -0.208053 -0.502828 -0.087634 0.934435 0.515492 -1.381208 0.065893 -0.155985 0.807409 0.545752 -0.498733 0.783962 0.053669 0.200184 0.267107 -0.660598 -0.053009 -0.896202 -0.222068 0.559292 0.033385 0.154999 0.186951 -0.079360 -0.681111 0.121276 -0.139940 -0.097317 1.044301 0.924701 -0.665959 0.422756 -0.496541 0.497577 0.162767 0.145454 -0.490307 -0.351810 -0.425545 0.186002 -0.511384 -0.207586 -0.486471 0.134193 0.173545 0.498862 -0.179213 0.223104 -0.842100 -0.248698 0.253087 0.244683 0.407615 0.350364 -0.126126 0.532125 0.359656 0.640905 0.513303 0.004793 0.575864 -0.767880 -0.089791 -0.128248 0.260647 0.047838 0.269685 -0.455434 0.547244 -0.475083 0.403144 0.132753 -0.144978 -0.198464 0.347204 0.234081 -0.967517 -0.524415 -0.332893 -0.120159 0.205626 0.010956 -0.005304 0.075282 0.189349 -0.030290 0.322537 0.469465 0.156310 0.395832 -0.138617 -0.592430 0.766810 0.835486 -0.034035 0.389439 0.077316 -0.288049 0.529251 -0.092907 -0.307013 -0.169951 0.061251 -0.396646 -0.227847 0.832859 0.744370 -0.508254 0.316237 0.795149 -0.402754 -0.652558 1.211205 -0.028514 0.715207 -0.085899 -0.006021 0.400031 0.118666 0.597553 0.071813 0.433367 -0.466623 0.236331 -0.343656 0.875751 -0.762944 -1.229512 -0.069476 0.767230 -0.090423 0.773439 -0.316469 -0.130264 0.728680 -0.625722 0.800219 -0.005110 -0.432664 -1.284351 0.402459 0.032115 0.489475 0.164259
左 0.248128 -0.110789 -1.141699 -0.544697 -0.823342 0.407039 -0.781288 -0.796514 0.625366 -0.279730 -0.279898 0.103409 -0.050977 -0.389993 -0.093026 -0.608597 -0.312028 -0.134371 0.180729 1.441969 -0.568544 -0.377540 0.017030 -0.367524 0.422835 0.022136 -0.299987 0.682854 0.209446 0.001114 0.411994 -0.446609 -0.352021 0.213968 -0.288402 -0.669363 -0.257746 1.379153 1.537927 0.765732 0.801812 -0.420167 0.389719 0.545274 -1.083819 0.965769 -0.041718 0.361586 -0.199820 1.586039 -0.803062 -0.346993 -0.378763 -0.216041 0.458397 0.655784 0.769317 -0.736939 0.193445 0.715918 -0.669281 0.277834 -0.729766 -0.608454 -0.300889 0.877711 -0.330799 0.011443 0.056961 0.488598 -0.457957 0.495776 -0.043148 -0.121484 0.641003 0.074477 -0.664563 1.395849 0.541292 -0.881431 0.587204 1.684169 0.938227 -1.080552 -0.343177 -1.567180 0.072341 -0.647526 0.592774 -0.956315 -0.159858 -0.343299 -0.064327 -1.244570 0.716512 1.211401 -0.122418 0.382789 0.258720 -1.280647 0.198526 0.444081 -0.309984 0.842934 -0.609567 0.234970 -0.274667 0.704870 0.492805 0.271396 0.353816 1.215550 -0.921052 0.431478 -0.240858 -0.303399 0.731753 0.448393 0.055195 -0.008950 1.106012 0.540984 -0.023832 -0.528323 -0.301353 -0.023926 0.048313 0.556986 0.216681 -0.595219 -1.633003 -0.176285 -0.355034 -0.885658 0.180759 0.458500 -1.087439 -0.020501 -0.202981 -0.172966 -0.437615 0.153495 0.064093 0.175476 0.555171 -0.969270 0.200959 0.410971 -0.148496 -0.595222 0.382792 -0.567803 0.673893 0.136930 1.156663 -0.192580 -0.143591 -0.006632 -0.222859 0.057513 0.013932 0.457847 -0.404344 0.010672 0.347807 -0.219453 0.287496 -0.667625 0.722475 0.117152 0.431440 -0.528688 -0.151788 0.427690 -0.997670 0.216176 0.075649 -0.186670 0.390293 0.401506 0.845894 0.108559 0.066255 -0.165148 -0.324160 0.084178 -0.673099 -0.332238 0.888031 -0.348250 0.880144 0.926644 0.224968 -0.131630 0.543406 0.259581 -0.009086 -0.804912 0.303422 0.684251 -0.249350 0.360715 -0.739713 -0.356080 0.346053 -0.133408 -1.265366 -0.085524 0.309093 0.126097 0.020616 0.482309 -1.000238 -0.676207 -0.145943 -0.706511 -0.704232 -0.418608 0.211769 0.355800 -0.087178 0.310983 -0.288002 0.089628 0.205097 -0.265052 -0.415820 -0.340564 0.135147 0.709998 0.811429 -1.066805 0.528422 -0.135897 -0.092145 -1.541823 -0.703689 -0.161021 -0.075822 -0.328714 0.190686 -0.507953 -0.372253 0.392387 0.883847 0.401862 -0.431391 -0.798059 -0.614216 0.484962 -0.463219 0.475571 0.305135 -0.266501 0.447931 0.417194 0.190687 0.858352 -0.043411 -0.310170 0.214249 0.781218 0.213248 -0.471130 0.140001 -0.203722 0.101909 -0.027913 -0.102845 -0.492310 0.116963 -0.348708 -0.556418 0.882096 0.341087 -0.094631 1.058331 -0.423215 -0.900100 0.539392 0.177724 0.559885 -0.610647 0.210208 0.678099 0.371001 -0.999327 -0.490947 0.644423 0.279141 -0.375446 1.015817 -0.186062 -0.405084 -0.349929 0.578248 -0.026400 -0.096623 -0.257171 0.487989
增 -0.333355 0.514990 0.065320 0.179714 1.275096 -0.026076 1.120139 0.130968 -1.384374 -0.041254 -0.083358 0.645419 0.014187 -0.148188 0.285365 -0.301672 -0.324868 0.003880 -0.678777 0.125192 -0.438640 0.060427 -1.420071 -1.785704 -0.316758 0.590298 0.602316 0.073170 -0.593939 0.153601 0.213866 0.461407 -0.228943 -0.704959 0.581059 -0.756118 -0.174360 -0.077706 -0.299005 -0.577402 -0.293164 -0.400163 -0.552309 0.211241 0.155209 0.242038 -0.739785 0.700497 -0.852479 -0.457483 0.233445 0.131893 0.152751 -0.709432 0.557103 0.524736 0.252740 -0.236078 -0.307465 0.321369 -0.902423 0.689502 -0.074925 0.167053 -0.014799 0.420266 0.330507 0.153126 -0.257916 0.587974 0.142384 -0.339799 0.524976 -0.587097 -0.366165 0.649677 0.912294 -0.159653 -0.725272 -0.369712 1.539583 0.382282 0.445723 -0.191191 -0.605796 -0.024207 1.437681 -0.384841 -0.017900 -0.756837 0.893564 -0.040658 -1.127366 0.496568 -0.194307 -0.345892 0.491827 -0.756541 -0.577537 0.915435 0.359530 -0.350782 -0.626447 0.280028 -0.232537 0.598006 -0.370131 0.025242 0.008516 0.391490 0.126352 1.016074 -0.626830 -0.342921 -0.277987 -0.380642 1.057295 1.064341 0.208951 0.519837 0.573758 -1.009828 0.385790 0.787073 -0.356503 -0.397214 -0.200439 -1.065896 0.473067 -0.324877 -0.535086 0.337389 -1.542923 -0.154069 -0.436465 0.995170 0.000007 0.355559 0.728247 -0.297571 0.779748 -0.384901 0.109769 0.273852 0.472476 0.056550 0.188810 -0.662135 -0.786102 0.707581 -0.049051 -0.667065 0.948853 0.112010 -0.004144 0.126127 -0.576631 -0.293329 -0.547443 -0.086636 2.182755 -1.406542 -0.187636 0.283668 0.295957 -0.932960 0.648718 -0.905390 -0.391884 0.039062 -0.177812 0.328802 0.493990 -1.400117 0.197570 -0.448957 0.467346 -1.450659 0.500323 0.789104 -0.353368 -0.066916 0.396500 -0.069726 0.568585 0.554460 0.482178 0.521436 -0.067605 -0.120837 0.089906 -0.801837 -0.291563 0.860649 1.573029 0.401941 1.579864 0.682759 -1.199496 -0.744705 -0.071543 -0.250112 -0.313511 -0.082037 -0.021397 1.140726 -0.209091 -0.394880 0.008618 0.148777 -1.441981 -0.459484 -0.145750 -0.604883 -0.316595 -0.597505 -0.241312 0.862095 0.084376 0.329864 -0.186391 0.282954 0.923099 -0.308691 1.394364 -1.229453 -0.763346 -0.849943 -0.976147 -0.534643 0.187103 -0.332295 1.106845 0.701542 -0.639503 0.763083 1.080563 -0.080366 -0.761170 0.437160 -1.002876 0.963535 0.081585 -0.010068 -0.105945 0.176523 0.041126 -0.266926 -0.407843 -0.060674 0.078488 -0.332740 0.361402 -0.297322 0.223060 0.296598 0.378684 0.112246 0.503972 -0.165370 -0.712393 0.215605 0.202737 -0.720117 -0.166905 -0.014504 0.878169 -0.479932 1.087202 -0.436439 -0.833543 -0.493440 0.831204 0.462244 -0.090012 0.647682 0.305546 -0.019509 -0.240036 0.008150 -0.744685 0.439523 0.829233 -0.117675 0.439790 0.920849 0.058388 0.077992 0.102928 -0.036567 -1.171811 -0.028531 -0.420755 0.645508 -0.273429 -0.795337 -0.165292 -0.561778 -0.013051 -0.511495
_ -1.363353 0.219704 -0.879422 -0.674925 0.136409 -0.192952 -0.620047 0.469973 -1.806625 -1.357275 0.071994 1.337815 0.180591 -0.431412 0.232202 -0.140958 -0.682902 0.353927 0.376137 0.935338 -0.948060 -0.499221 0.815611 0.310925 1.773967 0.985711 -0.250129 -0.625191 -0.543954 -0.737169 1.847454 -0.178243 -0.188701 -0.467139 -0.111973 -0.198609 -0.121862 1.067231 0.719517 0.325483 0.485557 0.478252 -0.404014 1.185086 -0.264910 0.332373 -0.559538 -0.065122 0.226857 -0.488295 -0.067242 0.062533 -0.193584 -0.456057 -0.871454 1.514961 -1.125077 -0.014579 -0.872353 0.059597 -0.783143 0.868179 -0.496451 -1.667100 -1.085319 -0.258815 -0.660937 -0.026356 -0.621557 0.592758 -0.364681 -0.546083 -0.740186 0.097607 0.340465 0.062582 -0.458028 -0.689978 0.380249 0.375139 -0.223966 0.821767 -0.042305 -0.817627 0.267339 -0.161010 -0.474567 -0.385618 -0.755345 -0.080861 0.218485 0.797522 0.404720 -0.884050 0.984201 0.509807 -1.267965 0.888819 0.848128 -2.342195 1.664963 -0.703439 -0.388421 0.669963 -1.604839 0.588716 -0.085035 1.400724 0.029967 0.643267 -0.032240 1.569607 -0.945602 1.296264 -0.245497 0.870798 0.620337 1.810489 1.223071 1.527534 1.030607 0.513797 0.018324 -0.558683 1.520638 -0.297852 1.958267 0.501359 -0.291417 0.058350 -1.518968 -0.149749 -1.422009 0.122333 -1.599653 -0.137593 -1.532003 0.581983 -0.400443 -1.565546 0.617523 -0.091880 0.535081 0.051007 0.327756 -0.761862 0.130225 0.743593 0.387816 0.296752 -0.033303 -0.123069 -0.601387 -0.595060 -0.266846 0.087578 -0.489634 -0.339093 -0.104247 -1.216948 -0.361977 -0.079113 0.856167 -1.308043 0.382725 -0.340949 -0.032308 0.231651 -0.312729 -0.886064 1.454731 -0.843590 0.875496 -0.025133 -1.096505 0.272015 -0.380454 0.358500 -0.552718 -0.335753 0.047430 0.127021 -1.064618 -0.537601 0.203046 -0.676542 -0.661365 0.041848 0.990519 0.127536 1.250807 1.139304 1.050624 -0.537321 -0.421365 0.394361 0.318747 0.572444 0.366662 -0.052661 -0.272252 -0.271792 -0.623609 -0.837265 0.190808 0.850359 -0.780066 -0.573062 -1.052222 0.763337 2.097329 0.011328 -0.496132 0.234163 1.129122 -0.210785 -0.908676 0.264557 0.326067 -0.483907 -0.038353 0.109962 -0.907752 0.524838 -0.167666 0.092319 -0.426981 -0.472962 -0.416126 0.314718 0.581469 -0.864479 0.212073 0.390361 0.321042 -0.534382 0.053835 -1.275891 -0.597406 0.165503 -0.524770 0.025644 -0.589824 0.287978 -0.242365 -0.610409 0.179722 -0.663720 0.125898 -0.749117 -0.289574 -0.633347 -0.684960 1.197174 1.011672 -1.373030 0.475855 0.331023 -0.679427 -0.199332 -0.885999 1.103841 -0.228113 -0.565557 -0.264059 0.726314 0.573847 -0.090205 0.098018 -0.420403 1.014095 -0.430345 -0.176068 -1.177595 0.249386 -0.278179 0.400739 -0.785658 0.178846 0.146001 0.697389 -0.291667 -1.121023 -0.715806 -0.614026 0.669306 -0.378813 0.913282 -1.126633 0.166708 1.072297 0.669007 1.176431 -0.741959 -0.102556 -1.983054 -0.781841 0.485022 -0.897605 0.995848
4 -0.276919 0.433296 0.361781 -0.836844 0.213768 0.086679 0.484178 -0.006542 -1.448007 -0.403753 -0.532808 0.208664 -0.765615 -0.284794 0.064892 -0.406613 0.459374 0.392632 -0.032970 0.076566 -0.157697 -1.107086 0.454922 0.430401 0.261596 0.146485 -0.343292 -0.439932 0.414894 -0.591230 0.952070 -0.270694 -1.038721 -0.351343 -0.254736 0.425173 0.292354 -0.044300 0.000485 0.110531 -0.668120 -0.371563 0.249962 1.625278 -0.264529 -0.354865 -0.891339 0.001425 0.524437 -0.027417 -0.823053 0.148437 -0.335637 -0.879764 0.352200 1.270412 -0.485524 -0.712777 0.234275 1.325773 0.195250 1.599178 -0.398457 -1.502224 -0.344656 0.335748 -0.454974 0.547026 0.006301 0.388576 0.503684 -0.643162 -0.428126 0.369517 0.334760 0.827139 -0.606971 0.334066 -0.262671 -0.465827 0.110498 1.444371 1.274787 0.398747 0.693006 -0.339259 -1.322659 -0.588508 -0.371357 -0.505089 -0.941507 0.467982 -0.262011 -0.310305 0.285742 0.195457 -0.783285 0.747592 0.765391 -1.740133 2.014966 -1.471879 -0.798231 1.336943 -0.832322 0.744325 0.188921 1.875331 -0.847657 -0.272610 0.325668 0.620900 -1.215440 0.882613 -0.157807 1.299865 0.486737 0.874457 0.883157 0.601433 1.291615 0.232286 0.008964 0.257969 0.816660 -0.458035 0.355250 -0.356196 -0.547595 -0.319536 -1.295149 -0.484864 -0.332229 -0.183619 -1.080763 0.979600 -1.105777 0.152555 -0.003643 -1.349419 0.346669 -0.153327 0.318971 -0.128914 0.753803 -1.201597 -0.354049 0.433478 -0.142169 -0.138833 -0.182577 0.694367 0.501139 0.113045 -0.460929 0.664210 -0.359789 -0.211950 0.030436 -0.812732 -0.585562 0.507650 0.663097 -0.128150 -0.164843 -0.205767 0.237406 -1.077840 0.122111 -0.069308 1.112916 0.576017 -0.259606 -0.241916 -0.188359 0.697133 -0.082705 -0.068122 0.039633 0.230542 -0.100554 -0.264397 -0.101651 -0.328604 0.136005 -0.368778 -0.158873 -0.684516 -0.427739 -0.392188 0.118449 0.996387 0.506381 -0.374514 -0.293859 0.089585 -0.222146 0.552727 0.900010 0.437761 -0.001339 -0.507603 -0.191008 -0.424146 0.142143 0.046955 -0.456833 0.118421 -0.790002 0.355694 0.872056 -0.295088 0.344378 0.498359 0.212817 -0.060679 -0.476878 -0.235397 -0.925179 -0.739495 -0.271992 0.758961 -0.766152 0.222337 -1.606259 0.269557 -0.309957 0.376035 0.086242 0.248571 0.485749 0.564118 -0.912953 0.472674 0.538506 -0.371048 -0.292257 -0.399083 -0.501376 -0.541206 -0.116860 -0.885745 -0.050702 -0.139587 0.307626 -0.097342 0.225537 -0.855984 0.763485 -0.724263 -0.954078 -0.196009 -0.635204 -0.035623 -0.679705 -0.236708 0.714275 0.252050 -0.666093 -0.017418 0.214831 0.896217 -0.821054 -0.470737 -0.590765 0.479992 0.498530 -0.501220 -0.044345 -0.084139 0.467625 -1.617025 -0.060011 -0.349110 -0.156352 -0.109349 0.217079 -0.598826 -0.295055 0.006671 -0.227788 -0.448857 0.045804 -1.270511 -1.260111 0.433981 0.707275 0.700973 -1.222277 -0.447661 1.139725 -0.240412 0.972652 0.451545 0.636263 -1.559400 -1.039941 0.092603 0.135466 -0.032495
小 -1.105901 0.616724 -0.036740 -0.043258 -0.100578 -0.231252 0.589776 0.012369 -0.858366 0.656517 0.501093 0.026417 -0.099075 0.271004 -0.280606 -0.725032 0.514766 0.831863 -0.636379 -1.161542 0.604242 -0.518334 -0.809252 -1.373780 -0.285572 -0.859080 -0.741867 0.555691 -0.349921 0.163392 -0.903262 0.548125 -0.391984 -0.849404 0.217869 -0.435813 0.176554 0.352872 -0.374700 -0.138344 -0.273042 -1.152378 -0.235521 0.938975 0.544169 0.624953 0.318629 0.139526 0.118620 0.772997 -0.247416 0.768773 0.203919 0.291085 0.152831 1.348554 0.291965 -0.160340 -0.622765 1.829183 0.060957 1.252982 -0.285554 -1.377534 0.253679 -0.275846 0.517450 1.068446 -0.537326 0.271850 1.785849 -0.456896 -0.491471 0.063451 -0.146392 -0.114299 -0.591393 0.095107 -0.159893 -0.765697 0.130852 1.094379 0.143296 -0.479583 -0.211494 -0.278998 -0.554385 0.049672 0.878769 -1.441175 -0.217642 -0.623957 0.039713 -0.873532 0.165543 0.117601 -0.195035 0.228960 0.985657 -1.407883 -0.319306 -0.770708 -0.360711 1.149161 -0.586248 -0.607131 0.318205 1.168739 -0.448364 -1.272203 0.210546 0.641195 -0.877426 -0.238229 0.000428 0.441258 -0.085019 0.658897 -0.304921 -0.122836 -0.245522 -0.129905 -0.169273 0.247662 0.420002 0.277512 0.738515 -0.124232 -0.572488 -0.997237 0.087986 -0.407317 0.089452 0.101441 -0.421811 -0.046483 0.627257 0.932847 0.325304 -0.123423 1.447283 -0.134041 -0.526013 0.094478 0.395779 0.572064 0.014617 0.102432 -0.397148 -0.901327 -0.250925 0.174913 0.233806 -0.004501 -0.171800 -0.034025 -0.693404 -0.066373 -0.079667 0.147455 -0.424741 -0.188369 0.720885 1.053503 0.124774 0.238405 0.096068 -1.080601 0.239810 0.847087 0.124293 1.045523 0.178784 -0.940796 0.421269 -0.655900 0.289587 0.676880 0.024653 -0.540722 -0.514276 -0.468283 0.232005 -0.376094 0.398308 0.986185 0.201097 -0.318872 -0.148031 0.902851 0.345412 -0.678478 0.081289 -0.329164 0.260119 -0.551085 0.674804 0.574576 0.241413 -0.317464 0.506062 -0.213859 0.288839 0.440824 0.089981 0.559091 -0.242226 -0.102550 0.100242 -0.320334 -2.320275 -1.114820 -0.463921 -0.289597 -0.270125 -0.550016 1.130845 -0.063320 0.266404 0.174152 0.055878 0.192494 0.673571 0.693300 -0.230548 0.204903 -0.231067 0.376055 -0.437123 -0.381812 0.130473 -0.492106 0.091313 -0.098928 -0.463935 -0.291916 0.964521 0.020011 0.018200 0.135466 0.731965 0.494298 0.608775 0.659183 -0.294272 0.022799 0.205885 -0.070781 -0.314516 1.429903 -0.038363 -0.339960 0.929937 0.198989 0.090983 -0.319894 -0.584039 -0.072917 0.298872 -0.224818 0.106282 0.636968 -1.418372 0.575098 0.556049 0.797379 -0.005823 0.975195 0.735102 -0.426190 -0.160600 0.213625 -0.194497 0.693434 -0.868776 -0.534343 0.128307 -0.370992 -1.343119 1.179762 -0.587084 -0.640736 0.873450 0.466262 -0.171369 0.608284 1.302820 -0.881531 -0.319665 0.475597 1.055588 0.337917 0.571985 0.790777 -0.015734 -1.409739 0.332263 -0.397096 1.148987 -1.155877
度 0.073427 1.519370 0.194700 0.048703 -0.393164 -0.755589 1.226017 -0.708948 -0.317326 0.126294 0.539638 -0.853546 -0.899002 -1.206541 -0.226041 0.189739 -0.070839 1.055215 -1.128116 0.678684 1.061539 0.471024 -1.157678 -1.408284 -0.047499 -0.496642 1.346625 -0.311952 -0.430462 0.280286 -0.902575 -1.287166 -0.116431 -0.406125 0.908756 0.017918 0.163285 0.178904 -0.191686 1.043191 -2.085928 -0.757423 0.478734 -0.378980 0.338831 0.345106 0.863433 1.175922 -0.348219 0.176113 -1.147149 -0.832221 -0.012539 -1.071211 0.093713 1.873764 -0.205201 -0.354840 -1.629180 1.167634 0.808958 0.965118 0.322495 -1.665991 -0.447201 -0.917644 1.447244 1.091100 0.814052 0.069468 1.312195 0.503146 0.161507 -1.171722 -0.712725 -0.519293 1.025007 -0.167654 -0.442128 0.517723 0.383542 0.450155 1.093360 0.764108 -0.909419 2.281202 1.064549 0.783455 -0.156824 -1.306508 0.889518 -1.202192 -0.136290 -0.232635 0.669824 -0.721289 1.456783 0.326631 -0.660149 0.647336 -0.765054 0.016712 -0.037003 0.567393 1.094241 -0.419298 -0.553804 -0.319501 -0.683524 -0.095909 1.867198 0.803504 -1.352927 -0.423754 0.621348 -0.033866 1.276830 0.577629 -0.360532 0.265002 -0.214661 -2.067475 -0.350768 0.128948 -0.642065 -0.235431 0.204210 0.021163 0.129848 -0.168835 -0.826746 0.496907 1.503263 -0.613977 -0.451163 0.729145 0.374207 0.383782 -0.093253 -0.700550 0.236952 -0.544747 -0.578570 -1.034955 1.728879 0.889538 0.524279 -1.104823 -1.167644 0.647507 -0.848663 -0.836133 0.493139 -0.603203 -0.017666 -0.247273 0.333371 -0.473831 -0.236988 -0.553811 2.073139 -1.060931 -0.354144 -0.578054 0.151821 -0.322964 0.668219 0.807062 -0.684640 0.339110 -0.527216 -0.496689 -0.518738 -0.967883 -0.472318 -0.317295 0.841753 -0.760273 0.119478 -1.168563 -0.104630 0.118100 0.202850 -0.166574 -0.194296 0.189570 0.451158 0.461947 0.839173 1.547733 0.019612 -0.904393 -1.087792 -0.040184 0.774060 -0.843844 -0.684714 0.612352 0.037601 -0.235107 0.098854 1.369665 -0.089307 -0.402193 -0.081901 0.645886 -0.125799 0.302088 0.668750 0.454825 -0.711907 -1.465733 -0.078891 -0.591687 0.421647 0.753188 0.219134 0.968497 0.043463 0.367486 0.626614 0.670585 0.707524 0.244337 1.552622 -0.000003 -1.112060 -0.068988 -0.014876 -2.135568 -0.328133 -0.826885 0.734085 -0.396639 -0.676444 1.005558 0.064095 -0.904665 1.194118 0.175694 -1.114686 0.581253 -0.338636 -0.130686 -0.767390 0.225172 0.710645 -0.329968 0.136979 0.609282 0.381248 0.828987 0.887993 1.094873 0.032836 -0.990314 -0.733220 1.007185 0.456063 -1.022766 0.929620 -0.909379 0.074402 -0.605390 -0.079555 -0.185192 0.376919 0.631356 0.411138 -0.122104 -0.010688 0.840694 0.233192 0.364103 -0.662451 -0.720726 0.459727 -0.014262 -0.509315 0.949120 -0.299394 0.127599 0.123492 0.884957 0.986169 0.081902 1.345215 0.135273 -0.195929 0.141868 0.474847 -0.452534 -1.881023 -0.227463 -0.134388 -0.439855 0.060289 -1.201103 -0.432048 -0.957256
2 -0.033073 0.446529 0.536273 -0.672254 -0.125121 0.396708 0.233943 -0.016724 -0.458381 -0.237290 0.112685 -0.317099 -1.816835 -1.175232 -0.593982 0.921203 0.468071 0.261238 0.740345 -1.366871 0.185919 0.149749 0.343544 0.920839 -0.592319 -0.274399 0.006702 0.468406 0.980943 -0.455699 -0.175571 -1.012894 -0.014369 -0.144628 0.224936 1.175774 0.365489 -1.002563 -0.654182 -0.261881 -1.345343 -0.842117 0.168098 0.560494 0.263291 -0.556851 -0.227380 -0.627253 0.670965 0.187353 -0.632260 0.406908 0.099495 -0.749796 0.542156 0.160191 -0.194137 -0.453025 0.505338 0.904723 0.310005 1.908087 0.440335 -0.710775 0.947380 0.633958 0.068670 0.470363 -0.134383 0.443699 0.561801 -0.519597 0.141508 0.595292 0.292833 0.485082 -0.710014 0.886918 -0.875701 -0.838557 0.247527 1.020627 1.021801 0.343663 0.354146 -0.626795 -1.319709 -0.767131 0.692784 -1.044328 -0.544279 -0.359500 -0.825490 0.225263 0.120113 0.060070 -0.323497 -0.169074 0.857805 -0.616090 1.258146 -1.159125 -0.558661 1.043328 0.300503 0.294015 0.209221 1.032920 -0.766350 0.351295 -0.136813 0.117957 -1.160368 0.464675 -0.227162 1.430875 -0.053082 0.228811 0.130072 -0.305588 0.719370 -0.546798 -0.232321 0.548137 0.317795 -0.611590 -0.734296 -1.148218 -0.191784 -0.521392 -0.542996 0.035987 0.223074 0.170445 0.380208 0.940248 -0.663775 -0.463091 0.017772 -1.211651 0.144815 -0.603508 -0.568152 -0.402429 0.744923 -0.803309 -1.064692 -0.370726 -0.164932 0.257170 -0.466675 0.574333 0.616918 -0.039453 -0.091173 1.307155 0.595983 0.016312 0.101183 -0.231700 -0.112639 0.980081 0.111823 -0.422741 0.065695 -0.365147 0.350264 -0.896203 -0.289526 0.368423 0.494142 1.393183 -0.338177 -0.083915 0.949466 0.368976 -0.468151 -0.265046 0.421991 0.204336 -0.303164 -0.323351 0.615636 -0.275199 0.201805 0.591526 -0.253402 -0.698736 -0.219918 -0.455452 -0.100428 0.806994 -0.010665 0.172597 0.032369 -0.033601 -0.135800 0.405823 1.126691 0.521854 0.503412 -0.482345 0.219061 -0.004579 -0.309739 0.045005 -0.647590 0.121464 0.600385 -0.033583 -0.675924 -0.299548 0.472771 0.359868 -0.075630 0.240105 0.019887 -0.455137 -0.808162 -0.105919 -0.258292 0.142853 0.393075 0.373013 -1.219193 0.037906 -0.846030 1.043794 0.364357 0.277255 0.025599 0.758403 -0.559421 0.158512 0.712741 -0.428149 -0.150371 0.478769 0.065885 -0.602590 0.039779 -0.276063 0.489637 -0.109911 0.077139 -0.079219 0.009554 -0.075085 0.814537 -0.273115 -0.032111 -0.608991 -0.152029 -0.825576 -1.169397 0.043225 0.002842 -0.773038 -0.588808 -0.454144 0.094623 0.145786 -1.129627 -0.279330 -0.564168 0.253254 -0.713764 -0.783637 -0.329950 -0.278030 -0.260125 -0.789444 0.307345 0.018515 -0.466009 -0.256254 0.094693 -0.434060 0.089315 0.336117 -0.180384 -0.139486 0.467117 -0.280762 -0.642093 0.049598 0.623727 0.171774 -0.479330 -0.011038 0.888601 -0.462222 0.371830 0.130395 0.012077 -0.430151 -0.518409 0.104183 0.194217 -1.049077
内 -0.688811 0.483699 -0.360562 -0.675407 -1.381962 -0.846289 0.290868 0.146437 0.011880 -0.139548 -0.095729 -0.384715 0.291182 0.710703 -0.451027 -0.031892 0.075536 -0.131914 -0.250872 -0.468745 0.303757 0.211537 -0.391452 -0.828048 1.001890 0.108794 -0.516661 0.731725 -0.216809 0.635489 -0.454637 -0.256516 -0.458032 -0.188247 -0.164310 -0.981763 -0.294764 0.245651 -0.318361 0.147685 0.055696 0.055890 -0.135768 0.765186 -0.520242 -0.118130 0.941532 -0.415620 -0.645993 0.297020 -1.303806 -0.206913 0.689296 -0.014326 -1.395420 -0.365506 -0.586470 0.320114 -0.805844 0.091673 -0.260499 -0.501847 -0.330217 -0.738616 0.133734 -0.532628 -0.147994 0.369202 0.516918 -0.170052 0.575900 -0.398592 0.082580 0.559740 0.304979 -0.121396 0.104244 -0.520151 -0.236364 0.802582 -0.233778 0.138291 -0.200960 -0.319281 -0.231747 1.346754 0.651622 -0.172942 1.059144 -0.223697 0.730189 -0.134193 0.588825 -0.864781 0.082227 -0.391847 -0.410817 -0.217023 0.652498 -0.334272 -0.045411 -0.534196 -0.279793 0.019742 0.841287 -0.245667 -0.197025 0.554065 -0.561172 -0.257676 0.234818 -0.158133 0.083381 -0.680399 -0.296479 0.429783 0.558377 0.687585 1.063419 0.481865 -0.652839 -0.130268 -0.040505 0.389442 -0.221104 -0.770571 0.735906 0.658172 -0.623395 0.062826 -0.854022 -0.182298 -1.176512 -0.476073 -1.283121 0.719934 -0.947068 0.424653 0.638340 -0.155033 0.008556 -0.906015 -0.140283 0.388320 0.980763 0.717607 0.243958 0.163819 -0.242809 0.227671 -0.337476 -1.187947 0.135257 -0.760870 -0.655557 -0.648443 0.604712 -0.480423 0.219505 0.437649 0.682720 -0.838647 -0.407576 0.105177 0.485635 0.046548 0.982912 0.437814 0.153026 0.030522 -0.296783 -0.898538 1.704115 -0.318507 -0.853236 -0.402827 0.036366 0.397333 0.732198 -0.810277 0.662706 -0.050835 0.351589 -0.428478 -0.493586 0.622753 -0.890740 0.446098 0.108107 -0.004615 -0.077368 -0.827889 -0.198465 0.506153 0.636320 -0.418109 -0.447096 0.197651 -0.622409 -0.120946 0.280479 0.346038 0.067642 0.300772 -0.280159 0.518704 -0.014157 0.194335 -0.221359 0.303019 0.122454 -0.117743 0.086380 -0.500770 0.731564 0.049315 0.445510 1.125954 -0.500723 -0.232045 0.586383 0.791747 -0.315605 -0.948426 0.464715 -0.023765 0.177697 -0.433018 -0.277025 -0.677801 0.490440 -0.377146 0.217255 0.198598 -0.069531 0.658964 0.119281 0.286272 0.828391 -0.371994 -0.490966 0.858952 -0.106722 0.235965 0.000181 0.662665 0.392527 -0.479592 -0.169883 -0.033423 0.000534 -1.167499 1.135481 -0.539509 -0.110614 -0.622638 0.492025 0.564965 -0.003535 0.093638 -0.948878 -0.068150 -0.119428 -0.835421 0.351029 -0.010479 0.613497 1.671913 0.621401 -0.571682 0.231596 0.584770 0.253099 -0.522896 0.364669 -0.340477 -0.199781 0.055152 -0.530218 0.506644 -0.088292 -0.539958 0.606548 -0.638735 0.161318 0.440058 0.016780 -0.795279 -0.194099 0.901857 -0.153625 0.116221 0.509801 0.516178 -0.427618 -0.941017 -0.024975 0.237945 -0.417196 -0.120265
密 -0.028541 1.035626 1.619939 1.396461 0.376249 -0.292340 0.851365 1.520583 -3.186552 -0.973639 -0.123860 -0.256015 1.416442 0.082095 1.260815 0.102084 0.475583 -0.779957 0.159079 0.575099 -0.850381 -0.402741 -0.838878 0.638397 0.165545 -0.752095 -0.212495 -0.090308 -0.673537 -0.440583 -0.547026 1.021090 -0.011723 -0.730245 -0.304774 0.144320 -1.032617 -0.805262 -1.050767 0.079443 -1.277432 -1.084692 0.118617 -1.058080 -0.282543 0.468314 1.009411 0.646028 -1.052952 0.483874 -0.365030 0.169658 1.444836 -0.217143 0.631955 -0.277443 -0.923250 0.016055 -0.687673 1.425806 0.381831 -0.297130 -1.000178 -0.283261 0.054721 -0.973428 -0.433682 0.849668 -0.281846 0.127429 1.040061 -0.872129 -0.921590 -0.039275 -1.500119 0.588120 0.187818 -0.653345 -0.088437 -1.119898 -0.551857 2.267782 -0.806440 -0.081368 -0.631601 -0.045123 0.778086 0.252055 0.960641 -0.971040 0.556489 -0.257766 1.769621 0.040621 0.172488 -0.088490 -0.643965 0.276937 1.689349 -0.025139 1.047158 0.312525 -1.791652 1.109563 0.511069 -0.948950 -0.564592 0.886321 0.811659 -0.651813 -0.222046 -0.434723 0.157197 -0.039541 -0.220614 1.025028 -1.147940 0.014385 0.658461 0.162547 -1.635726 -0.376185 -1.258606 0.210802 -0.523309 -0.270858 0.502359 -0.071699 1.048172 0.749110 1.150460 0.221078 0.555307 -0.568525 -0.440807 0.262347 0.904319 -1.006951 1.262329 -0.443435 0.647076 -0.585997 -0.016138 1.207424 -0.881749 0.839460 0.589054 -0.880367 -0.615906 -0.050332 -0.540585 -0.851824 1.241009 -0.654374 -0.175136 0.280567 0.649686 0.175907 0.452390 -0.855367 0.094607 -0.054506 -0.674748 0.742756 1.391732 -0.667194 -0.370108 0.851295 -0.319532 -0.088114 -0.629443 0.193914 1.748539 -0.805772 0.570290 -1.336701 0.493128 -0.524562 1.294513 -0.392454 -1.001772 -0.854729 0.016825 -0.270122 -1.016126 2.089626 0.278380 -0.060468 0.191200 1.308925 0.573436 -0.680621 -0.397236 1.314495 -0.477716 -1.114665 -0.375954 0.478629 -0.066782 -1.298951 0.623055 1.252154 0.559605 1.173976 -0.985051 0.614407 1.045188 1.090876 0.539875 -0.843732 -1.987541 -1.837808 -0.407587 -0.463675 0.233644 -0.081359 -0.231080 0.881830 -0.384023 -1.027677 -0.390538 0.301160 -0.441052 0.337359 0.599958 -0.089154 -0.654518 -0.918107 -1.017349 -0.631416 0.238457 -0.046515 -0.126503 -0.226284 -0.680716 0.242252 1.523219 0.403604 1.362362 -1.202834 0.551337 0.649603 -0.121092 0.450698 -0.734312 1.231565 -0.933604 -0.976798 0.196268 0.245744 -1.152578 -0.965234 1.009295 -0.268940 -0.231390 0.623277 0.307718 0.315489 0.565867 -1.186928 -0.785863 -0.118536 -1.084552 0.133426 1.015748 0.241368 0.134955 1.472696 0.519288 0.094675 0.696986 -1.396431 -0.277260 0.707858 -0.937099 0.798486 -1.513414 0.894370 -0.085498 -0.370539 0.185847 0.027351 1.644009 -1.277897 0.064396 0.096483 1.477239 -1.096471 -0.107690 0.838815 1.008224 0.514207 0.070074 -0.867096 -0.354249 -0.085777 1.374851 0.206570 0.511649 -0.193751
化 -0.697578 0.202378 0.117321 0.366396 1.294948 0.499750 1.555302 -0.229208 -1.608265 -0.419747 0.950050 0.584186 -0.004736 -0.086386 -0.221714 -0.107792 0.161894 0.816212 -0.732955 -0.314933 -1.751187 -0.560397 0.240747 -0.100587 -0.649536 0.243819 -0.118352 0.643351 -0.846925 0.108824 1.357259 -0.479959 0.497162 0.574573 0.441311 -0.283662 -0.083393 -0.178012 0.193538 -0.227150 1.058274 -1.307026 -0.316469 0.591621 -0.751846 0.662789 -0.041360 0.895820 0.647410 -0.099306 -0.213380 -0.494664 0.764239 -0.928446 0.851924 1.933799 0.773952 -0.213947 0.373898 -0.415513 -2.539696 0.448809 -0.862436 -0.784173 -0.425335 0.601306 -0.471900 0.184503 -1.732545 0.162875 0.090102 -0.691818 0.817153 0.104596 0.348940 0.198119 1.271441 0.517168 -0.627526 -1.447066 0.641300 1.633866 0.092768 -1.417116 -0.442187 -0.362208 1.204084 -0.073963 0.914063 0.024876 1.720413 0.729048 -0.924209 -0.604644 -0.102329 0.661846 0.467966 -0.088171 -0.294336 1.233849 -0.105225 1.233985 -0.361854 0.143642 0.178514 0.378329 -0.455044 0.702997 -0.381291 0.575526 1.327205 0.818321 -1.001225 0.333329 -0.553744 0.923572 -0.229244 0.712434 0.402799 0.165124 0.319799 0.252399 0.332353 0.473193 -0.611350 0.410608 0.869270 -0.027641 0.720744 0.424601 0.680422 0.125811 -1.552006 0.798143 0.180951 0.639334 0.279007 -0.867602 0.276398 -1.262575 0.376202 -0.755218 -0.918269 0.735667 0.453335 -1.520395 0.269820 -1.230390 -0.291956 1.369781 0.002937 -0.697775 0.520030 0.054725 0.419306 -0.196130 -0.348169 -0.354354 -0.022205 -0.861216 1.569398 0.750285 0.221485 -1.351456 0.010541 -1.049253 -0.258279 0.724538 -0.280998 -0.641155 0.571214 -1.079832 1.523666 0.523540 0.511945 0.115997 0.014884 -0.108071 1.113171 0.365129 -0.317509 -0.003048 -0.638685 -0.681444 0.409123 -0.151560 -0.469365 -0.007159 0.878770 0.714822 0.749810 -0.873357 0.337655 0.856942 1.649081 0.189806 1.477255 0.271902 -0.762921 -1.072476 0.086823 0.468135 -0.722792 -0.314517 -0.612071 1.068942 -0.248970 -0.030976 -0.474448 -0.553870 1.087079 -0.849375 -0.591648 -0.302261 -0.212712 -0.145416 -0.002647 0.754156 0.105094 0.573415 -0.578581 0.890060 1.411833 1.292703 1.371817 -1.455274 -1.486967 -1.742382 -1.439274 -0.412334 0.276043 0.403163 1.160747 0.578761 -0.431400 0.570661 0.011246 0.191484 0.236464 0.085690 -1.257324 0.276516 -0.694594 -0.430520 -0.161506 0.188105 -0.784908 -0.338292 -0.635135 0.058418 -0.662706 -0.424000 1.787228 -0.871781 -0.457712 1.128531 0.661086 0.167421 0.543980 0.452541 -0.349564 0.663241 -0.608453 -0.763268 -0.411740 -0.095545 1.460384 0.315202 0.662960 -0.463607 -0.099221 -0.164685 -0.610366 2.650894 -0.318035 -0.016088 0.722320 -0.442437 -0.372351 1.227556 -0.530551 0.313669 0.748359 -0.901786 -0.584960 0.742636 -0.515208 0.110238 -0.448759 0.736750 0.627389 -0.163294 1.134534 -1.529312 -0.418782 -3.801712 0.155563 -0.608386 -0.326848 -0.338294
显 -0.464927 -0.653892 0.576470 0.222467 0.269738 -0.573525 -0.277921 0.204879 -2.141491 -0.352915 0.052215 1.264034 0.843375 0.512360 0.280671 -0.862730 0.171246 0.785558 0.517185 0.267057 0.308100 -0.183793 0.363861 -0.076383 -0.762443 -0.666907 0.515934 -0.368280 0.127005 -0.083263 -0.290775 0.501722 -1.287453 0.446464 -0.382381 -0.317199 0.664502 -0.375200 1.158164 0.554335 1.282354 0.100112 -0.552156 1.173429 0.430385 1.016364 -0.921890 -0.802522 -0.512068 -0.480533 -0.977660 -0.305009 0.477684 -0.143513 0.289332 0.010992 -1.023133 -0.712301 -0.870850 -0.952577 0.235001 -0.470395 -0.472394 0.968475 -0.642413 0.038858 0.555349 0.078037 0.161420 -0.615943 -0.331718 0.962834 0.958772 -0.427255 -0.143918 0.415067 0.878923 -1.200562 -0.861177 -0.428996 1.117557 0.789027 0.060735 -0.656046 -0.217033 0.489496 0.556429 0.187959 -0.202950 -0.347928 1.753501 0.602427 0.057808 -1.105523 -0.401981 0.128415 0.460128 0.160785 -0.414429 -0.101275 0.258462 0.541342 0.339043 -0.446264 0.847771 -0.380150 -1.332214 -0.340285 -0.022123 -0.400855 0.360385 0.273387 -0.452306 0.329725 -0.695439 -0.006262 1.053920 0.489649 0.181453 -0.528810 0.341852 0.023566 -0.113482 0.048195 -0.849872 0.047526 0.644766 0.317061 0.827022 0.033026 0.618501 -0.019665 -0.814442 -1.154424 -0.598404 -0.712558 0.707814 -0.139571 0.317297 0.760449 1.593477 0.505017 0.685174 1.077251 -0.389060 -0.350150 1.323179 -0.223547 -0.944399 -0.309700 -0.012272 -0.658293 0.269743 0.043304 0.072267 -0.380426 -1.334792 0.521902 0.203190 0.164406 1.277892 -2.103035 0.312209 -0.827391 0.601550 -1.228276 -0.023838 -0.298327 -0.452343 -0.202318 0.248354 -1.137774 1.460555 -0.676875 1.346470 -0.063057 0.120920 0.502929 -0.185890 0.856108 -0.499798 0.587816 -0.590196 -0.352480 0.045171 -0.029461 -0.582614 -0.156455 -0.090515 0.424202 0.061076 0.176344 0.284885 -0.101728 0.078253 0.184470 -1.014163 0.691543 -0.449122 -0.053175 -1.126947 -1.202620 -1.341271 -1.420912 1.091175 0.371099 -0.106214 -0.282619 -0.408076 0.800436 2.063531 0.410301 -1.312600 0.125374 0.093454 -0.237106 0.816457 -0.461284 -0.193290 0.774778 -0.091386 1.099350 0.389643 0.432719 1.561591 -1.062009 -1.229613 -1.227648 -0.965677 -0.930313 0.540390 -1.349928 1.311809 -0.333995 -1.238624 1.215567 -0.758841 0.547257 -0.012784 1.060266 -1.630395 0.163152 -0.403699 0.482253 1.442359 0.653778 -0.494673 -0.667381 -0.575871 1.342104 0.537839 -1.467221 0.884255 -1.140471 0.258207 -0.410448 1.085500 -0.238029 -0.663467 0.741193 -1.104417 -0.036459 -1.677798 0.696555 -0.811319 -0.310721 0.542854 1.016828 0.396259 -0.800407 0.170513 0.271797 0.263877 0.268000 0.649925 -0.677921 -0.638368 0.023069 -0.135801 1.803855 0.669821 0.383511 -0.592984 -0.110962 0.194627 0.178865 -0.069874 0.021127 -0.052673 -0.274164 -0.563253 0.164237 0.933046 0.422221 -0.380407 -0.287518 -0.324255 0.377228 -0.333270 -0.954034
叶 0.512979 1.088429 -1.210484 0.412037 0.627886 0.931878 0.511598 0.036052 -0.355077 0.474297 0.368712 -0.084043 -0.542352 0.216709 -0.068771 0.020728 -0.503221 0.210361 -1.018456 0.771595 -0.654497 -0.286019 0.036463 -0.347037 0.565901 0.558948 -0.608952 -0.277029 -0.038594 -0.388201 -0.263855 0.559353 0.103918 -0.611294 -0.141288 1.093484 -0.026897 1.195139 0.365423 1.161199 0.366157 -0.204873 -0.052304 1.684960 0.289793 0.897606 -0.840117 -0.486804 0.117913 0.279343 -0.266354 0.163192 0.604480 0.071687 0.702620 0.929337 -0.061885 0.339729 -1.361639 0.434158 -0.077621 -0.160853 0.223750 -0.191896 -0.593874 0.763559 -0.895845 0.329716 -0.842652 0.637329 0.535182 -1.085149 -0.668412 -0.800222 -0.456901 -0.883153 0.338690 0.898168 0.805366 -0.473572 0.754599 1.053999 -0.916063 0.536794 -0.542826 -1.041719 0.324148 0.045036 1.142407 -1.253343 -0.370510 -0.080165 -1.030488 -0.215466 0.388113 0.352761 0.616075 0.402954 -0.265004 -0.278752 -0.221201 0.349554 0.736378 0.015951 -0.223709 0.691631 1.014881 0.180501 -0.060914 -0.226589 0.818753 0.952229 0.307672 0.123123 -0.968415 -0.058885 -0.218665 0.922880 -0.310469 0.596922 -0.051769 0.266008 1.048852 1.434139 -0.148442 0.679080 0.596555 0.827602 0.607424 -0.165081 -0.416761 0.439336 0.475134 -0.281164 -0.424960 -1.369852 -0.604859 0.279628 -0.099392 -0.139966 0.975524 -0.062094 -0.253893 1.073892 -0.177220 0.610634 1.187161 0.664445 0.444154 0.141431 0.242481 0.244439 0.465756 -0.158422 1.157022 1.344327 0.380371 0.649386 0.018086 -0.380494 0.143984 1.272279 -0.582031 -1.026719 -0.358479 0.306583 0.753223 -0.138594 1.092210 -0.195160 -0.405910 -0.561584 -0.565546 -0.674401 -0.667675 -0.034656 -0.793609 0.589646 0.199022 -0.249477 0.235277 0.664404 -1.091850 0.049887 -0.175606 0.302972 0.367511 -1.149413 0.306215 0.234161 0.267351 -0.201435 0.296340 -0.620514 0.527546 0.143127 0.393257 -0.085759 1.177294 -0.052287 -0.048524 1.353814 -0.370096 0.816915 0.585795 -0.463481 -0.263922 -0.163438 -1.156248 0.199294 0.072095 0.428052 0.846701 -0.343480 -0.067939 0.160653 -0.790989 -1.235580 -0.157021 -0.222799 0.472458 -0.432426 -0.949627 1.137420 0.083136 -0.696252 -0.883604 -0.857143 -0.189236 0.486556 0.219493 0.040116 0.591241 -0.858748 0.214315 -1.591832 -0.306696 -0.014158 0.025828 -0.615994 0.481049 -0.082295 -0.303006 0.601196 0.133491 -0.600089 -0.122297 -0.178183 0.173793 -0.779117 -1.384058 0.913188 0.459442 0.729238 -0.512944 0.196622 -0.355173 0.052224 -1.094309 -1.132661 0.012540 -0.692610 0.345731 -0.810157 0.506563 -0.869506 0.256181 -0.066231 -0.493790 -0.781653 -0.657782 1.121295 -0.048150 2.171502 -1.085706 -1.328371 0.003536 -0.141134 -1.464924 1.541090 -0.022543 0.243587 -0.127840 0.083454 -0.247945 1.630151 1.546437 0.401973 -2.331480 0.702325 0.864036 -0.240947 1.142738 -0.309943 -1.556627 -2.599086 0.218813 -0.322825 -0.305226 -0.382024
明 0.495441 -0.073575 -0.715353 -1.482487 0.554631 0.337181 0.074190 1.289988 -1.297172 -0.242061 1.139820 -0.375212 0.233281 -0.932871 -0.141430 -1.184119 0.978861 0.338211 -1.096419 -0.987344 -0.921683 -0.095163 0.778419 -0.208938 0.254336 -0.059308 0.130188 -1.316453 0.009494 -0.707672 1.693640 0.328442 0.786174 -0.401003 -0.426049 -1.099532 -0.399280 -0.102791 0.347239 -0.464796 0.508558 0.559294 0.474199 0.240886 -0.148588 0.355721 -1.032466 0.918014 -0.505004 0.332217 -0.708148 -0.183596 -0.908507 0.292952 -0.739457 0.496114 0.853551 -0.469808 -0.213180 0.207949 -0.990059 -0.051083 -0.218409 -1.564266 -1.361332 -0.882850 0.167721 0.348246 0.438979 1.387349 0.236013 0.848882 -0.486254 0.021280 0.331885 1.539155 0.428365 -0.671636 -0.386485 -0.784529 0.884946 1.944916 0.242117 -1.268045 -0.911216 0.442005 -0.131980 0.035130 -0.999388 -0.358473 0.892193 0.006390 -0.077619 -0.971707 -0.053254 -0.071992 1.257059 0.963904 -0.176069 -0.176001 0.498589 0.737998 0.658294 -0.761588 -0.435275 0.602849 -0.416632 -0.259255 0.694512 0.372099 0.368452 -0.653087 -0.469466 -0.185469 -0.095714 1.116194 -0.411504 0.483118 0.736970 0.810575 -0.000090 -0.392467 0.402675 -0.239259 -0.023035 0.410103 0.856622 0.864414 -0.129540 -0.346593 -0.274253 -0.145249 0.202439 0.451306 1.502720 0.486812 -0.081963 -0.570021 -0.365889 0.242020 -0.532758 -0.886054 -0.382153 -0.299946 0.307953 0.050358 0.121784 0.762398 -0.098606 0.922211 0.568545 -1.779103 0.425986 0.199391 -0.812277 0.401797 0.047097 -0.931903 -0.777560 -0.577054 0.925979 -2.157334 0.507511 -0.670311 0.955865 -0.086439 0.393149 1.323561 -1.008052 -0.674823 0.512139 -0.436912 1.278841 1.079551 -1.371531 0.373409 0.037783 1.215169 0.983887 -0.064429 0.327109 0.339875 0.264349 -0.476197 0.643687 -1.016984 -1.005247 0.353048 0.551539 -1.058912 0.460791 -0.294002 -0.586906 0.878254 0.859972 -0.678628 2.149166 2.106699 -1.445155 -0.884151 0.016734 0.623216 -0.372230 0.750548 -1.401440 0.991085 0.923159 -0.905531 -0.085856 0.335453 -1.851215 -0.293697 0.308334 0.765559 1.190195 -0.041776 1.338751 0.203450 0.701538 -0.124494 -0.805520 -1.074644 0.726379 0.024531 0.832622 -0.593805 0.808255 -2.287333 -0.206443 -1.330880 -0.039606 -0.276249 0.734930 1.641977 0.761550 -0.784561 0.016763 -0.067444 0.468218 0.957514 -0.703607 0.188108 -0.338079 -1.077168 -0.745954 1.613485 -0.302299 -0.595108 -0.292896 0.843386 0.363999 -1.514490 -0.218548 0.168075 0.693056 0.124982 -0.262140 -0.190538 1.577559 0.083564 -0.569988 -0.110334 -0.551102 1.208260 0.142261 0.473817 1.551144 -0.264463 0.928161 -0.129492 0.068236 -0.965305 -0.828499 -0.379982 0.100437 0.112834 0.855351 0.357474 0.230790 1.392669 0.007115 1.306163 0.119322 0.248473 -0.201964 -0.222516 -1.403985 0.596837 0.964773 0.391259 0.603480 0.288710 0.429922 0.244298 0.568954 -1.580778 -0.470712 -0.276105 -0.379573 0.870549
. -1.781853 0.203259 -0.105311 -0.436641 -0.366924 -0.556755 -0.065175 0.271391 -1.106856 0.011753 1.358358 0.262854 -2.226590 -0.925333 -0.893066 0.873807 -0.016318 0.780210 0.841327 -0.976899 0.908410 -0.392210 0.112020 0.785074 0.078937 0.087919 0.322335 0.113829 0.218339 -0.950124 0.294580 -0.372104 -0.961980 -0.989570 0.307708 0.399745 0.604326 0.411758 -0.549996 0.360111 -0.836498 -0.026664 0.574522 -0.228464 -0.464503 -1.077724 -0.580230 -0.622922 0.763796 -0.093360 -0.248426 -0.035464 0.354889 -0.354894 0.200630 -0.059127 -0.096420 -0.863442 0.065973 0.469507 -0.283626 0.856765 0.226076 -1.088183 0.492428 1.371157 -0.294899 -0.164437 -1.141129 0.752763 0.101579 -0.735766 0.127076 -0.084744 0.106202 0.257714 -1.024669 1.498712 -0.447601 0.041842 1.314841 0.408298 0.449585 0.169872 1.012989 -0.626977 -0.369694 -0.908551 1.704763 -1.307278 -0.759836 0.617538 -0.062813 0.446675 0.581811 0.647233 -0.736202 -0.772088 0.071862 -1.264998 1.320827 -1.396483 -0.879576 0.240132 -0.239808 -0.007435 0.086120 0.879091 -1.518933 -0.165731 -0.125208 0.607103 -0.811814 0.946313 -0.562269 1.376984 0.771975 0.657518 0.091059 -0.809786 0.910490 -0.012166 0.172410 0.116471 0.650319 -0.851663 -0.626194 -0.336552 -0.365778 -1.661781 -0.504570 0.733963 0.037811 0.466870 -0.806426 0.044307 -1.468522 0.367953 0.392093 -1.151217 -0.113204 0.280961 -0.181550 -0.626137 0.481257 0.056447 -0.259958 -0.006721 0.192727 -0.032665 -0.053863 1.390058 -0.466022 -0.168136 -0.092807 0.456908 0.371189 0.624004 -0.690239 -0.364211 -1.147187 0.079159 1.182698 -0.539161 -0.050727 0.305641 0.320579 -0.699882 0.237899 -0.137120 0.264784 2.022300 -1.609309 -0.947004 0.739845 -0.650143 -0.802936 -0.108020 0.122880 -0.057659 0.358124 -0.017641 0.056964 -1.268775 0.060695 0.597578 -0.245945 -0.277235 -0.040101 -1.084514 0.243300 0.030511 0.502871 -0.748155 -0.450961 0.706294 0.402757 0.698999 0.291629 -0.280032 0.526486 -0.102352 0.303707 -0.432663 0.523060 -0.802888 -0.638492 1.291456 -0.570310 0.439208 -0.606655 0.004227 0.429244 0.013029 0.153453 0.395249 -0.151480 -0.691614 -0.171894 -0.718588 -0.641025 0.818949 0.512809 -0.487005 -0.440802 0.595697 0.185117 0.152345 -0.840031 0.093224 -0.389411 -0.271076 -0.404003 -0.401594 -0.350871 0.520549 0.130226 -0.540425 -0.416650 -0.672937 0.711864 -0.244203 0.325636 -0.127768 -0.415394 -0.387421 -0.508897 -0.199859 -0.254939 -0.387198 0.781233 -0.852996 0.632527 0.485608 -0.590794 -0.221676 0.050993 -0.756820 -1.121716 -0.544538 0.641157 -0.033397 -1.285789 -0.341543 -0.901429 0.455853 -0.281200 0.246612 -0.516688 -0.242031 -0.165905 -0.951021 0.217345 -0.266328 -0.846318 -0.990943 0.440736 -0.795952 -0.647808 -0.066354 -0.298329 -1.028240 0.071994 0.531751 -1.237434 0.302501 -0.406201 0.206024 -1.510191 -0.373981 0.265999 -0.497444 0.273136 0.308403 0.468861 -0.318695 -1.342144 -0.047152 0.162018 -1.182659
前 -0.819947 -0.651662 0.902511 -0.428167 -0.175594 -0.283797 -0.484918 0.883889 -0.248785 0.042552 0.352595 0.778344 0.535731 -0.581704 -0.528104 0.451401 0.429443 0.418168 0.105514 -0.649010 -0.758977 0.397778 1.043785 -0.511707 -0.824161 0.430500 0.299760 -0.300276 -1.556489 -0.353668 1.273810 0.305848 0.502566 0.226985 0.092543 -0.013305 0.696058 -0.011617 0.415517 0.579705 0.682562 -1.090419 -0.441429 0.279333 -0.473283 0.744987 -0.041993 0.996768 0.415464 0.683450 0.230306 0.078673 0.557528 -0.071569 0.053159 -0.019349 -0.226401 0.085085 -0.440586 1.678049 -0.522943 0.451543 0.725234 -1.874288 0.688399 0.423775 -0.307944 0.179601 0.511390 0.947114 0.892574 -0.655175 0.234642 -0.281816 0.043205 0.333115 -0.497975 0.047423 -0.009789 -2.275214 1.019911 3.012774 -0.134702 -1.017457 -0.999673 -0.604619 0.472042 -0.738505 0.559232 -0.532673 1.154886 -0.506902 -0.449233 -0.703299 0.403233 0.260903 -0.487153 -0.358106 -0.043364 0.189353 -0.246017 0.298392 -0.299763 -0.519775 -0.959653 0.939792 0.004205 0.943771 0.024223 0.465942 -0.516344 1.303846 0.657366 -0.235225 -0.777510 1.214996 -0.395090 0.426354 -0.450334 -0.117639 -0.092746 0.650564 -0.663564 -0.266030 0.348866 0.420775 0.038942 -0.861857 0.204688 -0.176405 -0.712633 -0.019913 -0.656957 -0.550294 1.092843 -0.620724 -0.870070 -0.207354 -0.798491 -0.491442 0.405956 0.410768 -0.389640 0.161625 -0.366515 0.353912 0.630881 0.358892 0.704023 1.437655 0.042150 0.423832 0.201417 0.340285 0.259431 0.069980 -0.569087 -0.098281 -0.551765 1.918175 1.135666 -0.040746 -0.765222 -2.175750 1.079212 -0.057790 0.251025 -0.413511 -0.422805 0.115329 0.314942 -0.179467 0.184962 -0.480962 0.281491 0.924185 -0.476656 0.000128 -0.770723 -1.193983 -0.242955 0.494493 1.348743 -0.137287 2.031016 1.602251 -0.891278 0.112101 0.602138 0.573376 0.280774 0.600715 -0.000783 0.017978 -0.197304 -0.214431 0.280085 0.726548 0.015334 1.087558 0.345727 -0.139184 -0.377150 -0.421233 -0.740412 0.856320 -1.227145 -0.908608 -0.099091 -0.209855 0.877056 0.223381 -0.877443 0.790045 -0.458987 -0.202940 0.338408 0.206563 -0.154072 0.068166 0.218267 -0.930104 -0.120514 0.198650 0.739540 -0.679571 -1.316307 -0.480060 -0.341424 -0.535027 0.918976 -0.563359 0.328954 0.505391 0.112763 -0.636391 0.346415 0.640384 0.384120 0.841611 -0.630088 0.244080 -0.441662 0.149143 -0.100872 2.201599 0.025008 -0.664218 -0.629311 1.477636 1.465282 0.152960 1.267482 -0.834891 0.430955 0.634327 -1.120602 -0.128738 -0.707806 0.409509 -1.400905 -0.187563 0.001608 1.074405 -0.259774 -0.083330 0.766612 -1.024539 0.305156 -1.463785 0.898298 -0.369937 -0.367040 0.656126 0.295800 -0.565031 0.031956 0.122695 -0.799878 1.650936 -0.119326 1.595875 -0.382259 -0.135009 0.563687 0.103176 0.709109 0.479484 -0.411014 1.426050 1.198852 -0.455144 0.981461 0.270261 -0.076641 -1.398645 0.510909 0.176875 0.288500 -0.633456
及 0.448297 -0.620184 -1.057496 -0.158366 0.404901 0.120788 -0.079403 -0.263677 0.232463 -0.095259 0.049596 0.398462 0.614422 0.473824 -0.020451 -0.351726 -0.841590 0.536145 -0.252052 0.456736 0.245051 -0.035314 -0.104456 -0.464250 0.503494 0.163455 -0.164811 0.573222 -0.094717 0.421940 0.727660 0.642666 -0.484534 -0.209765 0.245104 -0.702365 -0.746096 0.738271 0.280456 -0.361517 0.886043 0.198929 -0.590685 0.027547 -0.447225 0.348834 0.331417 0.127890 0.513299 0.400064 -0.178265 -0.416966 -0.291243 0.596055 -0.065915 0.273244 0.674199 0.182099 -0.165921 0.445998 -0.382190 -0.587452 -0.559891 -0.211200 -0.229257 -0.309073 -0.474924 -0.978310 -0.049413 -0.078930 0.222968 0.154302 0.091788 0.690675 0.151453 0.167645 -0.456503 -0.410838 0.256913 0.720399 -0.612908 -0.467893 -0.047987 -0.094840 -0.726726 -0.156688 -0.103058 -0.006238 -0.795949 0.418431 0.657615 0.037455 0.826819 0.381946 0.497901 0.419660 -0.419791 0.630448 -0.210959 -0.265319 -0.371448 0.506541 0.588374 0.064034 -0.767133 0.136492 0.047643 0.476382 0.024388 -0.045845 0.388109 0.480042 0.415330 -0.000743 -0.110641 -0.809860 0.800706 0.233920 0.273589 0.496558 0.143600 0.192283 0.064366 -0.420153 0.244439 0.195893 0.201212 0.511029 0.362587 0.366052 -0.091766 -0.023101 -0.907329 -0.473757 0.116805 -0.235995 -0.209569 0.782801 0.097371 1.320622 0.244507 0.967263 1.035155 0.290401 -0.368177 0.871841 0.745959 -0.020520 0.227036 -0.073484 -0.237116 -0.210277 -0.071963 -0.991873 0.027942 -0.777858 -0.584762 -0.876145 0.336931 0.541369 -0.107016 -0.536872 0.035692 0.969656 0.142635 0.030535 -0.185371 -0.000064 0.579547 -0.482863 -0.554294 -0.941939 0.441326 -0.214688 -0.448688 0.199104 0.575919 -0.457044 0.640752 -0.008749 -0.148711 -0.076847 -0.142482 -0.263990 0.063231 -0.330372 -0.218095 0.440465 -0.218214 -0.964813 -0.206427 0.292353 0.513357 -0.001897 -0.089180 0.504335 -0.155712 -0.708017 0.046361 0.166351 -0.626563 -0.029123 0.092721 -0.153477 0.065710 0.283237 0.363809 0.134908 -0.481482 -0.351342 0.179412 -0.032849 0.333469 0.158349 0.431175 -0.011425 0.292840 0.515143 0.332977 0.155482 -0.047864 0.244522 0.231738 -0.539832 0.472124 0.691033 0.555483 0.302764 -0.075641 -0.402319 -0.176885 0.116209 0.279476 0.158801 -0.576121 0.057108 0.402120 -0.231046 -0.422765 0.113545 -0.486511 -0.081226 0.409867 0.125531 0.301710 0.660663 0.680483 -0.138195 -0.242802 1.007638 -0.114271 -0.538345 0.641983 -0.143636 0.596332 -0.128087 0.499477 -0.121109 0.173772 0.167741 -0.455554 0.319643 -0.080025 0.675265 0.355518 0.107880 0.389467 0.216877 1.318476 0.045069 0.405885 0.061681 -0.244697 -0.345859 0.760213 -0.054445 0.055651 0.392885 -0.531988 0.129772 -0.257688 -0.626765 -0.122662 0.397970 0.408189 0.412039 -0.640514 0.019593 -0.123774 0.307238 -0.054915 0.350758 0.467590 0.057591 -0.020302 -0.408170 -0.162532 -0.339578 0.330938 0.258680
胸 0.533257 -0.017683 0.129184 -0.461667 -0.178418 -0.839192 -0.089840 1.229408 -0.642995 -1.466467 -0.657413 0.134621 0.528197 -1.009761 -0.198277 -0.567077 -1.117721 -0.625378 -1.126866 0.677191 -0.050125 0.892314 -0.298077 -0.206511 -0.685099 0.506484 0.805611 -0.974010 -0.221393 -0.624413 0.463094 0.332134 -0.497766 0.354947 0.229835 0.370688 -0.133631 0.252375 0.587526 -0.531853 0.722777 -0.507884 -0.079986 0.851141 0.464911 -0.544720 -1.279165 -0.081354 -0.732352 -0.859640 0.509211 -1.154655 0.242283 -0.514299 0.192646 -0.276164 0.683534 0.730595 -0.046890 1.294883 0.115657 -0.225751 0.216365 -0.435328 -0.753308 0.449220 -0.506459 0.833105 -0.026213 0.510836 -0.274854 -0.248643 0.573879 -0.203924 -1.032532 0.964047 0.147742 -0.155084 -0.781320 -0.685682 0.493155 0.210333 0.114758 -0.229790 0.000587 -0.466311 0.605491 -0.557537 0.558600 -0.062968 0.177401 1.086176 -0.391633 0.152221 -0.571165 0.352504 0.551032 -0.644787 1.007983 -0.664775 0.092419 -0.728699 -1.826405 0.169884 -0.043949 0.562958 0.719256 0.114439 -0.061935 -0.304211 -0.300018 -0.063334 -0.368424 0.326808 -1.196185 -0.096506 0.951655 0.068466 -0.283052 0.554325 0.626948 -0.289006 0.927046 -0.608798 -0.827989 -0.475680 0.127876 0.509024 0.407840 -0.843196 -2.061590 0.840354 -0.112670 -0.614469 0.535688 0.574685 -0.839630 0.967653 -0.045255 -0.039249 0.494895 1.192644 0.270966 0.160960 -0.266029 -0.046559 0.420971 0.785918 0.006457 0.061497 0.091243 -0.204964 0.214786 -0.336487 0.892471 0.779271 0.133266 -0.535073 -0.181555 1.127463 2.283261 -1.517725 -1.039056 -1.084654 -0.646393 -0.395625 0.575461 0.614372 1.945343 0.495918 1.367436 -0.114949 -0.384218 -0.195858 1.194625 1.690762 -0.528214 -0.118935 0.624237 0.482453 -0.352365 0.899469 -0.436424 -0.498700 1.148076 0.629452 -0.583656 -1.023118 -1.216547 -1.113952 -0.064099 -0.103407 0.433193 1.429654 0.463908 -0.000496 0.134440 1.051726 0.143409 0.521332 -1.130519 -0.370076 -0.073794 0.340294 0.050363 0.296515 -0.007266 -0.182958 -0.304415 0.638660 -0.877930 -0.109835 -0.132158 0.397528 -0.102911 -0.009776 -1.027893 -1.246270 0.519114 0.699380 0.177366 0.000156 0.060296 -0.983116 1.125336 -1.089160 -0.425421 0.548876 -0.022679 -0.829218 -0.204525 -1.053062 -0.481038 0.803908 -0.384615 -0.661635 -0.458983 0.015349 -0.179822 -0.086413 -0.287684 -0.285314 -0.798376 -0.409271 -0.634644 0.343071 -0.380801 -0.315640 0.304451 -0.415020 -0.367586 0.124695 -0.049818 -0.872860 0.448411 0.033344 0.407922 -0.229767 -0.074362 -1.581597 0.674681 0.989988 0.424856 -0.426518 -0.882711 0.871854 -0.832046 -1.205516 1.381197 -0.676803 -0.665761 -0.209303 0.147887 0.073209 0.324963 -0.236125 0.284874 0.118591 0.648982 1.062751 0.095145 0.539838 -1.273260 -1.475842 -0.153055 1.525218 0.510167 0.521292 -1.426014 -0.268369 0.349818 -1.366034 0.194533 0.438360 -1.250611 -1.956201 1.695414 -0.487475 0.187594 -0.191628
管 0.279601 0.123897 -1.692489 -0.959390 -0.582065 -1.868458 -0.398435 0.524115 -0.703472 0.784029 -0.647228 -0.440001 1.458309 0.289006 1.091419 -0.693806 0.050203 0.632095 0.206948 0.592391 -1.293076 0.200517 0.210276 -0.722617 0.476783 0.669638 -1.795300 0.175411 1.319043 1.142391 1.054005 -0.459184 0.179254 0.619044 0.215113 -0.564286 -1.161856 0.556554 0.528458 0.987098 0.758143 -0.566867 -1.232750 0.576287 1.394287 0.974536 -0.251684 -0.793542 1.097497 -1.036139 0.354362 -0.556341 0.189177 0.262842 -0.023075 0.233834 1.497254 0.094107 0.634651 -0.432245 -0.688102 -0.750187 0.430615 0.577759 -0.461967 0.344241 0.704960 0.407904 -0.780157 -0.644986 1.159078 -0.652916 -0.423862 0.572694 1.445495 0.046099 0.015711 -0.138237 -0.290934 -0.145270 0.388453 1.496087 0.460440 -0.780446 -0.875320 -0.007677 0.373018 0.008305 0.934693 0.123183 0.951324 0.444188 0.518100 -0.490588 0.488732 -0.251717 0.017863 0.360799 1.428272 0.797405 -0.315141 0.014449 -0.596780 -0.639711 -0.324972 -0.075043 0.035067 -0.581137 -0.106339 0.049185 -0.232417 0.703808 -0.087614 -0.945587 0.364399 0.416670 0.082912 0.272528 1.860803 0.796357 -0.704454 0.110118 -1.027118 -1.048310 0.420766 -0.233297 1.324699 1.662233 -0.450704 0.202559 -1.500636 0.034234 0.774317 -0.472540 0.966642 -0.930316 -0.067879 -0.017936 -0.458455 1.524380 -0.126789 0.699919 0.727532 0.084542 0.081458 -0.619464 -0.457048 1.256610 -0.137483 -0.580203 0.714177 -0.049120 -0.641347 -1.125602 -0.001972 -0.240089 0.543966 0.361394 0.333832 0.872654 0.597415 0.316443 1.338347 -0.133041 -0.126233 -0.157937 0.057269 -0.881178 0.981221 -0.974279 0.853909 -2.180303 0.020976 0.079270 -1.399660 0.491314 0.609610 1.187912 -0.511670 -0.115215 0.995153 0.987960 -0.580134 0.314552 0.122135 -0.820819 -0.442332 -0.612251 0.415317 0.057606 0.906926 -0.952217 0.661442 0.550322 0.124828 -0.018986 0.104156 -0.038506 0.548611 0.143761 -1.313059 1.016464 -1.058838 0.634570 -0.182097 0.181474 0.232774 0.243913 -0.521750 -0.253022 0.704652 -0.484101 1.048455 -0.262362 -0.311200 -0.216328 1.400727 0.370447 -0.493241 -0.721620 0.855753 0.866414 -0.121234 -0.854561 0.253219 0.300264 -0.149165 1.309988 0.243155 0.817094 -0.465147 0.378964 -0.173709 0.874457 -0.139064 0.711651 -0.663973 -0.253374 0.643668 1.169196 0.337714 -0.661275 -0.025961 -0.093337 -0.619187 1.784954 0.226594 0.385617 -0.947453 0.971663 -0.760651 0.075604 1.125399 -0.912579 -0.080700 0.145424 -0.092996 1.644401 0.636545 0.243246 -0.289365 -0.586620 0.906632 -0.563216 0.162412 -1.220036 0.598015 -0.250672 0.135614 0.201004 -0.691879 0.228674 0.247535 -0.040460 0.377291 -0.743153 0.452759 0.628533 -1.343547 0.669420 -0.112640 -0.715901 0.817859 -1.185507 0.162294 -0.035783 0.067687 -0.168359 -0.662466 0.187410 0.267461 0.553359 0.740079 0.093548 0.522469 -1.397330 0.129941 0.795662 -0.784463 -0.055765
强 0.846027 0.494774 0.755879 -0.145442 1.243083 0.697803 -0.047433 -0.037063 -0.817347 0.985659 -0.284233 -0.162543 -0.718655 -0.122852 -0.279017 0.253690 0.953247 0.021315 -0.149548 0.299647 -1.678807 0.156128 0.138939 -0.956984 -0.247391 -0.782862 -0.078080 -1.129248 0.022498 -1.243896 -1.098367 0.631598 -0.000459 -1.133107 -0.375450 -0.381879 1.144962 -0.702972 1.157503 0.913702 0.002043 -0.923207 1.245030 0.921507 0.202050 0.081686 0.021556 -0.905354 0.082727 -0.270707 -1.781511 0.349830 0.060897 -0.440270 -0.269433 0.404398 0.623279 -0.031242 -1.559349 1.529128 -0.581421 -1.161067 0.635514 -0.540267 -0.182110 -0.033939 1.273941 0.301197 0.597761 0.093339 0.803541 -0.005280 0.022834 0.456357 0.093304 1.486700 -0.819330 -0.491895 -1.229685 -1.192762 0.811365 2.362208 0.700051 0.618804 -0.254841 -0.191544 0.602491 -0.459164 0.835541 -1.343847 1.493665 -0.197440 -0.618195 -0.452229 0.871242 0.531917 1.209732 0.459368 -0.011598 0.595814 -0.090137 0.950417 -1.123831 0.001577 0.760124 1.241167 -0.519313 -0.455836 0.348063 0.763227 0.497372 -0.382087 -0.213669 -0.687979 1.035164 0.551049 -0.059405 0.999743 0.805739 0.932372 -0.157607 -0.870022 -0.384035 -0.329677 -0.212687 -0.319854 0.246869 0.172869 0.064467 0.348251 -0.882631 -0.798883 0.643452 -0.594418 0.233357 0.535241 -0.110705 -1.776405 0.619369 -0.457673 -0.815587 -0.871183 -0.312894 0.993161 0.764227 -0.000640 0.229576 -0.783640 0.130253 0.284782 -0.281701 -1.022341 0.563549 0.006718 -0.468315 0.195284 0.507926 -0.340752 -1.006778 -0.427735 1.140857 -1.082838 -0.071927 -0.745302 0.267903 -0.433848 1.049848 0.919661 -1.376567 -0.585695 0.238129 -0.480291 0.020125 -0.756702 0.286842 -0.715407 -0.043348 0.730159 -0.253252 1.291502 -0.107442 0.876474 1.004962 -0.293337 0.355069 0.422038 -0.106025 0.729936 0.038720 -0.261344 0.636908 -0.235994 -1.028973 0.111125 0.049528 -1.343238 0.381892 0.622300 -1.746688 0.069748 -0.193774 0.250427 -0.670761 0.310957 -0.408153 0.415893 1.449332 0.845510 -0.381060 -0.160307 -0.476959 -0.214882 0.143029 0.229162 -0.521367 0.567836 0.685669 -0.308906 -1.148486 0.447428 -1.332994 0.838232 -0.492245 0.410124 1.052264 0.514042 0.410695 -1.424819 0.521136 -0.504716 -1.162377 -0.434147 0.183389 -0.224358 -0.449262 1.013231 0.727274 -0.395305 1.456406 0.707592 -1.635580 0.946163 -0.217394 1.028199 0.508437 0.276637 0.195119 -1.254451 0.261764 1.236825 0.939164 -0.924028 0.596677 -0.535935 -0.959850 -0.865138 -0.193543 0.291763 -0.749139 -0.099971 -1.291956 -1.385618 -0.901842 0.338510 -0.750936 -0.673322 0.277228 0.363539 -0.286924 -0.525741 0.328719 -0.377367 0.016669 1.313680 -0.667290 -0.173507 -0.412404 0.177058 0.420769 1.512840 0.630274 0.845279 0.733341 0.448499 0.678512 0.467168 0.534106 0.359094 -0.022899 1.483784 0.237998 0.562069 0.398537 -0.576105 0.230670 -1.669363 -0.151131 0.332900 -0.355683 -0.749842
约 -2.001523 0.225422 0.619345 -0.455683 -0.717692 0.208391 0.580491 0.702154 -1.643933 0.423591 0.585955 0.214873 -3.046449 -0.529305 -0.037516 1.425598 0.868952 0.670322 1.647824 -1.792546 1.519940 -0.411740 0.568039 1.294711 -0.293320 -0.123542 1.096897 0.482279 -0.109611 -1.155026 -1.074368 -0.724333 -1.460579 -0.772211 1.309261 1.362169 0.441649 -0.712887 -1.204015 -0.394118 -0.568708 -0.307058 1.164857 -0.409043 -0.591148 -1.291251 1.222635 -0.259786 0.715137 0.142242 -0.781652 1.877925 -0.128004 -0.751739 0.157120 -0.892741 0.466818 -0.270473 -0.068620 0.152116 0.991135 1.520021 1.095231 -0.580008 1.559894 0.957648 -0.213678 0.848107 0.098443 1.483456 0.029586 -0.749348 0.443653 0.473359 -0.212549 0.513301 -1.846515 1.401400 0.090400 -0.106634 0.192909 2.391802 0.355709 0.442539 0.425821 0.354840 -0.876097 -0.625882 1.153605 -1.397720 -0.274762 -0.719099 -0.671265 0.321348 1.139853 0.695227 -0.216652 -0.452017 0.500308 -0.438235 0.419025 -1.158893 -2.269045 0.766376 -0.095674 -0.455719 0.097512 1.048844 -0.528233 0.448966 -0.924329 0.008432 -0.346964 -0.546706 0.173349 1.243083 0.494372 -0.194064 -0.114585 -0.840612 1.402697 -0.966956 -0.103828 1.383584 0.196366 -1.042529 -1.648293 -0.617019 0.277140 -1.741659 -1.145101 0.109959 -0.128661 -0.114722 -1.638438 1.882827 -1.106310 -0.474475 0.922462 -0.852902 -0.744059 -1.052814 -0.688831 -1.077309 1.369443 1.093442 -0.513656 -1.067054 -0.930698 0.365916 0.328910 -0.159794 -0.168993 0.473075 -0.912950 0.914005 0.635518 1.630557 -1.297036 0.325627 -0.958495 -0.694287 0.681153 0.334415 0.658323 0.486492 1.147929 -0.651375 -1.155458 0.733231 -0.695074 2.869283 -0.978970 -1.696170 0.795270 -1.307582 -1.358600 -1.404741 -0.214155 1.276509 0.777416 0.090600 0.576996 -0.629533 -0.023873 1.304472 1.502437 0.972289 0.049654 -1.074776 0.144747 0.326444 0.531709 -0.813210 -0.380187 0.111456 0.501759 0.286430 -0.106084 -0.267684 1.054883 -1.121030 -0.464824 0.738427 -1.320406 -0.744672 -0.086528 0.318554 0.497734 0.206224 -1.690646 -0.422880 0.574657 0.361660 -0.949084 0.289235 0.376967 -0.947828 0.478623 0.052105 -0.794769 0.867243 1.010527 -0.010441 1.189499 -0.186507 -0.888970 -0.015076 -1.092749 -1.801981 -0.944254 -0.498959 0.262185 0.857875 -0.831086 0.135898 0.258684 0.499022 0.044575 -0.866994 -0.210570 0.499757 -0.067668 0.778518 -0.156145 -0.435011 0.026711 1.293463 0.890000 0.424989 -0.127145 -1.628321 0.968349 -0.160579 -1.401986 -0.155759 -0.319384 -1.334188 -1.310622 -0.020483 -0.621907 -0.105967 -1.410046 0.664246 -0.656764 -0.564649 -1.015987 0.004961 -0.845935 -0.386584 -0.277273 0.201921 0.239617 -0.214355 -1.561492 -0.731156 0.078001 -0.875743 -0.233388 0.062638 0.310553 -0.281581 1.079021 0.185351 -1.322949 0.673758 -0.021712 -0.146646 -1.415891 -0.504168 0.676249 -1.067737 -0.076665 0.407779 0.042086 0.010857 -1.502110 -0.054880 -0.010631 -1.601010
