822 300
， -0.177857 -0.285892 0.493403 -0.288163 0.044455 0.177839 0.135094 0.449363 -0.123748 -0.230690 -0.533274 0.147132 0.858229 0.563288 -0.056719 0.262365 0.075574 -0.446127 -0.479171 -0.878455 0.134747 -0.380473 0.031474 0.272227 0.714465 -0.570675 0.499452 0.364380 -0.250177 -0.399390 0.357928 -0.118924 0.379036 -0.219833 -0.119206 -0.345557 -0.759622 0.479657 0.041525 0.101342 -0.161450 0.263648 -0.279877 0.022334 -0.029336 0.049098 0.214806 -0.375214 -0.103770 0.447030 -0.347241 -0.119088 -0.652328 -0.101515 -0.215107 0.398762 -0.315044 -0.396283 -0.824173 -0.468273 0.163381 0.051956 0.338898 0.237611 0.415678 -0.380739 -0.175527 0.392808 0.603538 0.627974 0.292887 0.797855 1.010242 0.309830 0.441074 0.950941 -0.825566 -0.871806 0.224474 -1.316166 1.234247 -0.593708 -0.123629 0.778757 0.408779 -1.268121 -0.869091 -0.858913 0.344799 1.501606 -0.714416 -0.487833 0.811027 0.973534 1.235552 -0.226802 0.661268 0.214566 0.317739 -0.103967 -0.428817 -0.041628 -0.208780 -0.002376 0.041045 -0.112860 0.313175 0.622135 -0.165385 0.235982 0.076720 -0.440594 -0.017506 -0.173776 0.059981 0.130187 -1.208481 -0.134023 0.054216 0.279878 -0.801522 0.429498 -0.626069 0.591890 0.508932 -0.702870 0.475103 -0.446278 -1.243962 0.037051 -0.830504 0.104991 0.878268 0.406301 -0.250478 0.363454 -0.207664 0.239480 -0.527245 -0.249446 0.113380 0.607092 -0.033447 0.042280 -0.048915 -1.077573 -0.738391 0.020390 -0.089994 -0.127724 0.598297 0.201212 -0.074273 0.327403 0.432330 0.516315 -1.532704 -0.178789 0.237537 0.653884 -0.243540 0.391373 -0.689159 -0.184178 0.005644 -0.026699 -0.483863 0.070996 -0.106402 0.471157 0.787028 0.826682 -0.864149 0.668254 0.904898 0.116154 -0.959984 -0.271275 -0.128665 -0.263673 0.490944 0.775221 0.347987 -0.027357 0.374922 -0.059798 0.053878 -0.759991 -0.423222 0.149819 -0.372929 -0.121757 0.162986 0.309849 0.325986 -0.423060 -0.318138 0.309627 -0.088392 -0.314388 -0.771916 0.192721 -0.716905 -0.196395 0.054855 -0.358442 -0.232028 -0.461961 0.318730 -0.114509 -0.576397 0.458988 -0.068831 -0.384988 0.074337 -0.417746 -0.107740 -0.173525 -0.688549 0.148575 -0.367117 -0.231771 -0.342613 0.139124 -0.179957 0.042905 0.975843 -0.445355 1.236546 0.026367 0.084525 -0.059613 0.305737 -0.203418 0.681238 -0.335816 -0.569761 0.383451 -0.494020 0.394932 0.234650 0.240514 -0.061986 0.275206 -0.259249 0.382594 0.121330 0.337706 -0.281170 -0.583677 -0.238025 -0.742665 -0.630777 -0.178948 -0.535192 -0.127364 -0.125016 -0.693898 0.182190 0.056687 -0.034360 -0.319935 -0.289559 0.054985 -0.062740 -0.290341 0.415126 -0.105160 0.952400 0.923130 0.428324 0.176985 -0.005632 -0.206884 0.343947 -0.327061 0.086356 0.397529 -0.355102 0.657167 -0.826197 -0.015441 0.344339 -0.333196 0.295049 -0.376042 0.287579 -0.771254 -0.036259 0.281552 -0.019678 -0.746976 0.510915 0.370472 0.036493 0.239446 0.170033 1.192105 0.275660 0.090076
。 0.427865 0.253642 0.338652 0.268939 -0.003999 -0.552014 0.299919 0.195411 -0.458613 0.054867 -1.092997 -0.946665 -0.035711 0.939079 -0.816018 0.252422 -0.290120 -0.602235 0.545762 -0.409730 0.104303 0.774726 0.539028 -0.939230 -0.206333 0.106599 0.166834 0.258255 1.052088 0.127041 -0.381988 0.059410 -0.521732 0.219083 0.531199 -0.140337 -0.425134 0.706219 -0.216024 -0.019087 -0.056953 -0.167168 -0.243038 0.139286 0.382140 0.250495 0.989267 -0.464428 0.536875 0.127409 0.031882 -0.221144 -0.159475 0.014312 0.099129 -0.062066 -0.494771 0.378826 -0.964595 -0.019167 -0.695344 0.049969 0.870287 -0.165070 -0.262987 -0.222243 -0.464810 -0.077887 0.760497 0.020643 0.344383 0.647579 0.179111 0.193263 0.502542 0.057716 -0.191676 -0.061560 0.724571 -0.722657 0.588376 0.198665 0.163419 0.641745 0.154231 -1.004334 -0.480125 0.233845 -0.226281 1.668198 0.108871 -0.549695 0.384051 0.470178 0.058171 -0.146904 -0.060257 0.536280 -0.135947 0.720873 -0.275884 -0.711771 -0.956503 0.589025 -0.680810 -0.724194 0.263778 1.183536 -0.255868 -0.109889 0.062126 0.197714 -0.726692 0.097618 -0.165569 -0.311582 -0.116770 -0.765738 -0.422724 0.440496 -0.891510 1.492712 -0.554475 -0.396014 -0.599931 -0.375885 0.198263 -0.115059 -0.772690 0.741940 -0.132072 -0.342790 0.443742 1.353071 -0.290493 0.367965 -0.550595 0.167771 -0.326266 -0.026606 -0.170190 -0.039200 -0.361496 -0.355548 -0.112317 -0.860025 -1.088952 -0.303175 -0.288494 0.343914 1.087726 0.059846 0.259238 0.205419 0.920875 -0.463234 -1.807543 -1.163977 0.505237 -0.178708 0.039640 0.290658 0.047930 -0.137897 -0.141748 0.491396 -0.178649 -0.225716 0.332150 -0.255847 0.071152 -0.171826 0.119572 0.358872 0.719609 0.319620 -0.415541 -0.339498 0.504241 -0.342615 0.097168 0.117720 -0.547741 -0.811827 0.719788 0.439574 -0.653504 -0.670665 -0.757144 -0.218960 -0.361996 -0.150396 1.106994 -0.109108 -0.339354 -0.698791 0.794054 0.092400 -0.334804 -0.727206 0.184925 -1.055768 -0.051549 -0.466840 0.078349 -0.176306 0.108104 0.619970 0.265517 -0.096123 -0.107224 0.549650 0.281245 -0.434255 -0.645429 0.410231 0.211896 -0.263474 0.250500 0.169798 0.028251 0.700679 -1.049083 0.740024 0.178383 -0.189887 0.538065 0.028658 0.558984 -0.333038 0.217866 0.055161 -0.453830 -0.245082 -0.373694 0.560108 1.220045 -0.365681 0.274986 -0.672245 1.071107 -0.388583 0.180993 0.282725 0.020809 0.149041 -0.508294 0.012903 0.115827 -0.653159 -0.173258 0.021265 0.374481 0.039421 0.245264 0.580137 -0.115564 -0.483669 0.952820 0.326767 -0.031191 -1.321299 -0.745012 0.514823 0.518971 0.586175 -0.534167 -0.803175 -0.281784 0.066429 -0.301699 0.345961 -0.402512 -0.007623 -0.314356 -0.474501 -0.531985 -0.337193 0.122210 -0.163477 0.754084 -0.664336 0.437077 -0.430921 -0.397131 0.453652 -0.159491 0.614349 0.612018 -0.144493 0.129149 0.194535 0.594138 0.760837 -0.190456 0.288291 -0.153412 -0.363041 -0.742035 0.657477
见 -0.412167 -0.002527 -0.018514 -1.185810 0.815399 -0.013330 0.100297 -0.720445 -0.011261 -0.796800 1.038579 0.258681 0.256625 0.789049 -0.110362 0.019213 -0.123632 -1.016063 -0.871720 0.025074 -0.508495 -1.195719 0.020278 0.190316 0.600117 0.011418 0.761968 0.625056 0.939991 -0.965845 -0.008172 0.806212 0.313738 0.440034 -1.237113 1.104901 -0.185015 0.652804 -0.074180 -0.103607 0.417752 -0.094327 -0.355069 0.677592 0.360246 0.183262 0.499831 -1.360088 0.624594 -0.564429 0.002079 -0.066022 -0.159588 0.074359 0.810084 -0.075145 -0.781574 0.354702 -0.120154 0.679592 -1.150445 0.264524 0.114489 -0.194798 0.026155 0.211035 -0.769686 0.204079 -0.800226 -2.195770 0.204845 0.227795 -0.069072 0.483673 -1.125841 -1.110011 0.840012 1.479315 -1.291878 0.012965 -0.004901 0.781594 0.161425 -0.651030 0.216491 0.441531 0.538324 0.819414 0.022231 -0.493758 0.276929 -0.754273 1.221528 0.145554 1.014360 -0.654123 1.157896 0.519808 -0.092735 0.460667 -1.626630 -0.950487 -0.112713 -0.110447 -0.600163 0.079373 0.562007 -0.338405 -1.108925 -1.120673 0.145993 0.946487 -0.287379 -1.480461 0.106409 0.016067 -0.063768 0.260141 -0.281075 0.125437 -0.005731 1.315810 -0.753146 0.579740 -0.020556 -0.463246 0.358108 -1.103280 -0.900563 -0.279100 0.017949 0.214213 1.352029 -0.320542 -0.287461 -0.628197 0.219581 -0.250720 -0.291063 -0.499260 0.859270 -0.279838 0.422011 0.799745 0.204983 -0.159731 -0.125803 0.263094 0.322150 -1.003130 0.795242 -0.083224 -0.165905 0.101324 -0.369499 -0.279438 -1.065081 -0.396740 0.864317 -0.748507 -0.711670 0.619910 0.023811 0.523136 0.651783 0.481046 -0.089901 0.461490 -0.057069 -0.042396 -0.272609 -0.886697 -0.522364 0.638262 1.044838 0.027610 0.165682 -1.071980 1.467324 0.639506 -0.239969 -0.934931 1.217669 -0.317547 0.473191 0.683179 -0.432907 -0.266958 -0.370784 -0.558923 0.284161 0.724290 1.073061 0.531650 0.785285 0.744966 0.520017 -0.324165 0.348969 -0.519226 -0.733069 -0.533388 -1.151259 -0.493470 -0.298493 0.615211 0.495523 0.348995 -0.061753 -0.938600 0.140622 -0.514440 1.510796 1.710790 -0.486911 -0.196834 0.776816 0.274439 0.342491 0.574067 -0.397578 0.905837 -0.454015 0.006669 0.782810 -0.494044 0.771348 -0.291787 0.727740 -0.418698 -0.093864 -0.584195 -0.580299 -0.369865 0.957731 0.548518 1.474935 -0.555196 0.101645 -1.507663 1.626223 -0.128551 0.753167 0.846986 -0.773483 -0.007614 -0.025375 0.379666 0.361412 0.221459 1.019552 -0.177562 0.790435 -0.386177 0.122480 -0.474845 -0.081985 -0.107544 0.262713 -0.394125 0.816938 -0.675483 -0.333509 -0.266468 1.156820 1.091436 -0.323903 -0.741176 -0.501983 -0.180418 -0.848779 -1.165967 0.019473 -0.599980 0.028404 -0.096046 -1.064628 -0.384789 0.591587 0.560367 0.795767 -0.897299 -0.152344 0.294539 -0.217134 -0.329096 0.096877 -0.018683 -0.407990 -0.430222 0.015077 0.961892 -0.143997 0.119013 -0.783747 0.244457 -1.069690 0.237253 -0.755456 0.589835
M 0.014274 0.562968 0.192510 -0.005872 1.050400 0.216810 0.270767 0.093357 0.279660 -0.995625 -0.612316 1.175606 1.139392 -2.252873 1.883286 -0.164256 1.729775 -0.845681 -0.598162 -0.148073 -0.921967 0.177935 -1.585227 0.338793 1.089601 -0.745913 1.981066 -0.771800 0.564661 -0.490509 -0.034345 -0.438435 0.929649 0.839053 -2.357592 2.073476 -1.238436 0.017125 -0.970370 -0.231397 -0.675911 -0.333062 1.848879 -0.328188 0.537123 0.757450 0.509361 -2.025741 -1.550808 0.549910 -0.595469 0.449061 0.691491 0.315220 -1.167083 1.076733 -0.816407 -0.560493 -1.455909 -0.434744 1.991915 -0.559890 1.960681 -0.073244 1.850469 -0.952974 -1.235836 0.184977 0.313624 0.630144 0.275136 -0.418445 0.639847 0.706349 0.060197 1.596992 -0.945673 -0.566725 0.957298 -0.296704 1.055294 -0.547829 -0.115158 -0.035140 0.590109 -0.978396 -0.362588 -0.188505 0.260860 0.635246 -0.756739 0.490591 -0.460135 1.825335 1.173318 1.098819 1.037793 -1.447273 0.836603 0.207024 -1.617959 -0.160623 -0.319503 -0.364710 0.540931 0.019475 -0.511804 0.392798 0.207887 1.073029 0.467754 -0.649873 -0.673582 -0.267958 -0.123940 0.042365 -0.764446 -0.075955 0.103469 -0.353186 -1.134096 0.077210 -0.215312 1.171151 1.016122 -0.406942 1.338179 0.157912 -0.333992 -0.612788 -1.383577 0.503854 -0.062446 -0.047675 -0.311515 0.143453 0.678131 0.544926 -0.145673 -1.194677 -0.348556 0.764263 0.736158 -0.441079 -0.236521 1.010663 -0.087632 -0.341214 0.112771 -0.138683 -1.294211 0.800995 0.508123 1.186958 0.118397 0.688939 -0.169256 0.627432 -0.196467 0.571597 0.597839 -0.073320 -0.953729 0.166708 -0.448035 -1.390304 -0.788009 -0.057837 -0.963599 0.075387 0.768349 1.157886 0.810150 -0.649133 -0.132578 0.104185 -0.959408 0.600523 -0.533112 -0.920696 1.010284 0.555234 -0.833744 -0.386600 0.009742 -0.431663 1.544486 -0.688254 -0.139884 0.274954 -0.148933 -1.284577 -1.104928 0.885502 1.078254 -0.351326 -0.688298 -0.790023 -0.630577 0.139560 -1.255129 -0.075759 -0.321617 -0.004844 -0.061855 -0.852077 -0.480179 -0.050514 -0.101948 0.185053 -0.518537 0.183211 0.576524 -0.134192 0.787378 -0.820668 0.626150 0.067357 -0.534099 -0.301451 -0.721931 -0.333799 0.522553 -0.306295 -0.537773 0.315255 0.685097 -0.210202 0.127583 0.807838 0.057589 -0.103915 0.983698 0.384021 0.705391 -1.608605 0.458727 -0.365465 0.037825 0.569169 -0.089377 -0.191311 0.000730 0.449146 0.731208 0.304884 0.689365 0.047178 0.677548 -0.595986 0.082922 -0.291989 -1.587653 0.060275 1.330785 0.739922 -0.338046 0.594194 0.386221 -0.502873 0.122993 0.702577 0.298869 -0.315445 -0.253353 -0.559155 0.225414 0.697873 -0.396014 -0.763691 -1.240805 0.629301 1.012756 0.647176 -0.438495 0.408796 1.114969 1.365982 -0.032031 -0.231390 -0.709795 -0.387209 -1.090501 -0.984390 0.196095 0.181970 0.401969 -0.025876 -1.286905 -0.580103 -0.357224 0.942165 -0.099812 0.458700 -1.000423 -0.102782 0.320094 -0.356692 0.833567 0.302358
0 0.301685 0.418505 0.284690 0.602637 -0.209207 -0.005728 -0.150587 0.408919 -0.412797 -0.142986 -0.641318 -0.365667 -0.037802 -0.016408 -0.530558 0.571918 0.227996 0.048383 0.007868 -0.290375 -1.045465 1.279294 -0.041782 -0.119840 -0.191576 0.140558 0.496737 -1.201409 0.923385 -0.106228 -0.258373 -1.361049 -0.213985 0.300582 -0.631397 0.928868 -0.620087 1.099244 -1.072391 0.015659 0.404328 -0.296503 0.550465 -0.162165 0.388957 0.963291 0.070433 -1.170373 -0.478972 0.438773 -0.698733 0.373460 0.586681 -0.722608 -0.556526 -0.124043 -0.444212 0.659405 -0.662070 0.006236 0.381059 0.144487 1.977059 0.448870 0.516425 0.714103 -0.566705 -0.387366 0.546415 1.089373 0.974656 0.177873 -0.289765 0.299277 0.240604 0.227279 -0.790927 -0.056339 -0.583755 1.094608 0.011714 -0.404347 -0.245975 -0.679123 0.200349 -0.455988 -0.248235 0.206633 -0.372710 0.314153 0.626110 0.517375 -0.474221 -0.365082 0.141773 0.749218 -0.138945 -0.362127 0.385704 0.341649 -0.014195 -0.090966 -0.395980 -0.451600 -0.531804 -0.231559 0.508340 0.102478 -0.029646 0.868065 -0.156166 -0.221896 -1.147106 0.414202 0.109406 -0.330522 -0.260516 -0.824953 -0.246442 0.725692 -0.391172 1.802202 -0.222863 0.018440 -1.040189 -0.362030 0.023695 0.569354 -0.582488 0.841106 -0.886790 -0.326742 0.258316 1.413427 -0.329446 0.285681 -0.634856 0.604492 -0.038050 0.275073 -0.650421 0.082654 0.004798 -0.973972 -0.239711 -0.052198 -0.881059 -0.729467 -0.153474 0.461586 -0.544713 -0.460713 0.929348 0.268192 0.494450 0.617794 -0.638995 -0.096994 0.397156 -0.120826 -0.537948 0.218040 -1.091835 0.743633 0.157279 -1.184894 0.137016 -0.129767 0.261111 -0.066204 -0.152300 0.086852 1.979185 -0.251907 0.050846 0.588279 -0.303710 -0.204647 1.218186 -0.622434 1.488581 1.807555 0.778473 -1.196290 -0.059594 -0.437795 -0.399632 0.158746 -0.678850 -0.081449 -0.500787 -0.836975 0.356941 0.190549 0.277401 -0.119389 0.534000 -0.373212 -0.821503 1.212392 0.341404 -1.046631 0.079214 0.292449 -0.407684 -0.646965 -0.270609 1.301333 0.133979 0.373247 -0.854826 -0.359490 0.315687 -0.399272 -0.213488 -0.223590 0.798494 -0.021879 0.667428 -0.215982 0.216132 -0.019497 -1.068198 -1.068884 0.686017 0.352686 -0.050109 -0.430111 -0.114283 0.154737 -0.014736 -0.875766 0.287568 1.335442 -0.558474 -0.033099 1.878427 -0.338927 -0.093879 -0.558357 0.118369 -0.399900 -0.216627 0.682309 0.124154 0.532554 0.353024 0.242577 0.052652 -0.543822 0.091280 0.395835 -0.230322 0.336062 1.734096 0.525120 -0.650027 -0.011596 1.444043 0.115472 -0.056254 0.630573 -0.200266 0.240491 -0.715238 0.456958 -0.513975 -0.189636 -1.610718 -1.733939 -0.622335 0.723928 -0.016723 1.689736 -0.261417 0.434646 0.361757 -0.322394 1.003756 -0.113416 1.232428 -0.686570 -0.384207 -1.019200 -0.920921 -0.432397 0.331639 0.799516 0.380610 -0.662384 -1.044331 2.288349 1.632151 1.406956 -1.007256 0.503801 0.913307 -1.273366 -1.751706 0.212543
, -0.068718 -0.075974 0.210494 -0.160685 -0.268185 0.272787 0.348442 0.657413 -0.026995 -0.190941 -0.592949 -0.125866 0.232621 0.660640 0.070742 0.417146 0.216598 -0.395813 -0.319564 -0.738161 0.255376 -0.426973 0.055163 0.290691 0.405726 -0.414293 0.126623 0.205182 -0.329585 -0.160439 0.409914 -0.130067 0.261545 0.014575 -0.021314 -0.369774 -0.381992 0.292081 0.129536 0.282235 -0.143644 0.366423 -0.421413 -0.276404 -0.151551 -0.024190 -0.014560 -0.237492 -0.345529 0.494612 -0.273836 0.008206 -0.346340 -0.227512 -0.032664 0.127859 -0.407333 -0.345105 -0.302675 -0.480616 0.070472 0.496631 0.245709 0.395604 0.084675 -0.304530 0.201379 0.049634 0.349289 0.421281 0.300780 0.422557 0.709729 0.142670 0.581581 0.705208 -0.499388 -0.605151 -0.103520 -0.689286 0.823457 -0.218431 -0.189393 0.732226 0.276131 -1.143093 -0.329907 -0.547146 0.612900 0.877482 -0.658242 0.012041 0.253408 0.494548 0.603874 0.016997 0.230123 -0.086243 0.130211 -0.420651 -0.293868 -0.053532 -0.059370 0.020656 0.279060 -0.211019 0.443140 0.199756 -0.224970 0.085224 0.141621 -0.235595 0.137892 0.098132 -0.115041 0.170059 -0.915127 -0.259836 0.008714 0.529683 -0.425029 -0.096088 -0.101244 0.215002 0.348358 -0.460797 0.273854 -0.415444 -1.136806 -0.249797 -0.960754 -0.095554 0.434151 0.218966 -0.457480 0.487240 0.022779 -0.297538 -0.261567 0.200172 0.131550 0.104215 0.022958 0.281984 0.061403 -0.915740 -0.486530 -0.065292 -0.045468 0.070870 0.488059 0.428416 -0.176035 0.244862 0.414794 0.204731 -0.952600 0.076590 -0.060432 0.750065 0.086079 0.297386 -0.116730 0.035385 0.065377 -0.044995 -0.375681 0.173199 -0.069181 0.538949 0.175597 0.780009 -0.506081 0.141785 0.766686 -0.111509 -1.117186 0.345899 -0.416316 -0.546808 0.670070 0.410834 0.025693 0.090512 0.485004 -0.167198 -0.223086 -0.619209 -0.329824 0.383368 -0.398075 -0.292114 -0.167352 0.003723 0.087395 -0.264923 -0.239157 0.396502 -0.264592 0.314538 -0.140735 0.038238 -0.362479 0.145572 0.066905 -0.278940 -0.081473 -0.391095 -0.228414 0.142487 -0.266199 0.491731 -0.420660 -0.490704 0.019411 -0.094947 -0.419411 -0.292992 -0.756363 -0.013601 0.224296 -0.498265 -0.343111 0.145703 -0.101215 0.377386 0.735474 -0.229060 0.921814 0.160880 0.037524 -0.170233 0.516909 0.014528 0.537391 -0.842052 -0.241838 0.330839 -0.760138 0.413389 0.132435 0.611977 -0.294886 0.010559 -0.053799 0.430833 0.053511 0.266853 -0.123629 -0.298595 -0.044634 -0.747019 -0.724562 -0.274758 -0.102881 -0.498475 0.071332 -0.385537 0.237045 -0.065238 0.081925 -0.035930 0.197982 -0.086975 -0.211950 -0.288272 0.527262 -0.182520 0.844415 0.686817 0.422569 0.005016 0.031885 0.167389 0.072411 -0.167755 0.120481 0.331248 -0.236419 0.419899 -0.899287 0.424743 -0.199084 0.180026 0.001559 -0.390414 0.382497 -0.655801 0.218965 0.168353 -0.031942 -0.558109 0.270262 -0.135054 -0.007107 -0.167393 -0.131446 1.340386 0.484057 -0.110135
大 -0.192721 -0.104521 0.801450 0.004003 0.041062 0.264991 1.045571 0.904802 0.701358 -0.997161 0.445364 0.051782 0.071767 -1.195400 0.141004 0.014690 0.969621 -1.200862 -1.386496 -0.270722 -0.325211 -1.351990 0.007288 1.012317 -0.011809 -0.266354 0.952994 -0.052697 1.473529 0.742376 -0.618198 1.158973 0.524296 0.318341 -0.621845 1.407278 -0.426538 0.312655 -0.051591 -1.270990 -0.387312 -0.181296 0.613254 -0.293321 0.724864 -0.214621 0.941259 0.222851 -0.723849 0.010339 0.578180 -0.843783 0.125201 1.420972 -0.209415 -1.026872 -1.362010 0.681395 -1.190789 0.815918 -0.273096 -1.069924 -0.574257 0.519114 0.241422 0.712460 -0.091788 0.479162 0.053120 0.847874 -0.085059 0.163391 0.635833 -0.646430 -0.770565 -0.420007 -0.691294 0.022260 1.542077 -0.700289 0.833971 -0.485305 0.472413 0.868317 0.655845 -0.713587 0.322036 -0.862878 -0.213962 0.003677 -1.234768 -0.180524 -0.441376 -0.135337 0.344856 -0.469438 0.968778 0.577917 -0.696271 0.841605 -0.692819 -0.150716 -0.300461 -0.566372 -0.340384 -0.068374 0.528243 1.186176 0.794265 -0.044929 -0.171442 0.086343 -0.299831 -1.532949 0.116125 -0.507906 -0.989789 -0.683012 -0.063985 -0.421023 -0.625068 1.553865 -0.865212 0.779509 0.170049 -1.323018 0.469740 -0.030198 -1.270004 -0.650719 -0.688887 0.428485 0.449540 -0.095928 -0.051429 -0.285189 -0.215838 1.152335 0.437661 0.060830 -0.131423 -0.495368 -0.094576 0.788740 0.213112 -0.343711 -0.764448 0.256265 -0.901075 -0.931047 0.213176 -0.384654 -1.645729 0.695873 0.604384 -0.285367 -0.787951 -0.745375 0.206957 -0.034254 -0.174926 0.857561 0.157909 -0.169786 -0.484391 0.131767 -0.822672 0.097717 -0.432233 -0.012851 -0.081905 -0.250309 0.160326 -0.630027 0.529987 0.425677 0.122440 0.373505 0.478867 0.600005 2.380305 1.729967 0.658556 0.220259 0.521050 -0.044020 0.225084 0.563649 -0.096945 -1.260611 -0.858136 -0.309540 -0.029096 -0.725503 -0.072782 -0.115761 -0.614841 -1.003665 -0.485710 -0.824680 0.226687 -0.145364 -0.213026 -0.079761 -0.931031 0.265918 -0.064867 0.018850 -0.122484 -0.414282 -0.315568 -0.588068 -0.734090 -0.030304 -0.208149 -0.921533 -0.379319 -0.253540 0.430358 1.014084 -0.689140 0.477149 0.088024 -0.594975 -0.019784 0.986634 -0.886461 -0.028258 0.407024 -0.126575 -0.041359 -0.402235 -0.191712 -0.422174 1.628935 -0.828648 0.767433 0.822003 0.145668 -0.107552 -0.005021 0.042071 0.687115 0.884088 -0.271618 -0.832730 -0.393068 0.114907 -0.403954 -0.091293 -0.661840 -0.699534 -0.515109 -0.553529 -0.270319 0.185056 0.142657 -0.465343 0.937456 0.255449 1.053929 -0.763972 -0.493998 0.089196 0.870269 -0.254636 0.240016 0.334391 -0.348901 -0.997585 -1.476424 -0.594149 0.877996 0.483021 -0.868845 0.411237 -0.427084 -0.280277 0.643184 0.031716 1.100919 -0.734477 -0.690324 -0.784180 -1.064598 0.682431 0.189481 -0.231208 -0.809572 -0.581574 0.350053 0.362064 -0.084720 0.973859 -0.612846 -0.349062 0.327179 -1.959572 -0.921860 0.313829
未 0.723303 -0.362238 0.472284 0.937771 -0.438610 0.213439 0.616530 0.202235 -0.352847 0.047714 0.043649 -0.495047 -0.151207 -0.406165 -0.247699 -0.283565 -0.095468 -1.359496 1.081159 0.829664 1.009706 0.193548 0.473655 0.459929 -0.273103 0.642248 1.230503 0.143473 1.652506 0.280771 -1.551319 0.111895 -1.334713 -0.234868 -0.565203 0.897245 -0.005318 0.311549 -0.574329 0.130175 0.150150 -1.022407 -0.494915 0.453917 0.330447 -0.482942 1.102673 0.702245 0.020735 0.450052 -0.141182 -0.364285 1.065817 0.782186 1.140165 -0.260426 0.222788 0.918930 -0.275834 -1.003337 -0.977575 1.317751 0.313909 -0.960634 -0.844745 0.429811 0.122878 -0.612650 1.229836 0.863522 -0.217762 0.638833 1.176727 -0.180256 0.772827 0.212729 -0.491995 0.138188 0.519701 0.061490 0.245177 -1.447743 0.136397 0.360400 -0.031200 -0.327458 0.501321 0.525910 -1.139953 2.122603 0.184237 -2.031963 0.247854 -0.056656 -0.557881 0.424475 -0.568888 1.047719 -0.142032 -0.141727 -0.000592 0.327348 0.751165 1.266254 -1.468509 0.261000 0.310278 -0.138924 -0.050834 -0.112986 0.563509 -0.633342 0.020364 0.752712 -0.732401 -0.567568 0.310205 -0.262956 -1.055166 -0.218853 0.389233 1.647547 0.288004 0.525227 -1.210698 -0.663646 -0.114459 0.784250 -0.375303 0.098669 -0.471941 -0.033445 0.522778 0.994945 -0.064475 0.132182 -0.216978 -0.623851 0.609482 -0.441745 0.297506 -1.159346 -0.817966 -0.038851 0.379761 -0.881905 0.004183 -0.152628 0.086437 -1.028429 1.037757 -0.572855 0.125753 0.848223 0.129712 0.161301 0.009282 -0.224596 0.675560 -0.436681 -0.294325 0.102055 0.757977 -0.591508 0.263933 0.605336 -0.167174 -0.760190 1.050497 -0.970357 0.600783 -0.386725 -0.709577 0.294234 1.094386 -1.187247 1.074492 -2.536519 -0.511962 0.505141 -0.959168 -0.559235 -0.319450 -0.634968 -1.349056 0.135853 -0.271286 -0.820536 0.822742 0.588390 -0.164817 0.488555 -0.510552 0.975067 0.664936 0.045481 0.404727 0.375905 0.934620 -0.674033 0.657900 -0.921523 0.893253 0.065340 -0.911420 1.190270 0.149226 0.718930 -0.138935 -0.521214 0.859446 0.684454 0.733364 0.835673 -0.875642 -1.460103 0.141681 -0.912577 1.579306 0.268249 -0.760664 2.360327 -1.439737 0.345468 1.648409 0.169554 -0.267619 0.152571 0.041348 0.297016 -1.003104 0.586959 -0.446199 0.271046 0.460348 1.306146 0.023365 -0.354108 0.847010 -0.552564 0.398215 -0.734316 0.573409 1.165653 0.187105 -0.002622 0.094039 -1.158550 0.832679 1.274932 -0.526908 -0.710572 -0.237134 0.017866 -0.879688 0.386950 0.027757 0.580732 0.636249 1.645072 1.307718 -0.233392 -0.000780 0.907763 0.463067 0.226304 -0.815471 0.162335 -1.016601 -0.040943 -0.087069 -0.479692 0.327875 -2.477101 0.294126 -0.450782 -1.211439 -1.059698 -0.129776 -0.282033 2.415012 -0.852834 1.237486 -0.523479 -0.648694 0.367572 -0.409797 0.771749 0.826293 0.228368 0.300102 0.398263 0.231145 -0.041677 -1.071589 0.152864 0.197763 -1.891530 0.346184 -0.570546
、 0.043126 1.264984 -0.511065 -0.705902 0.437362 -1.102531 -0.060715 0.016369 -0.288787 0.163948 -0.281085 -0.650390 -0.989924 0.716197 0.694265 0.439832 0.159371 0.088245 0.293671 -0.364861 0.117543 1.237971 -0.141497 -0.827452 -0.428297 -1.409496 0.064469 0.609622 -0.047909 0.656763 0.226474 0.078784 0.425590 -0.171614 0.122295 -0.205381 0.243759 -1.002977 -0.597118 -0.207121 -0.772910 0.801450 0.194628 -1.000242 -0.054597 0.424477 0.370325 -0.740415 -0.148596 0.045274 -0.367753 -0.261493 -0.144656 0.301872 0.447072 0.270075 -0.769936 0.102774 -1.047008 -0.026437 -0.798529 0.572828 1.430875 -0.263868 -0.079871 -0.657995 -0.224872 0.119256 0.116385 -0.855448 0.386691 0.191871 -0.669821 0.575535 0.265983 -0.445659 0.077639 0.115581 -0.341802 -0.050619 0.510921 0.686980 -0.103616 0.738458 -0.587008 0.076546 -0.088226 1.038787 -0.373225 -0.611908 0.470441 0.166992 0.031277 0.103459 -0.753467 -0.273743 -0.612491 0.307210 -0.536712 0.820313 -0.846143 -0.748143 -0.259622 1.046586 -0.420717 -0.909747 0.030609 0.685089 -0.262202 0.669866 -0.193062 0.072599 -0.364900 -0.346795 -0.052352 -0.253586 0.540316 0.376666 -0.324515 0.709416 -0.026143 -0.465639 0.055708 -0.242018 0.062819 0.351599 -0.288051 -0.218233 0.817889 0.399975 0.195434 0.121081 -0.211559 0.261247 -0.573831 0.037444 -0.198216 -0.026236 -0.338798 0.605831 0.323785 0.381282 0.365803 -0.013442 -0.866360 0.066721 -0.400566 -0.269082 0.244899 0.716533 -0.215682 0.482361 -0.316485 0.246505 0.502347 -0.934240 -0.236283 0.250019 0.170965 0.134434 0.323653 -0.554639 -0.588022 0.064704 0.623151 0.309640 -0.187909 -0.177204 0.337550 -0.251045 -0.154978 -0.968182 1.102849 -0.388307 -0.704427 0.419642 -0.127847 0.099535 0.184411 -0.077503 -0.646590 -0.810577 -0.442626 -0.679551 0.742268 -0.017381 0.104788 -0.388010 -0.298124 0.114897 -0.111466 0.952448 0.759493 -0.258551 -0.737263 -0.525879 -0.026932 -0.032309 -0.350453 -0.298124 1.247730 -0.800187 -0.042027 0.555432 0.230421 0.348905 0.528548 0.967447 -0.407488 -0.283799 0.082702 -0.253902 0.639964 -0.285791 -0.339730 0.476353 0.177952 0.564557 -0.524185 -0.312402 1.452648 1.184098 -1.001517 0.910575 -0.081550 -0.974338 0.467828 1.125966 -0.361717 0.285522 -0.378598 -0.434342 -0.482698 -0.008554 -0.593160 -0.428017 1.880025 -0.587924 0.539393 -1.093382 0.711524 -0.021530 0.429633 -0.348887 0.082554 -0.429205 -0.059106 0.338309 0.488796 -0.653157 0.151265 0.035166 0.291199 0.666220 1.398910 -0.129226 0.164151 0.610330 1.151999 0.120007 0.120707 -0.327516 0.153562 -0.562216 0.927037 0.338666 0.196038 0.718449 -0.258282 -0.844768 -1.328057 -0.206770 -0.049042 0.282573 -1.499737 -0.129220 0.154533 -0.813140 -0.002755 -0.217189 0.965883 -0.766485 0.001341 -0.297208 -0.115397 0.559661 -0.364190 0.624050 -0.075783 -0.526958 -0.568054 1.171660 -0.399901 0.267405 1.201327 -0.343879 0.364567 -1.650595 0.418079 0.814796
肺 0.476492 -1.109346 -0.065122 0.608171 -1.092718 0.622701 0.403403 -0.068137 -1.809943 0.745671 -1.058503 -0.312020 -0.516787 -0.147502 -0.557513 -0.455461 0.397941 1.405885 -0.318560 -0.257946 -0.888285 0.329182 -0.059805 0.422325 0.239695 0.878384 -0.335353 -1.247340 0.528950 0.490652 -0.386560 -0.172374 0.109026 0.495298 0.450204 0.591954 0.113593 0.508897 1.017388 1.357014 1.342814 -1.846230 -0.559407 -0.937403 1.339905 -0.431534 -0.212167 -1.550075 1.264771 -0.691706 -0.644369 -0.657991 -0.465207 -0.203313 0.925365 -0.095461 -0.098865 -0.381691 -0.329055 1.689146 -0.967447 -0.574046 -0.078419 0.185903 -0.557734 0.427636 0.168605 -0.029908 -0.574030 -1.030560 -0.308746 -0.534831 0.476857 0.090526 0.355829 0.136750 -0.106961 0.230987 1.156184 -1.419589 -0.601722 1.013598 -0.209035 -0.528454 -0.238818 0.221605 0.259685 -0.373970 -0.470423 1.277514 -0.632720 -0.269694 -0.110221 -0.826735 0.214775 0.727196 -0.148238 0.384976 -0.451291 0.241103 -1.459983 -0.613522 -1.462671 -1.057135 0.188892 0.288476 0.795045 0.919165 -0.737170 -0.950253 -0.718363 -0.032178 -0.640761 -1.075436 0.535198 0.213278 -1.007999 -1.183415 -0.927749 -1.496668 0.127240 0.955919 -0.657095 -1.358650 -0.680617 -0.215692 -0.246966 -0.078370 1.022288 0.314351 0.890028 -0.176181 -0.135987 0.549639 0.356238 0.714022 0.460116 0.222305 0.434362 -0.685726 0.044669 0.542348 0.673093 0.921230 0.011578 -0.137995 -0.099172 1.183646 0.485638 0.529253 -0.599423 0.096203 0.489100 -1.464799 0.353777 -0.524054 -0.678329 0.964704 -0.000071 0.086238 0.272556 0.751739 0.255697 0.048646 1.384498 -0.357836 0.018528 0.929443 -0.021732 -0.162202 0.604459 -0.378880 0.510578 0.633588 0.460026 0.125496 -0.309483 -1.348197 1.163295 1.048509 0.462304 -1.000535 0.073932 0.333113 0.104794 0.825124 -1.731501 0.730380 -0.526933 0.776775 0.082402 -0.269994 0.436905 0.185593 0.911951 0.245079 0.275079 -0.057476 -0.002670 0.149448 1.253962 -1.032750 0.213995 -0.527734 -0.716349 0.953350 -0.531591 0.839124 0.620972 0.186705 -0.153675 -1.656362 -0.551602 1.230596 0.798457 0.340125 3.007299 -0.485777 1.212418 0.331847 -0.363017 -1.390931 -1.329400 -0.073859 -0.064807 -1.030067 -0.575047 0.019519 -0.603853 0.082586 0.891442 -0.424513 -1.104365 -0.219698 -0.506258 -0.575813 0.979883 1.078195 0.442052 -0.188410 -1.289723 -0.423055 1.030383 -0.928980 -1.284184 0.571631 -0.635960 0.368649 -0.558875 0.110597 0.914773 0.461369 -0.226580 1.363818 2.490567 -0.492768 -0.916462 -0.400740 0.261755 0.529891 -0.502290 1.832778 0.188646 -0.611002 -0.930766 -0.455015 0.327653 0.978081 -0.218390 0.112649 0.623300 0.213556 -0.320835 1.137716 -0.749935 0.569980 0.827285 1.232467 1.023818 -0.383460 -0.585069 -0.255462 -0.321239 0.560123 0.107103 0.193380 0.354575 -0.932557 -0.861914 -0.089190 -1.040438 0.722827 0.174316 -0.153143 1.078990 -0.936945 0.178545 0.261490 -0.252529 0.192411
结 -0.534727 0.437546 -0.352766 0.287531 -0.126418 -0.079536 -0.659642 0.605523 0.182569 -0.792263 1.334177 1.710704 0.022188 -0.670090 1.050676 -0.037048 1.940687 -0.922890 -1.485742 0.725189 -0.543945 0.475931 1.050533 0.640819 -0.272126 -0.537885 0.825286 0.368492 1.960245 0.452523 -0.174475 0.443656 1.202976 -0.158506 -0.821258 1.812868 -1.228113 0.686365 -0.879242 -0.220287 0.225414 -0.071713 0.720405 0.311066 0.344243 -0.764178 0.544456 -1.678975 0.383402 -0.233698 0.418068 -0.579821 -0.950066 0.727980 0.171590 0.462055 -1.365884 -0.342186 -0.821375 0.511150 -0.514503 -0.956715 -0.677735 1.067575 0.250107 0.128509 1.294916 0.596933 -1.313899 -0.926306 1.076079 -0.776779 0.925962 0.099086 -0.888042 -0.460795 0.518058 0.116433 1.094270 -1.071356 -0.233778 0.786944 -0.029000 0.880660 0.134088 1.385121 -0.376914 -0.459625 -0.174602 -0.116904 -0.715820 -0.592191 0.644851 0.494173 0.013598 -0.587353 0.916632 0.113278 -0.503870 -0.304929 0.887706 -0.435910 -0.096645 -0.456710 -0.000761 0.449456 -1.136477 -0.086887 -0.698897 0.240567 -0.031468 -0.738543 -0.023809 0.710163 0.748692 -0.521502 -2.244962 0.670830 0.118001 -0.317581 -1.037998 1.008958 -0.846357 1.096441 -0.228353 -0.598154 -1.101829 -0.991468 0.654349 1.191542 0.799059 -0.493621 0.304487 0.379140 0.498498 -0.779692 0.125652 -0.158100 -0.132333 -0.217433 0.199955 0.737045 0.345843 0.510333 0.203069 -1.052126 -0.755983 0.341271 0.099996 -0.466840 -0.152765 -0.585236 -0.299304 -0.472889 0.411429 -1.876009 -1.146005 0.512301 -0.434266 0.203717 -1.217953 0.622460 -0.339784 0.137140 0.054904 -0.322071 0.022038 0.273357 -0.547909 -0.079348 1.164049 0.019449 -0.863240 -0.024402 0.723120 0.014364 0.967016 -0.765752 0.426227 1.007369 0.479633 1.303626 0.248086 0.730720 0.441708 0.621957 -0.971448 0.382928 -0.444264 -0.286949 -0.440760 -0.404930 0.080953 0.816897 1.043955 0.182603 0.612789 -0.614165 0.114088 -1.014729 0.387440 -0.737960 -0.457934 -0.821886 -0.235168 1.330384 -0.239753 0.383100 -1.062628 -0.193652 0.443949 -0.327210 -0.412756 1.125894 0.368474 -0.498694 -0.485888 -0.168607 1.082198 0.121504 -0.801188 0.120217 0.286362 0.413650 0.662275 -0.141066 -0.335718 -0.231663 0.063246 0.086093 -0.569387 -0.233597 -0.343953 -1.331430 1.160832 -0.429646 1.271525 0.041109 0.898149 -1.305922 0.134331 0.864637 0.814095 0.798158 -0.853602 -0.454629 0.570559 -0.058807 0.161571 0.361897 -0.039617 -0.056194 -0.349761 0.350261 -0.275043 -0.078656 -0.252303 -0.739995 -0.830883 0.113288 -0.081136 0.506358 -0.046459 -0.054190 -0.622281 -0.197802 0.493314 0.369569 0.674566 -0.521713 -0.061668 -0.715883 0.799077 -0.149829 -0.143646 0.057469 -0.823461 -0.129483 -0.080389 0.305738 0.637463 -1.196819 0.709586 -0.127075 -0.849786 -0.311260 -0.382961 -0.166078 -0.953574 0.637575 -0.135350 1.188394 0.431272 -0.526088 -0.721683 0.032621 0.794506 -1.255880 -1.500012 0.553360
1 0.539086 0.164010 0.550701 0.602822 0.247660 0.319196 -0.202817 -0.260816 0.600579 -0.601475 -0.343328 0.924655 0.196344 -1.228662 0.965234 0.100314 1.668954 -0.119573 0.038974 -0.841905 -1.025331 -0.067229 -0.918637 0.698973 0.793746 -0.208811 1.185384 -0.824641 0.727559 -0.225812 0.282281 -0.728798 0.896281 1.061716 -0.839068 1.117397 -0.824723 0.272110 -0.611829 -0.521135 -0.146587 -0.116970 0.457783 -0.122475 0.788392 0.371017 0.114937 -0.760092 -0.567901 0.097652 -0.525786 0.545701 0.897098 -0.456362 -0.964808 0.418947 -0.935677 -0.529747 -0.295511 -0.257406 1.540368 0.035533 1.921104 0.238428 0.616575 -0.330195 -0.561759 -0.001393 0.663945 1.040065 -0.076258 -0.105637 0.041050 0.563208 0.453134 0.680462 -0.547582 0.121080 0.393943 0.277884 -0.043754 -0.292010 0.293704 0.334316 0.022756 -0.932671 -0.138433 -0.226796 0.314589 0.163229 -0.219891 0.551398 0.012800 0.788922 0.679978 0.966660 -0.268202 -1.355860 0.424338 -0.372111 -0.933565 -0.359933 -0.827079 -0.723880 0.590643 -0.308231 0.362330 0.822478 0.234344 1.188177 0.505352 -0.141965 -1.060417 0.136132 0.222243 0.381748 -0.601942 -0.040857 0.436572 -0.137080 -0.238897 -0.414698 0.564188 0.343158 -0.229924 0.123844 0.803197 -0.005018 0.147467 -0.488504 -1.196238 -0.098329 -0.674224 0.141423 0.150557 -0.066314 -0.258897 -0.053074 0.067438 -0.176619 -0.158171 -0.062344 0.787658 -0.772161 -0.301234 0.642477 0.026795 -0.677447 -0.006227 0.251645 -1.356656 0.043978 0.805511 0.325412 -0.464245 1.018002 0.929688 0.820389 -0.262462 0.859676 0.555846 -0.316672 -0.590110 0.445066 -0.632405 -1.227110 -0.626746 -0.457012 -0.540985 0.707394 0.248947 1.012081 0.865758 -0.632635 -0.408270 0.101841 -1.137573 0.766690 -0.222718 -0.736702 0.146555 1.282328 -0.228419 -0.244299 -0.259307 -0.619348 0.660984 -0.581588 -0.178781 0.470555 -0.171895 -1.803112 -1.092490 0.598013 1.088411 0.316995 -1.132072 -0.914837 -0.957177 1.095254 -0.434113 0.358869 -0.294891 0.483640 -0.148909 -0.641036 -0.159411 0.185418 -0.532461 0.776535 -1.194257 -0.200419 0.190948 -0.813671 0.482685 -0.836788 0.076736 0.163718 -0.845552 -0.386311 -0.073014 -0.978533 0.146848 -0.585296 0.079019 0.623210 0.517449 -0.264491 0.349577 0.452253 0.335731 -0.446343 1.220975 0.943281 0.162272 -0.609055 0.303273 0.089322 -0.573467 0.509001 -0.083800 0.448529 -0.802217 0.018529 0.674586 0.424091 0.379623 0.036398 0.120799 -1.010882 0.204963 0.362586 -1.053501 -0.277081 0.693223 0.334712 -0.127306 0.593702 0.542886 -0.393405 0.276135 0.389702 0.377060 -0.248181 -0.085851 -0.508472 -0.079742 -0.394311 -0.364680 -0.599297 -0.706545 0.284569 0.703094 0.922876 -0.139660 0.916208 0.870866 0.227944 0.482426 0.151054 -0.745353 0.193620 -0.991493 -0.297881 0.452283 -0.089017 0.501870 -0.013841 -0.101502 -0.358832 -0.329701 0.874632 0.241149 0.480683 -1.240904 0.347822 1.392204 -0.718776 0.327983 0.036142
右 0.009592 0.719458 -0.853059 0.654906 -0.146395 0.464754 0.285478 -0.668670 -0.377227 0.140076 -0.156635 -0.707474 0.175183 -0.213834 0.028241 0.268492 -0.106826 1.017625 0.076003 0.421350 0.701201 -0.145178 0.610462 -0.214056 0.089149 0.302494 -0.992478 -0.234019 0.085004 -0.283572 -0.006587 0.241442 -0.442559 -0.735514 -0.207380 0.068969 -0.659156 -0.689436 -1.030648 -0.646175 0.482820 -0.280832 -0.503979 0.155828 0.720517 0.131501 0.755036 0.109565 -0.036510 -0.087236 -0.185048 -0.487425 0.246756 -0.460968 -0.385237 -0.076001 0.419607 -0.703403 -0.179549 -0.390101 0.597436 -0.408587 -0.119651 0.231230 0.499447 0.099620 -0.255795 0.341005 -0.292553 -0.717910 -0.310185 0.115932 0.482172 1.101650 0.337993 -0.718168 -0.130171 1.227215 0.017945 0.558698 0.108031 0.631189 -0.524340 -0.099161 -0.768739 -0.748911 -0.105807 -0.605900 -0.240196 0.174093 0.126709 0.600833 -0.202391 -0.827189 0.505360 1.061974 -0.501152 -0.426885 -0.807753 0.551831 0.346299 0.257385 -0.910386 -0.065241 0.047902 -0.396223 0.192632 0.764553 0.134307 0.144265 -0.325298 -1.041499 -0.457104 1.166769 0.372943 -0.023290 0.169582 0.293385 0.499657 0.162655 -0.127139 -1.148760 -0.125516 0.061994 -0.403932 0.984306 -1.120933 0.900285 -0.221212 0.434074 -0.258269 -0.641004 -0.193733 0.772683 -0.613439 0.054356 0.094658 0.273886 -0.839128 0.894106 0.179530 0.134341 0.400805 0.188764 -0.448586 0.270119 0.471782 -0.584666 0.181810 -0.159429 -0.427893 -1.439680 -0.013217 0.370756 0.363187 -0.285823 -0.106079 0.099699 -0.261636 -0.348163 -1.069210 1.336586 0.202400 0.537654 0.496934 -0.065121 -0.016058 0.751263 0.306908 -0.387873 0.409173 -0.707773 0.468939 -0.341602 0.925226 0.302519 -0.302401 0.485675 0.321197 -0.354092 0.658066 0.400356 1.114677 -0.732854 -0.887697 0.408679 -1.073584 0.184630 -0.138791 -0.288440 -0.741912 0.470035 -1.107589 0.540257 0.145323 1.120955 0.350437 -0.497988 -0.595652 -0.516696 -0.948236 -0.039843 -0.977103 -1.021515 -0.938686 1.269708 -0.789822 0.304059 -0.025071 0.317832 -0.632677 -0.648919 -0.544018 -0.553146 -0.282110 0.278115 -0.295617 0.404528 0.801250 -0.471641 0.647296 0.496352 -0.142499 -1.031107 0.350421 -0.418284 -0.663957 0.389800 -0.124777 -0.190084 -0.640537 -0.477308 -0.384564 0.486499 -0.241992 -0.181806 0.641290 -0.449868 -0.377013 -0.517961 0.944711 0.779924 0.775820 0.190917 -0.665474 -0.261545 -0.747251 0.194161 0.139841 -0.166548 1.358380 0.393995 0.805603 0.335643 2.167227 -1.653712 -0.272141 0.761872 1.337336 -0.159611 0.747064 -0.143818 -0.127016 -1.027282 0.387778 0.136171 -0.374809 0.124281 -1.899477 -0.448236 -0.837149 -0.013414 1.008415 1.102082 -0.225847 0.808734 -0.973819 0.553002 -0.358238 -0.487691 0.641933 0.589518 0.414148 -0.260533 -0.382083 0.468206 -0.907069 1.140158 0.544114 0.325235 -1.003227 1.362939 0.100200 0.332410 0.073891 0.323302 0.679175 -0.522327 0.234912 -0.105223
常 0.424318 -0.334043 -0.114895 -0.468597 0.475175 0.183694 0.834507 -0.901585 0.128891 -0.016721 0.242355 0.192367 -0.017259 0.444952 0.548701 0.246505 -0.870102 -1.111615 0.673674 -0.279447 0.038563 0.722700 -0.561285 -0.613775 -0.160984 -1.188941 -0.914500 1.495474 2.203350 -0.026663 0.947749 0.473590 0.276516 -0.446112 -1.333668 1.109362 -1.056971 1.046156 -0.531715 -0.942215 -0.626395 -1.233186 0.220330 -0.290253 -0.720067 -0.427600 0.413076 0.402575 0.694586 0.282215 0.271463 -0.602117 0.190533 1.034887 0.882917 -0.450880 -0.510545 0.965644 -0.693090 -0.018515 -0.636551 1.029345 0.825704 -0.642481 -0.550531 -0.215043 -0.662752 -0.827851 0.683153 0.034221 0.403019 -0.114307 -0.508466 0.618727 -1.380592 -0.703774 -1.062662 0.608385 0.336657 0.823383 -1.119760 -0.144613 1.501422 0.939235 0.141501 0.207217 0.088878 0.578956 -0.287844 0.913706 0.784558 -0.712966 -0.117253 0.053598 -0.005456 0.058703 1.343595 0.918974 -0.490677 0.458362 0.431051 0.123182 1.224899 1.142515 -0.666420 -0.463793 -0.500659 0.363741 0.647447 -0.557610 -0.143386 -0.080428 0.491753 0.026867 -0.085474 -0.237196 -1.105098 0.672623 0.308392 0.509312 1.054575 1.041047 -0.816294 -0.065438 -0.583123 -1.297666 0.045172 -1.138087 -1.222214 -0.344384 -0.566701 1.662709 1.049236 0.775641 0.001287 -0.865774 -0.198857 0.509666 1.690505 -0.975632 0.446909 -1.230928 0.728977 1.493761 -0.378684 -0.311784 0.223075 -0.183950 -0.005405 -0.010618 0.127672 -0.445171 0.518710 0.775367 0.377765 0.382310 -0.262271 -1.082118 1.330838 -0.960405 -0.739888 -0.574506 -0.179002 -0.790305 -0.338390 0.310179 -0.016874 -0.289048 0.100796 -0.883687 0.970657 -0.595372 -0.784630 1.624507 0.922015 -0.834670 -0.550587 -1.843549 -0.972059 1.397175 -0.555463 -0.847331 -0.197100 0.738771 -0.781743 0.507643 -0.046108 -1.454761 0.882722 -0.051154 -0.640768 0.279871 -0.319602 0.487852 -0.592183 0.747929 0.188500 0.000220 -0.073045 -0.400588 0.464553 -0.041418 0.170994 0.419455 -0.691014 -0.714591 1.092525 -0.219018 -0.309606 -0.130466 -0.169638 -0.464010 1.006681 0.542279 -0.443680 0.801650 1.224609 0.403915 0.375404 0.497005 -0.973472 1.423388 -0.769948 1.170819 0.113267 -0.857483 -0.260328 -0.719398 0.301759 0.198458 -0.468560 0.705573 0.290965 -0.262470 0.624799 0.859319 -0.146266 -1.661080 0.643986 0.257635 1.337177 -1.645853 0.174908 0.326353 -1.324181 -0.941629 1.417155 -0.876733 0.479923 -0.759591 -0.698888 -0.805180 -0.218471 -0.724836 0.525911 -0.422459 -0.249761 0.645827 0.265094 -0.246662 1.574421 -0.373404 0.416209 -0.226926 0.128283 1.690199 -1.198866 0.665688 0.570186 -0.340073 -0.467196 1.341301 0.422128 -1.758081 -0.310682 -0.369264 -1.158200 -0.834839 -0.077083 0.041100 2.392748 -1.157913 -0.027677 -1.045930 -0.710100 -0.329428 -0.083013 -0.269681 1.206015 -0.221893 0.192086 0.770889 0.958152 -0.256707 -1.778614 0.635665 0.095477 -2.414851 0.594002 0.361083
侧 0.352159 -0.397556 -0.429244 0.774790 -0.747665 -0.118145 0.805248 -0.283432 -0.448085 0.466729 -0.011183 0.045666 -0.807173 0.227558 -0.491053 -0.027415 0.455551 -0.533387 0.835093 -0.121216 -0.417146 0.256007 0.409920 0.649767 -0.188377 0.679123 0.560106 0.786744 0.973496 0.405874 -0.795514 0.262058 -0.542249 0.944257 0.865252 0.007981 -0.135105 -0.246119 0.349812 0.394976 0.224158 0.509274 0.180586 -0.860894 1.165874 0.497221 0.317233 -0.903249 0.264092 -0.441586 -0.644487 -0.133334 -0.370878 1.042878 0.000145 0.269019 -0.000584 -0.124127 -1.462870 0.791658 0.442091 -0.241016 0.515253 -0.283936 -0.732378 0.689921 0.124520 -0.574437 0.688282 -0.674218 -0.115378 0.956001 -0.272381 -0.550763 -0.112133 -0.988729 0.126262 1.133757 -0.110164 -1.001020 -0.136824 1.052448 -0.040415 1.035959 0.011215 0.545120 0.651909 0.517754 0.170478 -0.846959 0.623495 -0.590828 0.684245 0.276748 -0.632164 -0.517854 -0.218804 0.677095 -0.490200 0.756152 -0.466305 -1.237456 -0.763773 0.311886 -0.545096 -0.073039 0.984841 0.765147 -0.723030 -0.074158 0.590017 0.792284 -0.200887 -1.091347 0.193984 -0.900431 -0.170349 -0.478690 -1.267143 -0.325543 0.417160 1.204057 -0.034599 -0.558244 -0.776475 -0.327204 0.626137 -0.920271 0.842551 0.646562 1.446078 -0.413188 -0.691550 0.116949 -0.619936 0.661598 -0.295781 -1.031779 0.395562 0.911100 0.422038 -0.812269 -0.300703 0.137108 -0.103039 -0.201529 -0.866361 0.330625 0.948348 -0.576511 0.652122 0.290179 0.388018 0.542006 0.170303 -1.144843 0.545502 0.864399 -0.186201 -0.097597 -0.158074 -0.488456 0.508034 -0.847592 -0.824797 -0.156589 -0.027567 0.196005 -0.321125 -0.829420 -0.545122 -0.396505 0.912985 -0.646629 0.512598 -0.633548 0.784238 0.012857 1.229200 0.216624 -0.602169 -0.019904 -0.405578 -1.058152 -0.080704 0.637977 -0.820575 0.147563 0.038603 0.435730 -0.032330 0.549072 -0.281657 0.505255 0.067285 -0.018400 0.446270 -0.839005 -0.253125 0.578255 0.906714 -1.316869 -1.064074 0.413525 0.352858 0.269564 0.394350 0.334796 -0.724780 -0.262238 -0.581067 -0.035607 1.154136 0.926115 -0.387996 -1.236521 1.055330 -0.684220 1.036467 -0.352974 -0.179755 0.320372 -0.608939 0.478874 0.317373 -0.237772 0.994041 0.129429 -0.782211 -0.152795 -0.151099 -0.338930 -0.590771 -0.550038 -0.620312 -0.372344 1.239301 -0.630444 0.574991 -1.145644 0.285701 -0.402354 0.392286 -0.053172 0.383926 0.476981 -0.048954 0.008685 1.083101 -0.388092 -0.154786 -0.413676 -0.037213 0.417253 0.893209 0.798279 -0.122146 0.338055 0.125677 -0.169515 -0.076980 -0.410758 -0.219681 0.286175 1.616110 -0.178052 -0.550367 -0.289456 -0.892289 -0.547245 -1.219894 0.006816 0.498852 0.334449 -0.714601 0.295808 0.277080 0.150704 0.281085 -1.174877 0.834596 -1.043595 -0.802563 -0.917793 -0.610912 1.000649 0.140261 -0.034311 0.313867 -0.793192 -0.291569 0.940976 -0.095119 -0.007309 -0.908966 -0.832171 0.206408 -1.256045 -0.865037 0.584427
左 -0.200124 0.641626 -1.032772 0.391640 -0.090217 0.360467 0.309382 -0.688301 -0.670171 0.157814 0.066693 -0.808996 0.141743 -0.176841 0.023468 0.359060 -0.172054 1.052330 0.090577 0.523613 0.721692 0.020714 0.660854 -0.256769 -0.095152 0.356733 -0.862983 -0.237837 -0.014803 -0.150288 -0.170765 0.366256 -0.249428 -0.695804 -0.177364 0.338397 -0.365946 -0.638808 -0.750749 -0.542372 0.530524 -0.597266 -0.540891 0.201661 0.737480 0.010741 0.636897 0.172495 0.190615 -0.211538 -0.172580 -0.632265 -0.131258 -0.152734 -0.159435 -0.309205 0.431829 -0.702180 -0.093833 -0.333874 0.278303 -0.684959 -0.153173 0.186610 0.487526 0.314977 -0.424088 0.336156 -0.208545 -0.678213 -0.173069 -0.073113 0.620119 0.884890 0.084686 -0.905685 0.147363 1.168759 0.161258 0.289596 0.048571 0.627279 -0.628980 -0.282558 -0.619522 -0.736762 -0.456477 -0.700693 -0.276833 0.208123 -0.148548 0.359070 -0.106934 -0.753175 0.569384 1.043141 -0.492188 -0.538990 -0.811439 0.859154 0.146303 0.074757 -1.061073 -0.097317 -0.354356 -0.572109 0.162514 0.955678 0.151083 0.101540 -0.327746 -0.805289 -0.467072 1.025360 0.556127 0.046300 0.069129 0.241140 0.450758 0.117685 -0.085721 -0.785415 -0.242744 0.039524 -0.415679 1.124236 -1.091707 1.052850 -0.052599 0.660216 -0.113430 -0.770060 -0.371628 0.858394 -0.482591 0.228130 0.125704 0.352364 -0.850086 0.817725 0.150780 0.188008 0.302168 0.257541 -0.502532 0.387256 0.490102 -0.209368 -0.024781 -0.416215 -0.745307 -1.269829 -0.013359 0.176249 0.555139 -0.767503 -0.480675 0.444067 -0.074057 -0.522139 -1.130821 1.332662 0.284435 0.517227 0.732543 -0.120177 -0.071107 0.674557 0.248419 -0.428981 0.435659 -0.798687 0.057226 -0.165335 1.025173 0.616939 -0.143129 0.140802 0.482983 -0.198179 0.925307 0.031074 1.037026 -0.693666 -0.742614 0.489227 -1.200776 0.235234 -0.080670 -0.380437 -0.900785 0.692776 -0.644820 0.674071 0.296223 0.829593 0.659903 -0.324708 -0.224076 -0.657736 -0.874148 -0.262831 -0.958217 -0.903728 -0.773534 1.294415 -0.816525 0.363617 0.094461 0.338708 -0.239674 -0.521705 -0.486014 -0.603528 -0.055311 0.520506 -0.099965 0.333994 0.693834 -0.156122 0.267410 0.519384 -0.088238 -0.980742 0.181665 -0.625221 -0.534514 0.236528 -0.150395 -0.239043 -0.591179 -0.775999 -0.943573 0.441634 -0.175148 -0.050419 0.937016 -0.392112 -0.453832 -0.700910 0.914702 0.691682 1.169659 0.185566 -0.826060 -0.149821 -0.807737 0.095790 0.138703 -0.251051 1.602479 0.523630 0.993818 0.532981 2.248161 -1.507261 -0.419129 0.450087 1.155317 0.104063 0.913735 -0.336863 -0.256726 -0.916798 0.236353 0.088232 -0.176270 0.029635 -1.967750 -0.587928 -0.757529 -0.084637 0.711166 0.861682 -0.286263 0.768102 -1.059422 0.620653 -0.240050 -0.446667 0.619347 0.362810 0.298016 -0.117726 -0.266776 0.511299 -0.937463 1.247011 0.277155 0.690649 -0.754958 1.372960 -0.032657 0.539628 0.189856 0.300040 0.544336 -0.272880 -0.037503 -0.055150
增 0.219707 0.116674 -0.562420 -0.250602 0.659725 -0.693778 0.212941 -0.666467 -0.099421 -0.395334 1.350042 1.415857 0.711951 -0.370448 1.019680 -0.211976 -0.164649 -0.606392 -0.576146 -0.284949 0.177713 0.348100 0.002288 0.164443 0.317191 0.496139 -0.848112 1.351783 0.988212 -0.452133 0.080527 -0.283716 0.161684 0.658664 -0.642741 0.847878 -0.010134 0.461038 0.198543 0.036673 0.771697 -0.264929 -0.210960 0.704941 0.353782 -0.375959 0.698792 -0.629272 0.194540 0.160710 -0.898414 -0.735208 -0.307019 1.194879 0.041453 0.267339 -0.373508 -0.078617 -0.698781 -0.573466 -0.545249 -0.791367 0.219964 0.033500 1.551301 -0.665742 -0.603399 -0.285911 1.382401 1.112966 -0.364820 0.941344 0.276359 -0.593032 0.396767 -0.662756 -1.168095 -0.009318 0.544322 0.351234 -0.435255 -0.023051 -0.307436 0.408490 -0.530563 0.501753 0.565688 0.693815 -0.276313 0.224020 0.142298 -0.306439 0.382386 0.323230 0.026307 -0.500256 1.254115 -1.187137 -0.875334 0.083959 -0.697064 0.608402 0.196951 0.160969 0.009713 0.159216 0.405733 0.527046 -1.721473 0.071264 0.665832 -0.229096 -0.231411 -0.447404 0.325392 -0.236385 -1.629461 -0.273043 -0.244473 -1.017223 0.412996 0.690457 -0.680049 -0.763761 -0.898037 -0.696665 0.297130 -0.458859 -0.313309 1.075225 -0.154220 0.392637 0.073619 0.671288 0.570983 -1.068842 -0.656645 -0.195989 0.334587 0.237202 0.395917 0.164796 0.537512 -0.042361 -0.230647 -0.241605 -0.138786 -0.265298 0.609655 -0.444515 0.560746 0.396986 -0.344916 0.308948 -0.845598 -0.860870 0.029467 0.334715 0.667544 -1.003649 0.478382 0.933368 -0.960242 0.363863 0.365830 0.022953 0.503325 -0.514606 -0.551737 0.329283 0.822967 0.702313 -0.958382 -0.402105 1.522233 0.194841 0.746261 0.819829 -0.381893 -0.652379 -0.114027 0.041649 1.161382 -1.135385 0.115308 1.184019 -0.474651 0.356392 0.683966 -0.061869 0.455404 0.178396 -1.018322 0.722603 0.545727 -0.204214 0.672136 -1.430461 -1.019965 -0.113512 -0.677877 0.957230 -0.900734 -0.170590 0.122333 2.120425 -0.048659 -0.260975 0.168904 -0.287405 -0.585608 -0.370731 0.642298 0.563007 0.218175 -0.145777 1.535159 0.181605 0.199353 0.452776 -0.774745 -0.016278 0.005887 -0.160670 1.806288 0.418245 0.294774 0.334953 -0.313760 -0.326097 -1.435649 0.155871 -0.372907 0.475621 0.228492 0.578569 0.304882 -0.516699 -0.216891 0.332606 0.493969 -0.338238 0.011850 0.690757 0.000363 0.780077 -0.059958 -0.075757 1.141563 0.472912 -0.152013 -0.232225 -0.430448 0.277255 0.227337 -0.126291 -0.312623 -0.112219 0.006197 -0.328469 -0.012897 -0.216720 0.594916 0.252745 -0.174603 -0.814755 -0.844606 -1.597674 -0.178007 1.006813 1.154494 0.523478 0.211674 -0.942176 0.403378 -0.057845 -0.419580 -0.443634 -0.220598 -0.025799 0.030523 0.412838 0.274635 0.303113 1.082272 -0.030508 0.192823 -0.301418 -0.425685 0.568999 0.319365 -0.664094 -0.752962 -0.676932 -1.005603 0.465654 0.368947 1.328508 0.181855 0.059876
_ 0.086867 -0.035206 -0.997135 0.352360 -0.618873 -0.088118 -0.533666 1.062705 -1.561460 0.110340 -0.833428 -1.125364 -0.636649 0.987312 -1.943768 0.800996 -0.223621 0.265767 0.179360 -1.222990 -0.061431 1.600293 0.792875 -0.554321 -1.073654 -0.009366 -0.659767 -0.845524 0.902475 0.025247 -0.763537 -0.522146 -0.725700 0.345467 0.407721 -0.000638 0.165323 0.867368 -0.552596 0.156698 0.410716 -0.114691 0.896241 -0.313669 0.750173 0.849833 0.471466 -0.952013 -0.395595 -0.204385 -1.144649 0.307789 0.104038 -0.964780 0.357089 -0.172896 -0.290558 0.623224 0.006127 0.340057 -0.383408 -0.143110 2.100310 0.025152 0.584097 0.846480 -0.832683 -0.330835 1.097378 0.969256 0.682000 -0.296470 0.097431 -0.043524 1.076602 -0.056810 -0.811955 0.264651 -0.431664 0.876853 -0.130186 0.203607 -0.009513 -0.664236 -1.083408 -0.452856 -0.404177 0.407279 -0.773664 0.707086 0.958825 0.444266 -0.947431 -0.901513 -0.835635 1.129460 -0.589967 0.393091 -0.135007 0.612590 0.450471 -0.501220 -1.067759 -0.134221 -0.437735 -0.215111 0.307367 -0.055288 -0.039002 0.155990 -0.210437 -0.579077 -1.404205 1.135235 -0.206231 -0.202448 0.115653 -1.009181 -0.491319 1.035467 -0.278117 1.785147 0.004287 -0.737657 -0.966894 -0.625999 -0.223552 1.230713 -1.158435 1.448516 -0.830844 -0.925108 1.225291 2.685921 -0.214875 0.210875 -0.523127 0.557619 -0.088454 0.565192 -0.030303 0.600554 0.015261 -0.260624 -0.520759 -0.762348 -1.018282 0.013263 -0.298593 0.889454 -0.342063 -0.509806 0.993470 0.332902 0.490124 -0.200785 -0.813940 -0.150012 0.613298 0.086385 -0.403270 -0.022911 -0.718056 0.656453 1.155410 0.311975 0.748939 -0.110570 0.366058 -0.689825 -0.369010 -0.993017 1.653661 -0.005221 -0.166286 0.406617 0.606157 -0.693413 0.928224 0.300568 1.455123 1.307598 0.529440 -1.597537 0.001146 0.246051 -0.957660 0.409716 -0.581463 0.409891 -0.406351 -0.734010 1.015157 0.332505 -0.254565 -0.027479 1.367408 0.325354 -0.526935 0.416683 0.615260 -1.745357 0.594369 -0.302316 -0.504419 -0.255251 0.177729 1.327394 0.166345 0.021975 -0.096144 -0.439360 0.820951 0.435062 -0.167508 -0.637490 1.978009 -0.208665 1.589430 -0.025830 -0.007432 0.570080 -1.183941 -0.396355 1.206668 -0.376804 -0.012565 -0.054710 -0.618130 0.222785 -0.153010 -0.264642 -0.356216 0.568853 -0.629870 0.537055 1.329900 -0.770638 0.212099 -0.567041 0.452192 -0.207758 -0.090942 0.441922 -0.291362 0.138417 0.100625 0.252868 0.446517 -0.132853 0.266283 0.357052 0.877926 0.439972 1.794339 0.355655 -0.667168 -0.242475 1.207240 0.880703 0.489085 -0.144846 -0.191381 0.763027 -0.649464 0.809385 -1.165231 0.268982 -0.990182 -1.542028 -0.542531 0.692863 0.177955 0.641978 -0.136852 -0.125023 -0.659872 -0.422303 1.208090 0.100493 1.998876 -1.123711 -0.191978 -0.655225 -0.827790 0.236494 -0.682354 0.663832 -0.160338 -0.915048 -1.099063 1.749413 1.524441 1.171610 -0.582129 0.812230 0.390231 -1.447713 -1.034286 0.335684
4 0.021219 0.874455 0.336690 0.375097 -0.341540 0.133047 0.039197 0.739202 -0.247686 -0.597056 -0.339208 -0.177799 -0.331255 -0.188820 -0.078816 0.363363 0.503393 0.675485 0.163641 -0.414570 -1.253825 1.042957 -0.079142 0.139427 0.076506 0.540939 0.900799 -0.993935 1.137781 0.285626 -0.341466 -0.829855 0.378753 0.995313 -0.286895 0.837349 -0.283792 0.493455 -0.625632 -0.291281 0.367078 -0.709486 0.766135 -0.370253 0.754375 0.930995 0.223827 -1.427258 -0.209262 -0.088201 -0.437139 0.584656 0.552870 -1.037362 -0.577564 0.002750 -0.586521 0.079601 -0.422877 -0.416655 0.407461 -0.332090 2.003151 0.126803 0.334416 0.855882 -0.435266 -0.098428 0.678890 0.612152 0.634927 0.419156 -0.214708 0.442763 0.538791 -0.105100 -0.439159 0.411524 0.107015 0.745555 -0.017406 -0.036039 -0.075533 -0.577835 -0.166321 -0.367390 0.049525 -0.115908 0.004552 0.367489 0.277491 0.535002 -0.336829 -0.215491 0.217509 0.261244 -0.219364 -1.218096 0.279250 0.307588 -0.895151 -0.560327 -1.412184 -1.295126 -0.705494 -0.149592 0.632330 0.617070 -0.180379 1.107480 -0.274942 -0.295937 -1.085698 0.511904 0.173863 0.146773 -0.314092 -0.265385 -0.387948 0.322915 -1.002371 0.444944 -0.058768 0.132799 -0.623196 0.218282 0.513165 0.722684 0.267394 0.894049 -0.320518 -0.580803 0.370272 1.167247 0.643984 -0.248900 -0.808021 0.593374 0.255117 0.396693 -0.244518 0.390048 0.581557 -1.416603 -0.265252 -0.042890 -0.811627 -0.698372 -0.041256 0.316597 -0.985217 -0.114272 0.521456 0.281747 0.014166 0.571354 -0.424960 -0.019523 -0.225168 0.047423 -0.044932 0.341851 -0.352618 0.391417 -0.191586 -0.886744 0.027639 -0.548040 0.152514 -0.366246 -0.025876 0.386623 1.576040 -0.647015 0.007085 0.929811 -0.317141 0.589300 1.275247 -0.290526 0.745485 1.878535 0.236143 -0.883746 0.078826 -0.675635 -0.334479 0.129631 -0.824569 -0.162211 -0.200152 -1.683064 0.223443 0.133261 0.703089 0.653716 -0.536040 -1.099874 -0.730302 1.135900 -0.445850 -0.849191 0.045512 0.541571 -0.156356 -0.530622 -0.201793 1.204403 -0.142463 0.616169 -1.288615 -0.129778 0.535078 -0.861742 -0.381983 -0.274008 0.545602 -0.263089 0.207930 0.041542 -0.030639 -0.286140 -0.755224 -0.582187 0.708059 0.361653 0.062677 -0.445758 -0.076475 0.437686 0.039261 -0.635806 0.217828 0.792827 -0.174548 0.685942 1.051991 -0.480878 -0.000109 -0.242422 0.482378 -0.378412 -0.170457 0.656283 0.716968 0.431643 0.164102 0.241908 -0.070588 -0.697931 0.107808 0.459510 0.304691 0.198334 1.009766 0.590981 -0.317033 0.058436 0.758344 -0.165372 0.161541 0.039933 -0.596727 0.177793 -0.382919 0.189436 -0.269174 0.054423 -1.717790 -0.878651 -0.394291 0.687808 -0.166053 1.398070 -0.362483 0.846970 0.828830 0.100682 1.225291 0.590108 0.981749 -0.404944 -0.312294 -1.088714 -0.484763 -0.184520 0.361321 0.311126 0.149091 -0.763251 -0.881733 1.803367 1.242467 1.450342 -0.815191 0.394011 1.509444 -1.881146 -1.174544 0.344223
小 -1.112238 1.367636 -0.721165 -0.211557 -0.695862 0.443595 -0.928275 0.498930 0.204218 -0.213596 1.020162 0.013718 -0.529699 -0.201726 0.791680 -0.265666 0.115572 -0.747116 -0.867878 -0.249726 -0.388880 -0.071446 -0.384981 -0.052305 0.663590 -0.385865 0.302109 0.608761 0.916420 0.820531 0.030819 1.085739 0.543207 0.533851 -0.167862 1.226117 -0.484015 0.409769 -0.104968 -0.596634 -0.425152 -0.360058 0.291789 0.210305 0.030083 -0.367203 0.657866 -0.039555 0.186468 -0.505926 -0.163994 0.067163 -0.193850 0.667894 -0.118127 -0.129395 -0.786050 -0.562278 -1.410326 0.393522 0.586469 -0.884894 0.791104 0.006631 -0.098663 -0.183896 0.242812 0.167014 0.172698 -0.292644 0.051809 -0.318920 -0.057593 0.060598 0.425315 -0.330190 -0.507789 0.288339 0.644018 -0.185261 -0.337731 -0.169601 -0.074339 0.103573 0.326032 0.073463 0.400160 -0.135432 -0.135672 -0.131374 -0.801952 -0.498733 0.746026 -0.270171 0.656730 -0.003628 0.147973 -0.507769 -0.193468 -0.251863 -0.415487 0.053198 -0.174306 -0.173442 0.375153 0.159272 0.096527 0.378931 0.646343 0.318854 1.191925 -0.570616 -0.644429 -0.572916 0.222452 0.217910 -0.644627 0.003621 0.704946 -0.226856 0.295798 0.346775 -0.770871 0.588565 0.717099 -0.472216 0.404342 -0.377444 -0.657293 0.171828 -0.481454 0.407633 -0.250766 1.089213 0.790460 0.001943 -0.321464 0.990011 -0.064627 0.635768 0.252953 0.409701 0.253785 -0.353265 -0.209145 -1.151670 -1.053948 0.135962 -1.162716 -0.235460 0.339040 0.653082 -0.347580 -0.053099 -0.438408 -0.894890 -1.915905 0.078340 -0.403672 0.525489 0.255723 1.293516 -0.864102 -0.353659 -0.255949 -0.399767 -0.719439 -0.617160 0.303537 0.214084 0.748389 -0.306528 -1.534975 0.320134 0.972074 0.301842 0.559207 0.223584 0.600363 0.520305 0.708623 0.901057 0.605684 -0.320839 -0.150676 0.491444 -0.014250 0.034302 0.218559 -0.068643 -0.433604 -0.619470 -1.608331 0.551471 1.257036 0.899622 -0.033318 -1.424095 0.126222 -0.486106 -0.575330 0.553223 -0.536658 0.118549 0.092481 1.163297 -0.723153 0.883057 -0.861359 0.874577 -0.725809 -1.309971 0.411261 0.069203 -0.375704 -0.713913 0.995597 -0.393486 0.329008 -0.283530 -1.062014 -0.131503 -0.573290 -0.304322 -0.250975 0.572528 0.410023 -0.764495 0.462095 0.739132 -0.677210 -0.082017 0.768824 0.030884 1.712983 -0.912139 2.539171 -0.442041 -0.007681 -0.169887 1.009096 0.598801 0.718970 0.437280 0.015956 0.046395 -0.100860 -0.574689 0.807855 -0.991495 -0.461077 0.086992 -0.954148 -0.326021 0.776177 0.845444 0.630621 0.572808 -0.112231 0.314774 0.297815 -0.136169 0.323486 0.002604 0.103128 0.360379 0.337338 0.338268 -0.186733 -0.375238 -0.605540 0.479282 0.503984 -0.022915 -0.955819 0.179386 0.362901 0.058495 0.229699 0.681844 0.222589 0.126061 -0.323562 -0.684751 -0.551384 -0.394143 0.595596 0.118774 -0.324077 -0.137136 -0.335791 -0.068287 -0.757571 0.145736 -0.020621 -0.837780 0.923116 -0.407488 0.364196 -0.501093
度 0.047455 0.115631 0.289941 -0.928173 1.976786 0.060574 0.241052 -0.220470 0.072025 -0.165136 1.224482 0.700076 0.021212 -1.068367 0.795003 0.127476 0.126186 -0.264198 0.716119 -2.215795 0.504178 0.311282 0.189411 0.393692 1.340871 -0.810493 -0.375211 1.006918 0.237402 -0.346760 -0.013721 -1.237428 1.385244 -0.444732 -0.443459 0.652217 -0.764035 -0.520532 0.151668 -1.033086 0.589091 -0.622104 2.132387 0.058870 0.124096 0.893238 0.543626 0.631851 -0.021247 -0.770852 -1.720089 -1.085563 0.394304 -0.394381 -1.368545 -0.411312 0.376640 0.434609 -1.432505 0.147178 -1.315681 0.015334 0.261691 -0.883178 1.293433 0.630134 -1.007165 0.503248 0.512749 -0.032696 -0.646165 -0.170363 -0.535380 -0.417627 0.969509 -0.178251 -0.263300 1.031766 -0.322187 -0.477042 -0.023669 0.152478 0.439885 -0.884045 0.202546 1.186186 0.137317 0.420790 0.823367 0.803373 -0.033276 -1.728425 1.088833 0.066262 0.490576 -1.476551 1.348528 1.370657 1.430583 -0.057235 0.891392 -0.098440 0.567711 0.117488 -0.060780 0.975058 1.007336 -0.337464 0.474378 1.038277 0.609087 0.067111 -0.511031 -0.231759 -0.330170 -0.344676 -0.596626 0.545991 0.291091 0.390568 0.441687 0.705955 -0.263589 -1.008406 0.736467 -0.620419 0.948797 -0.650576 -1.010291 -0.465012 0.749384 0.428948 0.526407 0.386984 1.561949 -0.498158 -0.075433 0.506184 0.817075 -0.508685 0.275583 -0.724448 0.682784 0.010102 0.483411 0.067959 -0.995542 1.123814 0.696736 -0.639389 0.415645 0.551579 -1.769642 0.146031 -0.172136 -0.200421 -0.834651 1.408015 0.435569 -1.089599 -0.004040 2.119446 -1.373015 -0.346047 -0.592952 -0.361511 0.057718 -0.973608 -0.404417 0.051294 0.896807 1.310045 -0.749863 0.633585 1.334733 -0.864147 0.278917 0.691147 0.031837 0.655071 -0.821930 0.894149 1.359551 -1.019498 -0.810361 -0.484003 0.486794 -0.462098 1.685814 -1.366145 0.230347 -0.004347 -1.529077 0.584788 0.084098 -0.491823 0.523039 -0.517877 0.721640 -0.412672 -1.647939 1.036933 -0.801056 -1.113067 -0.680249 0.751006 0.376687 -0.665139 0.289942 -1.639517 -0.738178 0.606194 0.955379 -0.131998 -0.491095 -0.459190 1.318803 -1.246488 0.674836 0.484275 -1.289794 -0.783455 -0.262791 0.665808 -0.678559 0.436560 0.533819 -1.131498 -0.384606 0.823552 0.726427 0.307424 -0.148044 -0.139883 1.658986 -0.181454 0.303241 -0.299814 0.261464 -0.012513 0.787049 -0.808537 0.522934 0.518034 -0.363019 -1.294145 0.372595 0.110625 0.594052 -1.054773 0.546781 0.301658 -1.524405 -0.528020 0.361052 0.244380 -0.117397 -0.673347 0.146827 -0.669324 1.265312 -0.729821 0.706606 -0.645487 1.177925 -0.210327 0.584679 -0.627884 -0.005562 0.791487 0.324526 0.553742 -0.295863 -1.015417 -0.221530 -1.071199 -0.400113 -0.870957 0.214137 1.288189 0.111357 0.800526 0.789569 -0.804159 0.547811 -0.390010 -0.238138 -1.555191 0.146494 0.457416 -0.130446 -0.954537 -0.859965 1.199853 -0.280088 0.949111 -0.668402 1.496551 0.341538 0.157260
2 0.312038 0.081330 0.465413 0.706967 -0.045252 0.699587 -0.348379 0.134359 0.606928 -0.345968 -0.353846 0.720878 0.365144 -1.410902 0.749749 -0.245927 1.450891 -0.000410 0.171699 -0.482260 -0.945637 -0.073813 -0.557338 0.574819 0.467074 -0.164141 1.172980 -0.930757 0.557920 -0.018671 0.122392 -0.814706 0.774591 0.763592 -0.725169 1.130922 -0.878298 0.323889 -0.415753 -0.195073 -0.069316 -0.611083 0.480844 0.153597 0.864104 0.542490 0.335702 -0.918454 -0.659342 0.146411 -0.453609 0.515820 0.706073 -0.598001 -0.815801 0.439093 -0.805032 -0.269340 -0.257103 -0.374619 1.480994 -0.183454 1.502353 0.530641 0.509130 -0.549970 -0.426798 -0.265985 0.408003 1.270786 -0.125165 -0.099655 0.106790 0.194817 0.545166 0.405504 -0.545299 -0.059907 0.413797 0.074034 -0.186688 -0.461130 0.190220 0.245452 0.075017 -0.899360 -0.335999 -0.547038 0.431424 0.165843 -0.318455 0.321072 0.017090 0.621429 0.455883 0.925488 -0.190414 -1.288784 0.539960 -0.222834 -0.754824 -0.457840 -0.875759 -1.039394 0.420191 -0.273747 0.354941 0.463379 0.339143 1.117335 0.534442 -0.503980 -1.042340 0.345469 -0.003233 0.410260 -0.527718 -0.070794 0.539061 -0.237932 -0.299937 -0.416024 0.310509 0.206260 -0.606171 0.023516 0.643428 -0.052074 0.115084 -0.239139 -1.196116 -0.218825 -0.711822 0.178096 -0.001325 0.102100 -0.104666 0.099261 -0.146007 -0.253390 -0.339693 0.143986 0.786996 -0.961229 -0.468599 0.648441 0.035803 -0.423555 -0.029705 0.372203 -1.254130 0.187202 0.648004 -0.142935 -0.574350 0.921487 0.318304 0.511107 -0.504965 0.737971 0.381081 0.217879 -0.584797 0.409432 -0.363995 -1.178826 -0.540836 -0.437141 -0.273513 0.441898 -0.094532 0.827474 0.582850 -0.621858 -0.322340 0.304273 -0.697927 0.979043 0.003417 -0.594182 0.083476 1.472857 -0.506725 0.008012 -0.224780 -0.483675 0.519474 -0.369239 -0.225735 0.289206 -0.182660 -1.925037 -0.826039 0.465887 1.262227 0.726981 -0.954988 -0.891775 -0.787890 0.840457 -0.352935 0.314352 -0.397431 0.541443 -0.267015 -0.591504 -0.539100 0.101568 -0.457052 0.871738 -0.972157 -0.018232 -0.082612 -0.903015 0.450093 -0.824520 -0.025879 0.180012 -0.634273 -0.225688 0.400761 -1.141494 0.019305 -0.889958 -0.065611 0.615751 0.065984 -0.487617 0.283767 0.642472 0.223772 -0.676768 1.081104 0.816736 0.430326 -0.633923 0.351289 0.201698 -0.499454 0.700019 -0.251796 0.446843 -0.971410 -0.196133 0.542961 0.485707 0.194930 -0.227609 0.018953 -0.853906 0.257306 0.479148 -0.712543 -0.478019 0.631317 0.274786 -0.396073 0.308295 0.550527 -0.446062 0.072528 0.698373 0.163021 -0.149344 -0.042028 -0.502890 0.363009 -0.049740 -0.342338 -0.501652 -0.716338 0.164920 0.206191 0.790982 0.077205 0.795452 0.652726 0.380415 0.717088 0.267795 -0.750515 0.202006 -0.963453 -0.385191 0.255032 -0.389024 0.596990 -0.155892 -0.180074 -0.126190 -0.373247 0.719134 0.368434 0.677649 -0.891830 0.196986 1.067312 -0.654732 0.273374 -0.086496
内 0.300612 0.372076 0.248704 0.175431 0.501155 0.130981 -0.068863 0.005782 0.623072 0.263651 1.210292 0.016294 -0.194830 -0.216073 -0.279246 -0.052327 0.453381 -0.482524 0.191614 0.262251 0.698239 0.706371 0.004038 -0.952285 -0.144778 -0.531361 0.049557 -0.077665 -0.221498 0.180023 0.563698 -0.142675 0.637256 -0.909379 -0.028926 -0.246707 0.742289 -0.116321 -0.095541 0.453703 -0.334709 -0.049944 -0.396643 0.063394 -1.101737 0.561671 -0.091358 -0.522004 0.087477 -0.184111 0.222276 -0.105003 -0.318031 0.221052 -0.219889 -0.364523 -0.198151 0.843069 -0.514949 0.060633 -0.402637 0.161961 0.285067 -0.297504 0.697125 -0.704720 -0.854085 0.119487 0.273127 0.324765 -0.013326 0.065619 0.822359 0.237519 -1.151708 -0.331245 -0.040271 0.168729 0.576352 0.445363 -0.512034 -0.527523 0.331980 0.017250 0.650074 0.780107 -0.193868 0.158251 0.133433 0.350911 -0.189714 -0.443685 0.065055 0.329087 -0.163733 0.641923 -0.052864 1.089389 -0.096483 0.472683 0.385434 -0.262047 0.240987 0.267916 -0.909309 -0.365934 -0.390894 -0.353792 0.092516 -0.221363 -0.139503 -0.792920 -0.580763 -0.165766 0.180206 -0.277315 -0.052901 0.268065 0.183286 0.310598 -0.599396 -0.179091 0.114952 0.816390 -0.772825 -0.898638 0.378023 -0.344454 -0.636190 -0.164623 -0.043777 0.292182 0.418555 -0.155628 0.105244 -0.277869 0.528803 0.012080 0.144731 0.009588 -0.242674 -0.006554 0.371640 -0.433899 -0.144766 -0.820947 -0.110567 0.937912 -0.129072 0.404885 1.029961 0.625675 -0.620820 0.507291 0.673464 -0.622379 -1.512161 -0.631592 -0.276204 -0.902607 0.476233 0.875570 -0.588588 0.123729 0.326560 -0.150373 0.078310 0.429370 0.571224 -0.030229 -0.633414 -0.803897 -0.688472 1.000494 0.150598 0.784028 -0.049980 -0.289589 0.354762 0.234010 1.267404 0.454390 0.633881 -0.445404 -0.209753 0.167190 0.054157 0.477446 0.578577 -0.810578 -0.680689 -0.313427 -0.385103 0.505190 1.159069 0.625098 0.903383 0.617835 -0.135982 -0.505538 -1.753289 0.441488 -0.400092 -0.014391 -1.001479 -0.146368 0.130961 0.070272 0.498609 0.489909 -0.262536 1.064692 1.527184 0.717438 -0.555187 -0.990248 1.132649 0.250471 0.353452 0.663902 -0.581028 0.084093 0.686015 0.401756 -0.650671 -0.369021 0.053320 -0.893320 0.722574 -0.499201 -0.218598 0.479159 0.105262 0.221386 1.081571 0.341202 0.387157 -1.150883 0.727372 -0.454069 1.179290 0.164011 -0.089765 0.805398 -0.227263 -0.228517 0.424674 -0.827823 0.240636 0.210480 -0.059808 -0.848260 0.067128 -1.225929 -0.442414 -0.298025 0.454335 -0.559624 0.244785 -0.390242 0.549904 -0.629689 -0.177678 0.680442 -0.314590 1.266640 -0.532006 -0.031653 0.588201 0.518910 0.057233 0.199431 0.185469 -2.030686 0.379496 -1.036404 -1.214995 -0.418735 0.632137 0.407766 1.579951 -0.732550 -0.015818 -0.139928 0.323375 -0.453398 -0.799090 -0.366781 0.749385 -0.291851 0.237917 -0.240544 0.430631 0.619354 0.086994 -0.043757 -1.215660 0.029626 -0.453481 0.008907
密 -0.218117 1.247942 0.368837 0.114799 0.368710 -0.399774 -0.760338 0.058227 1.177324 -0.468955 0.200724 0.894536 0.804362 0.530444 0.592521 0.222324 0.067040 0.733518 0.419634 0.311065 -0.798409 -0.775774 -0.829894 0.208387 1.271288 -0.866907 -0.734461 0.676723 0.522583 -0.615430 0.373821 0.981421 0.938871 0.557654 0.853208 0.469124 0.158447 0.305422 0.500099 0.470237 -0.510798 0.379291 -0.774136 -0.593843 -1.679646 -0.154697 -0.488712 -0.405698 -0.108964 -0.768080 0.659990 -0.333192 -0.737363 0.505287 1.390901 -0.715018 0.434832 -0.064622 0.421541 -1.024621 -0.924846 0.004646 -0.582049 0.262690 -1.280646 0.593160 -0.045008 -0.565438 -0.028813 -1.286428 -0.110074 0.642542 -0.732702 0.089293 -1.534636 0.090992 -0.810656 0.430447 0.281152 0.162970 0.778799 -0.703460 -0.079277 0.401296 0.191783 -0.204426 0.504114 -0.972185 0.637525 -1.169454 -0.196926 -1.087093 0.333403 1.468928 1.144713 -0.387497 0.391165 0.033390 -0.744430 -0.676395 -0.188080 0.412349 -0.004960 -0.782841 -0.052285 -0.117005 -0.512629 0.626728 -0.551964 0.262899 -0.442695 0.562820 0.949840 -2.138343 1.278348 0.470548 -0.941767 -1.104383 -0.064468 -0.063172 -0.148323 -0.044377 -0.435277 1.556931 0.417049 -2.098950 1.304394 -1.064714 -1.312203 0.316764 -0.209248 0.200537 0.713792 -0.136723 -0.037418 -0.174798 0.161683 0.071070 0.029591 -0.272962 -0.473930 -0.436755 0.825961 0.125284 0.414248 -1.336494 0.484461 -0.740713 -2.110666 -0.903589 1.162225 -0.362498 -0.621221 0.152929 -0.439059 -0.119713 -0.233535 0.073121 -0.054394 1.466171 0.165396 0.254002 -0.149611 0.397392 0.715236 0.398765 0.397797 -0.621768 0.508563 0.702077 1.506368 1.622123 -1.070211 0.491790 1.432028 0.983942 -1.345532 0.237291 -0.368034 0.386932 0.859893 1.313000 1.914429 0.627983 -0.179452 -0.446104 -0.166051 -1.311592 -0.882038 -0.676214 -0.922776 0.183001 -1.128550 -0.626953 1.581984 -0.514667 -1.489946 -2.103473 -1.474963 0.188007 -1.832347 0.313713 -1.185563 -0.932807 -0.068031 1.624091 -0.645796 0.101668 -0.134265 0.015169 -1.599679 -0.676804 0.847187 1.075415 -0.054954 -0.830474 1.856096 -0.206903 1.660062 0.406040 -1.598244 0.492812 0.328806 -0.919152 0.041292 -0.626784 0.270056 -1.155869 1.032902 -0.506017 -0.305728 -0.587653 0.405551 0.103284 1.850262 0.493598 -0.180246 -1.304148 -0.644471 0.012746 1.610159 -0.592955 0.280852 0.392265 0.398311 0.713144 1.433031 -1.339911 -0.452869 -0.128553 0.748270 -1.455223 -1.177114 -1.101905 -0.548089 0.561455 0.803549 0.059791 -0.812552 -0.566442 0.510218 -0.630892 -0.210439 -0.581296 0.174570 0.411579 -1.323804 -0.301761 0.122650 0.250304 0.209112 0.651953 0.935927 -1.199204 0.488086 -0.326445 -0.287408 0.559532 0.090943 0.785575 0.510734 -0.627304 -1.607208 -1.371095 -0.364644 1.136026 -0.388745 -0.778337 0.919073 -0.824085 1.986288 -1.065112 0.292955 -0.628416 -1.421986 1.367724 0.414802 -1.433792 -0.446324 1.529048
化 -0.021705 -0.624287 -0.488484 -0.097809 1.596347 -0.008133 0.619499 -1.248471 0.386917 -0.250919 0.936875 1.786798 1.108488 0.719429 -0.591872 0.237924 -1.436042 0.823384 -0.088813 -0.268664 -0.324255 0.196522 -0.500551 -0.702718 -0.302765 0.837431 -0.908922 1.631701 0.503907 -0.602552 -1.438497 0.250539 -1.413825 0.597916 -1.095403 0.949430 -0.406650 0.391659 0.024085 0.031703 0.098852 -0.475247 0.617211 0.616609 1.131982 -0.528385 0.065922 -0.886151 -0.218272 -0.996515 -0.554780 0.251586 0.047981 0.836551 0.550179 0.826960 -0.760617 1.047932 1.130240 0.251678 0.405867 -0.320798 -0.541835 0.193108 1.029765 -0.791178 -1.001448 0.063747 1.830886 1.655424 -0.665097 1.843414 1.932152 0.664584 1.077967 0.131933 -0.478649 -0.882869 0.022088 -0.285814 -0.088531 0.617750 -0.487960 -0.323501 -0.688210 -0.708383 -0.146446 -0.183499 -1.196599 1.156840 -0.365058 -0.529187 1.356985 0.122328 0.803640 0.553385 0.651145 1.111093 -0.320585 0.169150 -0.667029 0.452149 -0.817551 0.352258 0.282455 -0.416839 -0.573481 -0.178603 -0.455548 -0.899698 -0.235044 0.251668 -1.275433 -0.259290 1.031588 0.591350 -1.693210 -1.129376 -0.370321 -0.313280 -0.380267 1.764854 -1.358425 -0.792628 -0.537515 -2.720188 1.313284 -0.118901 -0.937981 1.007785 -1.110970 -0.951361 0.347073 1.896253 0.702731 0.203475 -0.261393 0.903474 0.240685 -1.078249 -0.288979 -0.289068 0.914964 0.266046 -0.739351 0.884036 -0.092805 -0.202556 0.423085 -0.193787 -0.156951 -0.141328 -0.355982 -0.613269 -0.701970 -0.770187 0.945089 0.237299 -0.459350 -1.493640 0.546095 0.306587 -0.437631 0.376585 0.699000 1.181657 1.196024 0.863160 -0.495637 -0.212153 0.499389 -0.333940 -0.987464 -0.049045 0.191240 0.663055 0.764769 -0.872855 0.463119 -0.721252 0.437634 1.158342 0.752864 -1.127861 0.201702 -0.038177 -0.355861 -1.321959 -0.419439 -0.796236 -0.467890 -0.719063 -0.614828 -0.143224 0.838013 -0.618609 0.255298 -1.259829 -1.090917 -1.678517 -0.608589 0.164604 -1.748147 -1.167343 0.176363 1.935578 -0.141971 0.305226 1.356691 -0.916417 -1.329739 -1.095430 0.383180 1.846482 0.931509 -0.938523 2.293021 0.488217 1.363215 0.782470 -0.135407 0.266496 0.304611 0.493812 0.364076 -0.743073 0.382261 -0.416426 -1.025483 0.195915 -1.233033 -0.798893 -0.763465 0.247934 0.015050 1.070847 0.668090 -1.017218 -0.411177 -0.317585 0.128025 0.212614 0.772667 -0.051976 -0.134429 0.402785 -0.239013 0.512755 0.772736 0.031152 -0.019892 -0.859000 0.879906 0.387563 0.970322 -0.133072 -0.574064 -0.310171 -0.315745 0.149054 -0.563513 -0.456553 -1.744835 0.434280 -0.484382 0.444344 -0.215060 0.001629 0.567081 0.197186 1.252962 -0.130493 -0.056434 -0.064452 0.691696 0.370644 -0.867748 0.399134 0.260097 -0.448116 -0.565116 -0.635061 0.734248 -0.010353 0.602655 0.102510 -0.172829 0.149429 0.537676 -1.271183 -0.033237 0.632868 0.442968 0.204027 -1.380964 0.482122 0.808573 -0.105613 0.785694 0.989441
显 0.831448 -0.290661 1.229467 0.695511 0.150786 -0.478654 0.811637 0.349591 -0.776260 -0.224244 0.680271 0.855583 0.328027 0.031157 0.585956 -0.719926 -0.948429 -1.285125 -0.432982 0.286895 0.410638 -1.071189 -0.166983 1.144307 0.718803 0.864962 -0.026789 1.099167 0.145006 0.982496 -0.444171 0.505268 -0.615685 0.267420 -0.956970 -0.015542 0.410255 1.038778 -0.873544 -0.250012 -0.180304 -0.470929 0.475641 1.106084 0.209642 -0.652281 0.890754 -0.668011 0.852531 0.375175 -0.804465 -0.123270 -0.120052 0.099064 0.178524 -0.675468 0.658233 0.275907 0.638312 0.631698 -0.301841 0.578483 -0.810614 0.218477 -0.017066 1.079138 -0.317824 0.030937 1.148525 0.319365 0.268642 0.004762 -0.371244 0.098682 0.099422 -0.231523 -1.031053 0.639000 0.822228 -0.271902 0.998153 -0.350627 -0.010904 -0.159274 -0.065756 -0.470731 0.748241 0.982173 -1.020113 2.310890 -0.313494 -0.265404 -0.476728 0.257421 0.628873 -0.169704 1.225733 1.572374 -0.239350 -0.120382 -0.053689 0.589806 -0.481030 0.325482 -0.077125 -0.166972 -0.509320 0.649311 -0.826835 -0.973891 1.228615 -0.527791 -0.816883 0.824365 0.027128 -1.323070 -0.749088 -2.023913 -0.441748 -0.085959 0.120437 2.095484 -0.983377 0.706907 -1.338013 -0.762643 0.291743 0.658196 -0.726714 1.274635 0.065584 -0.068823 0.833670 1.246047 -0.664494 0.945832 0.317829 -0.027341 1.693197 0.058261 0.325568 -0.694357 0.283529 0.313496 0.215760 0.013416 0.814162 0.203018 1.390233 -1.288923 0.063939 -0.652456 0.481747 0.190767 0.154459 -0.627319 -0.711496 -0.294611 0.196581 -1.118168 0.152170 -0.337469 -0.053990 -0.158753 0.216111 0.932291 -0.320034 -0.864628 0.871605 -0.240384 0.059983 -0.145044 -0.119469 -0.653601 -0.188497 -1.511684 0.062289 -0.622581 0.636799 0.245596 0.493625 -0.565781 -0.055007 -0.571152 0.368345 -0.138482 0.390338 0.648368 0.779983 -0.252861 -0.358475 0.141779 -0.137867 0.499516 -0.553872 0.549957 0.712024 -0.492951 0.695076 -0.666775 -0.281582 -0.870177 -1.638653 -1.166417 -0.547742 0.298679 -0.208946 0.486233 -0.284103 -0.184358 0.930689 -0.197143 0.214909 0.850127 0.527355 -0.556348 0.487718 -0.701991 0.146167 0.477167 -0.432104 0.468400 -0.786727 0.953262 0.853233 0.050093 0.028893 -0.289198 0.395256 -0.476438 -0.883336 0.015453 -0.589518 -0.050767 -1.106951 0.645515 -0.689019 -0.488536 -0.305099 -0.996237 0.257092 -0.926053 1.047315 0.760021 -0.600333 -0.106259 -0.598628 -0.195975 0.356270 -0.833810 -0.094903 -0.073565 -0.271954 0.628361 -0.213210 -0.210138 0.001188 -0.719944 -0.212505 -0.126068 0.107354 -1.694513 -1.496997 0.624220 0.189313 -0.025466 -0.708236 -0.169512 -0.383798 0.662512 1.272863 0.627560 0.249504 -1.663816 0.685374 -0.504460 -2.506300 0.021154 -0.614428 -1.375355 2.329076 -0.797020 -0.524776 0.007127 0.028294 0.465844 0.035262 0.276458 0.519677 0.037658 0.828149 -0.359400 -1.035549 0.664525 -1.227112 -0.464041 -0.086953 0.535590 -0.435556 1.233874
叶 -0.303293 0.630374 -0.825905 -0.571925 -0.464231 0.717530 -0.688101 0.155589 -0.158248 -0.393561 -0.462756 -0.938163 0.399286 -0.737993 0.262997 -0.337057 -0.290159 1.222239 -1.282071 -0.368337 0.076329 -0.590871 -0.442357 -0.076749 0.731220 1.299902 -1.082723 -0.145332 -1.116324 -0.316257 -0.326478 -0.268950 -0.084044 0.585591 0.348270 0.046531 0.166470 -0.253615 1.226949 0.073132 0.898140 -1.093377 -0.273578 -0.676438 -0.450006 -0.603327 -0.070259 0.247003 1.107714 -0.331179 -0.648772 -0.111112 0.574223 0.481948 -0.151931 -0.369419 0.048386 -0.707646 -0.863327 0.839703 -0.115146 -0.559667 -0.078482 0.513031 0.123844 0.448628 0.460549 0.446366 0.379259 -0.431603 -1.512734 -1.240441 0.167006 -0.910257 1.065045 0.772771 0.412250 -0.650995 0.066530 -0.661623 -0.327302 0.440077 -0.251446 -0.965835 -0.105587 -0.536266 -0.005196 0.129523 0.566524 1.276849 -1.321576 -1.178345 1.695812 -0.259208 0.913864 -0.251331 -0.940008 -0.357859 0.547015 0.810736 0.435453 -0.206983 -1.297572 0.050473 -0.483828 0.285129 0.081421 0.013503 0.674724 -0.941475 0.118654 0.336914 0.630075 -0.546693 0.187542 -0.359151 -0.255144 -0.492458 -0.844839 0.946118 0.430872 -1.213150 0.384116 -0.348729 -0.075938 1.133107 -0.314891 0.309854 0.623205 -0.039179 0.387984 -0.451934 -0.782227 -0.089080 0.666571 0.179804 0.278837 0.449981 0.565756 0.141041 -0.012832 0.201025 0.153883 -0.000012 -0.414682 0.295502 -1.321053 0.053152 0.145224 0.890458 0.225652 -0.310501 -0.369779 -0.769615 -0.108791 0.226993 -0.833364 1.094118 -0.633656 -0.021785 0.719899 1.570737 0.390035 0.240964 0.615099 0.901510 0.415021 0.558629 0.203338 0.514070 1.152405 -0.286387 -1.056168 0.575166 -0.171984 0.963224 -0.332837 -0.766875 0.753102 1.018118 -0.708646 -0.122864 0.550367 -0.387991 0.029432 0.055405 -0.845509 0.536139 -0.255120 0.230192 0.942711 -1.552905 -0.287436 0.352910 1.407891 -0.491972 0.272468 0.250456 -0.594317 -0.350406 0.871852 0.011135 0.065878 -0.324301 -0.660569 1.264176 -0.887060 1.334737 1.435479 0.181095 -0.356237 -1.707583 0.200085 0.174669 0.523410 -0.184700 2.126505 0.131971 1.448275 0.487602 0.439196 -0.827656 -1.319275 0.770735 -1.106330 -0.090716 0.657846 -0.422606 -1.205129 0.932030 0.958868 0.290061 -0.418684 0.544996 -0.256443 0.323760 1.091479 0.172244 -0.607439 -0.986639 -0.119311 -1.188759 0.638888 -0.301682 -0.801506 0.281681 -0.250719 0.593245 -0.066609 -0.632150 0.470891 -0.012630 -0.103158 0.673397 1.465140 0.009966 -0.404360 -0.970440 0.349751 -0.738246 -1.085961 0.500918 0.181077 0.388789 -0.196413 0.346357 0.424055 0.599668 -0.130576 -0.463225 0.842767 -0.376781 -0.179370 0.762242 0.482660 -0.334284 1.021431 0.920427 0.409849 -1.113078 0.693219 -0.083521 0.102502 0.012734 -0.699590 0.144892 -0.181675 1.511441 0.061424 -1.351764 -0.438890 0.782000 0.859740 1.484187 0.344006 0.084692 0.465779 -1.509115 -0.601811 0.884144
明 1.273661 -1.245897 0.569545 0.593460 0.330180 0.381545 0.444967 -2.042573 -0.033530 0.980470 0.907239 0.584262 1.651746 -0.759118 -0.437066 -1.172425 -0.407677 -1.664889 1.333802 1.255977 0.326528 0.143202 1.045757 -0.501047 -0.366937 1.140202 0.874677 0.462922 0.588414 -1.029104 -0.752294 0.950202 -1.099716 -0.746347 0.158856 -0.630394 0.232569 0.759128 0.481855 -0.126894 0.957684 -1.402266 -0.302100 0.072342 0.985204 0.218611 0.620904 0.138776 -0.066456 -0.209315 1.263936 -0.040764 0.260058 0.857776 0.783688 -0.784232 -0.125322 1.006123 -0.307059 -0.285556 -0.885807 -0.950554 -1.073823 -0.315726 0.074382 -0.197906 -0.970907 -0.616630 0.605265 1.641604 0.013786 0.551611 1.347475 -0.433983 0.034002 -1.531939 -0.482394 -0.336778 1.063882 -0.969266 -0.109368 -0.393384 1.034935 0.706288 1.329212 -0.780337 0.395951 -1.091153 -0.949856 0.544061 0.266559 -1.760412 1.727689 -0.277254 -1.207426 -0.288233 0.624352 0.778218 0.571510 0.563671 -0.504426 -0.015197 0.473140 0.533235 -1.339438 -0.099069 0.894591 -0.689739 -0.581321 -1.004848 0.089483 0.618961 0.164375 0.132317 -0.550783 0.253741 -0.672908 0.482557 -0.691494 0.245251 -0.366314 1.918795 -0.658305 -0.599612 -0.945116 -0.235935 0.394263 -0.621167 -1.328951 0.306370 0.560830 0.066484 1.003985 0.540724 -0.347341 -0.392266 -1.570127 0.490543 -0.091151 -0.743880 0.414160 -0.314339 0.367392 -0.083088 0.416970 -0.794327 -0.232643 0.548355 -0.365548 -1.058984 1.026053 -0.065145 -0.158151 0.238005 -0.365184 0.591377 -0.892765 -0.497750 1.244598 -0.820270 -0.672354 -0.058965 0.078281 -0.311746 -0.314712 -0.031330 0.373540 -0.290337 -0.529234 -1.445442 0.249508 -0.350589 -0.298778 0.102465 2.106516 0.174212 0.594050 -0.970932 -0.501785 0.677755 -0.070120 0.764592 -1.245956 -0.036601 0.602505 1.238239 -0.532081 -1.703318 -0.103916 -0.765112 -1.039295 0.362995 0.104147 -0.185862 -0.142491 0.509375 1.559116 -1.269948 -0.056762 -1.662972 0.233585 -1.181088 0.303542 -0.851268 -0.615990 0.865654 0.617354 -0.046026 -0.091941 -1.747751 -0.026746 -0.258233 0.744169 0.127157 -0.535189 -0.523584 1.012353 0.584867 1.971907 -0.218712 -1.092309 1.549417 -0.598697 -0.420718 0.426165 -0.627457 -0.115044 -0.082322 -0.116173 -0.876926 -0.697108 -0.681202 -1.109776 0.227958 0.798570 -0.081447 1.497674 -0.995953 0.523239 0.488393 0.254364 -0.619962 -0.477505 0.710006 -0.622744 -0.498057 0.032335 -0.034230 0.446877 0.218004 -0.319443 -0.647362 0.659353 -0.075053 -0.208486 1.240802 -0.972265 0.495721 0.946918 0.232508 -0.138927 0.094288 -0.603653 1.397275 0.455881 0.118706 0.425826 -1.300906 -0.587943 -1.114377 -0.175824 -0.437760 0.497374 -0.479792 0.106775 0.454648 -0.395667 0.491332 0.432398 0.014342 -0.393254 -0.839607 0.176010 -0.569291 -0.322546 -1.120348 0.591299 0.833736 0.035037 0.125901 -0.237487 -0.155020 0.594816 -0.142783 -1.230466 0.509643 -1.023467 -1.098602 0.843017 0.022732
. -0.155165 0.294896 0.321150 0.255651 0.367776 -0.287065 -0.447964 0.776403 -0.092210 -1.169318 -0.736322 -0.704641 -0.555751 0.053343 0.503223 0.435028 0.879107 -0.221829 -0.544365 -1.232519 -0.216267 0.503620 -1.244046 -0.341115 -0.624666 -0.347911 0.746671 -0.806911 0.316052 0.128479 0.015463 -0.133190 0.701178 0.754819 -0.916522 1.130875 -0.409966 -0.340967 -0.557896 0.037901 -0.551976 -1.003064 1.267262 0.447056 0.200099 0.426507 0.298020 -1.576626 -0.919526 0.328462 -0.619124 0.437842 0.968410 0.822874 -0.748162 0.867116 -1.397766 -0.708732 -1.383081 0.028986 1.198168 -0.748597 1.903147 0.706669 1.268158 -0.612930 -0.612960 0.261427 -0.157418 1.085316 0.303735 -1.060580 0.455279 0.122302 0.818624 0.669641 -0.246805 -0.287968 0.730197 0.207855 -0.302101 0.161930 -0.287617 0.001543 0.120452 -0.344798 -0.087466 0.322660 0.030041 -0.338985 -0.408368 1.023734 -0.740580 0.452335 -0.080982 0.125128 -0.076103 -2.406819 0.604746 -0.002347 -1.047340 -0.297774 -0.147733 -0.339964 0.144987 0.176931 0.057773 -0.448524 -0.349269 1.335636 0.467284 -0.502125 -0.267315 -0.285564 -1.009391 0.070756 0.103597 -0.519817 0.024942 0.729050 0.022784 -0.261479 0.283200 1.203630 -0.062180 0.174535 0.514254 0.439389 -0.311867 -0.167691 -0.853074 -0.367585 -0.061241 0.702698 0.134297 -0.091240 0.267559 0.657215 0.214152 -0.545136 -0.514334 0.477775 0.061245 -0.647229 -0.199970 -0.018035 -0.838145 -0.206715 -0.863547 0.446415 -1.418450 0.628455 0.776420 -0.327394 -0.046253 -0.529120 -1.240494 -0.069742 -0.590625 0.597450 1.166012 -0.198324 -0.551467 0.683601 -0.181286 -0.577993 -0.280765 -0.213094 -0.687365 -0.406309 -0.176719 0.732584 1.368874 -1.007244 -0.528073 0.071523 -0.111963 0.754073 0.155964 -0.812043 1.533993 0.494761 -0.811980 -0.413372 0.027010 0.152614 0.270838 0.321005 0.725057 -0.031827 -0.563926 -1.719766 -0.367540 0.422874 0.030580 0.081550 -0.639366 -0.790618 -1.240621 0.643297 0.219304 -0.263336 -0.147914 -0.109585 -0.335210 -0.057632 -0.135482 0.619612 -0.803279 -0.130731 0.005785 -1.014295 0.070556 -0.047681 0.437365 -0.692248 0.854791 -0.147987 -0.651954 -0.495033 0.254146 -0.385515 0.188121 -0.418106 -0.481586 0.125446 0.547750 -0.074048 0.086282 0.263926 0.449173 0.408587 0.663022 0.418799 0.649494 -1.366562 0.905815 -0.007754 -0.170107 0.455631 -0.741882 0.525040 -0.283972 0.718333 0.439055 0.390668 -0.649476 -0.455099 0.385094 -0.335938 1.839963 -0.106395 -1.257036 0.734120 1.998960 0.392031 0.118685 0.834911 0.448409 0.081948 0.560597 0.707299 0.912615 -0.111946 -0.598940 -0.342394 0.534341 0.454913 -0.927293 -0.975774 -0.217869 0.763357 1.004933 0.558668 -0.697320 0.617480 0.900830 0.952866 0.294363 -0.323213 0.373980 -0.817280 -1.292854 -0.222518 0.372728 -0.222077 0.825741 0.617321 -1.028412 -0.543056 0.026685 0.397867 -0.109520 0.506595 -0.690851 -0.425618 -0.117910 0.335738 0.506152 -0.464599
前 0.417830 -1.600117 -0.434557 0.595782 -0.334137 0.673713 -0.253138 -0.264965 0.393193 -0.862591 -0.421981 0.474696 1.039826 -0.574952 0.367508 -0.841139 -0.005214 0.074574 -0.189943 -0.461153 -0.627030 0.541081 0.454822 0.054414 0.387545 0.309517 -0.050519 -0.146619 -0.134204 -0.212699 -0.218034 0.006132 -1.722228 -0.513493 0.947407 -1.775461 -1.329253 1.329938 0.496834 0.440197 0.088000 -0.597671 -0.339790 0.531565 2.290562 -0.205862 0.636590 -1.594102 0.051696 -0.337624 -1.077518 -0.156125 0.424344 -0.078324 -0.782579 0.176389 -0.978489 0.252895 -1.698419 0.903778 1.472587 -1.343544 -0.011399 -0.114990 -1.040915 0.246617 -0.003914 -0.506160 0.003283 0.107380 -1.174230 1.069751 0.404485 -0.236694 -0.693241 -0.375929 -0.356522 1.197693 0.921435 -1.159157 0.681713 0.572184 0.098448 0.526043 0.798211 -1.488403 -0.445571 -0.114076 -0.059202 0.312010 -0.831735 -0.170989 -0.107680 -0.343777 1.056617 0.825445 0.423455 0.247342 -0.861502 0.338828 -0.077683 -0.334130 -0.374059 -0.890269 -0.852074 0.217378 0.168170 0.152576 0.143908 -1.507242 0.093185 -0.429125 -0.945585 -1.324488 0.538899 -0.099088 -1.087315 -1.109812 0.049251 0.017041 0.731807 1.185065 -0.184704 0.036807 0.069787 -1.784500 0.817646 -0.852193 -0.711354 -0.322500 0.720939 -0.638642 -0.639961 1.627040 -0.030463 -0.147819 0.430977 0.675891 -0.459840 -0.378775 0.529518 -0.672896 0.751268 0.074271 -0.215322 0.305401 -0.937359 0.006380 -0.265015 -0.443328 -0.332644 0.080955 0.199075 -0.343487 -0.369275 -0.497232 -0.729401 -1.012754 -0.076289 -0.048526 -0.799169 0.234264 0.839216 -0.780463 -0.084308 0.419747 -0.108796 -0.305182 0.619887 -0.377344 0.287419 -0.484462 0.327770 0.331560 1.186537 0.139676 0.340522 -0.298303 1.048857 0.900345 0.325218 0.952132 0.958696 0.027746 0.516707 1.222808 -0.733664 0.877071 0.407771 -0.554374 -0.219096 0.239702 -1.304181 -0.217360 1.367011 1.229978 -0.201154 -1.982214 -1.054351 -0.991057 0.372832 -0.318199 -2.059548 -1.102586 -1.275406 0.747656 -0.622915 -0.223984 0.306605 0.557990 0.094477 -1.434286 -0.027211 0.235000 0.474515 -0.523398 0.506938 -0.395673 0.648739 -0.503390 0.615971 -0.903316 -0.356940 -0.755013 0.115193 -0.694528 0.307928 -1.083666 -0.659423 0.120456 -1.269758 -0.471451 0.185637 0.539562 -1.475310 -0.057278 -0.414138 0.488574 0.656111 -0.760923 -0.905577 -0.122024 -0.882498 0.131428 -1.180560 -0.488210 -1.210596 0.572236 0.057812 -0.675861 0.054603 0.446775 0.522189 -0.774546 -0.483093 0.816818 0.010991 -0.692501 0.569999 -0.042703 -0.754026 0.151611 -0.815040 -0.216804 1.204161 -0.535033 -0.044132 -0.897707 -0.302830 -0.018106 0.075287 0.265068 0.519053 0.712714 -0.874012 -0.374244 -1.630813 0.554860 0.365764 -0.739928 0.689632 -0.201808 -0.644223 -1.365041 -0.403518 -0.184026 0.468174 0.886234 0.341128 0.321901 -0.530906 0.356812 -0.352834 0.918766 -0.373355 -0.335825 0.780066 0.116852 -0.926480 0.552244
及 0.186030 0.201005 -0.755248 -0.055668 -0.075084 -0.166951 0.119421 -0.515643 -0.297507 -0.045520 -0.208098 -0.338572 -0.795693 0.832234 -0.159885 0.377823 -0.315380 -0.356637 0.269078 -0.285665 0.911468 0.431568 0.137251 0.222368 -0.132059 -0.069338 -0.022894 0.760521 0.544120 0.413278 0.331741 0.325141 0.468355 -0.377015 -0.025049 0.211871 0.054488 -0.554123 -0.509693 -0.036882 -0.348422 0.126568 -0.566095 -0.079451 -0.052736 -0.081917 0.164766 -0.324001 0.493224 -0.226026 0.000129 -0.024630 -0.110212 0.193583 0.444351 0.427397 -0.229860 0.536838 -0.364966 -0.016175 -1.076301 0.524357 0.090269 -0.406451 -0.248342 -0.524321 -0.063425 0.098579 0.280435 -0.868114 0.408033 0.923578 0.041950 0.638875 -0.323857 -1.162376 0.033965 0.504852 0.373133 -0.520235 0.324057 0.416655 0.033423 1.022912 0.169462 0.598312 0.268145 0.468466 -0.273508 0.541553 0.550576 -0.108899 0.421188 -0.406344 0.264188 -0.340412 -0.297892 0.173866 -0.116143 0.557113 -0.824537 -0.603793 0.241716 0.745060 -0.380579 -0.784370 0.297738 0.541418 -0.525015 -0.031407 -0.291824 -0.301739 0.227754 0.026568 -0.058076 -0.287560 0.108515 0.606636 -0.116554 0.239184 0.062693 -0.366497 -0.002326 -0.338676 -0.537049 0.420165 -0.545542 -0.534139 -0.037263 -0.186102 0.807393 -0.243048 0.601255 0.408030 0.168043 -0.383318 0.016330 0.467005 0.114787 0.087347 0.578171 -0.251222 0.305499 0.419150 -0.246060 -0.752918 -0.674432 0.555665 0.208364 -0.121950 0.590670 0.730892 -0.256489 0.328478 -0.003991 -0.855614 -0.304665 -0.478521 0.829422 0.050859 -0.108833 -0.444419 -0.391310 -0.169131 -0.222061 0.201093 0.200293 -0.069677 0.138758 -0.162349 0.169220 -0.470112 -0.018801 0.378395 -0.043182 0.073547 -0.248063 -0.834515 -0.114642 -0.256050 -0.341577 -0.753192 -0.068467 -0.244056 0.178859 0.457276 -0.645470 -0.004589 0.318414 -0.122923 -0.160024 0.904231 0.485338 0.251328 -0.499600 0.197677 0.152461 0.237930 0.867418 -0.380982 0.844382 -0.652943 0.117088 0.314903 -0.104709 0.549935 0.537639 0.755090 -0.177657 -0.252075 0.054633 0.182102 0.899600 -0.177319 -0.819809 0.470001 -0.179783 0.089858 -0.456018 -0.235664 0.163066 1.372853 -0.780974 0.398231 0.514831 -0.688720 0.951829 1.052981 0.233411 0.095376 -0.355443 0.033764 -0.514454 -0.344970 -0.731398 1.097071 0.752984 -0.396449 0.763853 -0.834980 0.737431 0.035277 0.428752 0.104272 -0.136284 -0.468064 -0.717169 0.274200 0.326091 -0.326547 -0.389403 -0.257080 0.169255 0.311507 0.410030 -0.368610 -0.081159 -0.048096 0.288391 -0.042692 -0.117065 -0.347643 -0.242686 -0.380477 -0.115904 0.624630 0.053363 0.104903 -0.045069 0.047942 -0.267537 -0.246080 -0.105069 -0.254683 -0.660506 -0.658068 -0.379987 -0.340688 -0.181484 -0.614145 0.975324 -0.006731 0.407223 0.177617 0.126932 0.530857 0.192089 -0.200641 0.421532 -0.013630 -0.139584 0.398891 -0.400760 -0.012638 0.136721 0.370702 -0.436327 -0.591060 -0.174332 0.355622
胸 0.696541 -0.611544 -0.973756 0.371581 0.032844 -1.021274 1.227795 -0.579558 0.068809 0.083999 0.030500 0.962012 0.491681 -1.545311 0.042783 -0.270653 0.838019 -0.648382 0.073659 -0.009071 0.402546 0.039086 0.933701 0.549937 -0.986166 0.703177 -1.875849 0.073067 0.148572 0.139650 0.317280 -0.734918 -0.873998 0.583229 0.332240 -0.482708 0.287091 1.021788 0.994093 0.360841 1.330492 1.007975 -0.801723 -0.872563 0.443176 0.231214 -0.897074 -0.462295 0.211590 0.028512 -0.523831 0.665415 -0.188565 -0.401005 -0.022193 -0.247688 -0.606073 0.063004 -0.077588 -0.527690 0.314425 -0.567242 -0.378622 0.068736 -0.320166 0.209397 0.470700 -0.313335 0.780061 0.488114 -0.856977 0.761385 -0.665986 -1.084920 -0.048844 -0.718849 0.290994 1.556967 -0.353680 -1.012646 0.193270 1.814927 -0.154646 1.170550 0.208465 0.167167 0.498756 0.734749 0.527144 0.645258 0.531500 0.204042 -0.180123 -0.075464 0.137923 -0.673886 -0.393557 -0.855937 -0.101657 0.956596 -0.109221 -1.557748 0.247232 0.885723 -0.049997 0.542001 0.923996 0.214291 -1.122084 0.037640 1.171781 0.316610 0.249773 0.564970 -0.151452 -1.120453 0.365361 -0.264385 -0.817605 0.117301 0.080890 0.546096 -0.235685 -0.978535 -1.432596 0.870229 -0.451602 0.770269 0.274216 0.348001 0.185594 -0.229875 -0.947654 -0.962479 -0.134230 0.600194 -0.168521 -0.838572 -0.178415 -0.341896 0.090730 -0.645671 -0.098287 -0.215155 -0.378727 1.086845 -1.311754 -0.739616 0.191533 -0.576618 -0.362284 0.481624 0.424363 -0.025831 0.315480 -0.164005 0.471762 -0.258504 0.084783 -0.393433 -0.531703 0.144853 0.631694 -0.201480 -1.081351 -0.969168 0.880016 0.394188 0.839027 0.123283 -0.002172 0.069778 -0.138896 -0.672624 0.000846 0.173451 -0.109987 0.671578 0.381787 0.294945 0.807424 -0.018315 0.292191 0.292476 0.106021 0.224460 -1.877849 0.462800 0.769732 0.231650 -0.122104 -0.770617 0.302260 0.843073 0.776635 -0.018457 -0.089165 -1.717213 -0.538189 0.555870 -0.180168 -0.829333 -0.726805 0.055620 -1.317971 0.766697 -1.600337 -0.130066 -0.119726 0.444725 -1.174200 -0.587259 0.062386 0.582084 -0.185830 -1.000902 2.422718 -0.748420 2.157715 0.404342 -0.969954 -0.306171 0.044022 -0.415843 -0.001324 0.196476 1.199332 -1.217252 -0.042075 -0.282754 -0.536676 -0.907416 0.169999 0.012873 -0.305252 0.035773 0.842825 -0.416969 -0.156039 -1.347210 -0.396665 0.512506 -1.149106 -0.027831 1.081109 0.773577 -1.636453 0.463373 0.526558 -0.253025 1.501332 0.157773 0.685613 1.112493 2.007377 0.037713 -0.225875 -1.149993 1.459000 -0.488467 -0.790438 -0.149767 -0.160212 0.564399 -0.105316 -0.318323 -0.385589 -1.179994 0.689349 -0.700271 0.142257 -0.172039 0.291299 1.152120 0.210499 -0.480830 -0.222373 -0.057451 0.353594 -0.460873 0.824265 -0.421279 -0.732401 -1.466741 0.570443 0.231028 1.412499 -0.154153 -1.014891 0.676011 -0.090549 0.015516 0.507171 0.281035 -0.361956 0.351571 -0.845295 0.636342 -0.662775 -0.049507
管 -0.737459 1.100975 -1.069485 -0.613267 1.079210 0.670342 0.040324 -0.764718 -0.201373 1.488231 1.599528 -1.068249 -0.121264 -0.113740 0.577346 0.310547 -1.702342 -0.163492 0.355012 1.567460 -1.898684 1.379746 -0.468580 -0.317598 0.183935 -0.336342 -0.056109 -0.903636 -0.683581 0.611266 -0.426343 1.097050 -0.548903 0.525536 -0.476536 0.042207 0.312167 0.427773 -0.086009 0.741389 -0.491073 -1.440548 -0.841441 -0.027369 0.624292 -1.459911 -0.110970 0.049960 1.082319 -0.089787 0.948228 -0.029502 -0.243238 0.281827 1.022014 -0.628725 -0.311577 1.327673 -0.537869 0.074089 -0.701949 0.006344 -0.509596 -0.545561 -0.984750 -0.105274 -0.427460 0.712531 -0.076023 0.819815 -0.298231 0.969280 1.413871 0.339818 -0.500332 -0.850599 -0.250750 0.964435 0.744716 -0.924909 -0.107775 0.301418 0.254833 -1.185715 -0.771208 0.501535 -0.483359 0.134244 -1.197267 1.319317 -0.323870 -1.349427 0.161856 -0.386573 0.947881 0.255920 -0.499395 0.806629 0.170343 0.603412 -0.563263 -0.312320 -0.576274 1.154458 -1.388651 0.043716 0.057778 0.287710 -0.631462 -0.474695 -0.214131 -1.339153 -0.301569 -0.158372 0.222836 0.072721 1.303144 -0.272701 0.094168 -0.630783 0.448398 1.042971 0.055007 0.578056 -0.800058 0.622975 0.178497 0.099498 0.358775 -0.878403 0.844613 0.568345 0.824396 -0.495436 -0.167639 0.327644 0.253992 -0.570725 -0.496057 -0.395224 0.374786 0.650620 0.741417 -0.244623 -0.900425 0.689201 -0.718307 0.313467 -0.584028 -0.440510 0.001263 0.348109 -0.386270 -0.508108 1.163044 -0.832897 -0.465604 -0.366516 -0.138140 -1.472243 -1.089258 0.517602 -0.043020 -0.039795 -0.680354 -0.565859 0.100475 0.289425 1.308852 -1.232607 -0.544787 -1.576186 0.215765 -0.415171 -0.286007 -0.037522 0.786668 -0.653057 1.371243 0.341237 1.169080 -0.343000 -0.241527 0.668798 0.572397 -0.555482 -0.247155 0.464835 -0.709270 0.599999 -1.467860 0.175657 1.160946 0.568463 0.067001 -0.602820 0.387813 0.318249 0.324235 1.267124 -0.289241 -0.992497 0.887439 1.315368 -0.665651 -0.118694 -0.560555 0.170909 1.983275 1.064697 0.488890 -0.365085 -0.296716 1.118723 -1.811414 1.129847 0.822778 0.372772 1.013055 0.390480 0.824244 0.805256 -0.892910 -0.552690 -1.569903 -0.709007 0.375937 -0.197126 -1.160920 1.016993 -0.565780 -0.025888 0.210588 0.186955 -0.298143 -0.076783 1.075072 -0.473279 1.447654 -1.913041 0.536921 0.031797 0.298665 0.144919 0.063996 0.137852 0.001270 -0.003505 0.188918 0.113556 0.437662 -0.283307 0.696874 -0.289675 -0.513025 -0.601592 0.433034 -0.164049 -0.056682 0.159857 -0.926504 -0.344813 -0.984995 1.682340 0.134576 0.126581 0.309898 0.458029 1.150649 -0.178690 0.019176 0.880461 -0.259354 -0.745459 0.044337 -0.358200 -0.279551 -0.130804 -1.141427 0.221024 0.527047 -0.922617 1.592973 -1.245038 1.594397 0.339446 -0.598041 -0.214416 0.506090 0.567925 -0.495696 0.621793 0.643896 1.224738 0.508405 0.328460 -0.074754 0.334732 0.833259 -0.419201
强 -0.041122 -1.198695 1.629062 1.070765 0.607302 0.332119 0.776885 -0.357419 -0.387212 0.191725 0.050408 0.230911 2.842938 -2.054051 1.694574 -0.759092 0.209533 -0.463111 0.139271 1.828185 -0.591439 -0.699749 -0.109603 0.241077 1.453099 0.017640 0.952996 0.608400 -1.088890 -0.949096 -0.743742 0.803849 -0.147795 -0.226506 -0.343778 0.578570 0.418274 0.730953 0.118016 0.454074 -0.569572 -0.701568 1.128442 -0.078858 1.113684 0.314126 0.968797 -1.211826 -0.675720 0.114771 -0.262427 0.047697 -0.509024 -0.085094 -1.088832 0.183701 0.729627 0.198752 -0.555357 0.117991 1.125883 -0.553741 1.387219 -0.759530 0.319265 -0.271768 -1.589826 -0.326086 0.615616 0.887052 -0.299622 0.078283 0.422790 -0.833232 -0.191552 0.502916 -0.586404 -0.877800 -0.128578 -0.330669 0.794071 -0.782429 0.262851 -0.337265 0.254326 -0.873123 0.341690 0.069111 0.125328 0.886049 -0.699768 -0.047541 0.034306 1.574760 0.648817 0.416123 1.574545 0.560413 0.865487 -0.287296 -0.661282 0.833490 -0.307115 -0.636719 -0.560264 0.278469 0.534315 1.240367 -0.005254 -0.508792 0.527076 -0.540387 0.418310 -0.509842 -0.022559 -0.559016 -0.989707 -0.982221 0.408487 -0.454583 0.262541 0.651239 -0.073718 -0.461195 0.685115 -0.867536 0.132304 -0.691451 -0.677330 0.074481 -0.001823 1.218936 0.743930 -0.882518 -0.725932 -0.463936 0.921097 0.324663 -0.169326 -1.247233 0.394424 -0.653592 0.539081 0.088114 0.231283 1.289020 0.929778 0.404658 0.461231 -0.867876 1.584816 0.311609 -0.089851 1.058647 0.480385 0.935698 -1.129326 -0.524046 0.619032 -0.453424 -0.310289 0.622584 -0.572340 -0.460530 1.119723 -0.199681 -0.705974 -0.940756 0.145694 -0.370542 0.516166 -0.043719 -0.196040 0.465403 1.348446 0.093034 -0.228015 -0.748152 -0.490187 -0.123911 0.064993 -0.208819 0.649619 -1.151211 0.217985 0.131217 0.866008 -0.870973 -0.177070 -1.044650 0.779574 -0.551222 -0.906025 0.078871 0.521610 -0.291552 0.252876 -1.323126 0.311375 -1.278728 -1.307812 -0.607561 -1.220959 -0.973727 -0.734111 1.171911 -0.514371 -0.369380 0.279310 -1.251632 0.746920 -0.240063 0.382969 1.372207 -0.598543 0.182542 1.793191 0.193980 0.427456 0.139083 -1.398334 0.317011 -0.806530 -0.096620 -0.382062 -0.612840 0.768192 -0.659597 0.050595 0.361192 -0.644547 -0.603050 -0.415819 0.335238 1.274750 0.609973 0.436141 0.518207 -0.116358 -0.521627 0.462717 -1.658760 1.117041 0.481966 -0.802357 0.489927 0.550421 0.162743 0.071049 -0.226347 -0.395894 0.041579 0.352135 -1.293280 0.320684 0.509448 -0.757087 -1.155120 0.066303 -0.541271 0.848885 -0.594053 -0.908075 0.735054 0.179422 -0.077568 0.398288 -0.077818 -0.523084 0.602619 -0.260154 0.311977 -0.367083 -0.508223 0.731374 -0.107078 -0.488453 1.283931 -0.103176 -0.474850 -0.369131 -0.106772 -0.773911 -1.191369 -0.102481 -0.000806 0.526084 -0.319530 0.431026 0.391306 0.062277 0.426152 -0.229112 1.424876 -0.449444 0.666987 0.041806 -0.017981 -0.324534 1.051955
约 0.780692 -0.591213 0.877026 1.603534 1.496440 -0.504476 -0.253238 0.417944 0.512514 -1.733296 1.192956 1.170285 0.904799 -1.486874 1.984708 0.140804 2.898048 -1.180954 -1.955135 -0.219097 -0.366892 -0.510402 -0.992800 1.123598 0.284095 -1.384711 1.745700 -0.995857 0.966007 -0.650625 -0.013277 -1.120956 1.314601 0.475798 -2.861893 1.175539 -1.250286 0.373720 -0.930105 -0.995532 0.009424 0.456135 0.551596 0.612728 -0.240494 0.431368 0.971365 -2.133023 -0.059752 0.248648 -0.991493 0.259232 0.936743 0.290067 -0.202450 1.139787 -1.531845 -0.503186 -2.396617 0.374696 1.749309 -0.653618 1.706199 -0.301656 1.760201 -0.551568 -0.614953 0.717358 -0.426908 0.592955 0.091395 -0.769762 0.436865 0.412193 0.596505 1.538186 -0.329757 -1.118962 0.914934 -0.452630 1.311337 0.081160 0.066575 0.296302 0.337786 -0.714649 -0.719209 -0.214235 1.542795 0.446779 -0.593125 -0.254547 -0.884378 1.145496 0.374382 0.674275 0.404587 -2.401778 0.477053 -0.828378 -0.783730 -0.328471 1.349711 -0.532221 -0.025376 0.187108 -0.744491 0.573885 0.186826 1.028665 0.854198 -0.462835 -1.016537 -1.730203 -0.513580 0.023595 -1.628179 -0.800638 0.790262 -0.066872 -1.025553 -0.457945 0.097180 1.720803 0.253062 -0.330095 0.187692 0.571841 -0.433106 -0.459482 -1.352019 0.850120 -0.376323 1.051568 -0.813464 -1.120478 0.908498 1.515874 0.003768 -1.173579 -0.995368 1.298528 0.106141 0.475983 -0.169331 -0.577233 -0.938579 -0.406007 -0.525985 0.416277 -1.162657 0.007775 0.374623 1.737750 -0.178632 0.095824 -0.141474 0.939807 -0.393734 1.241274 1.085989 0.834302 -0.818372 0.692757 -0.014973 -1.167856 -0.451545 -0.506795 -0.187985 -0.102092 0.268507 1.237620 1.295655 -0.335414 0.439190 0.038399 -0.618893 0.091580 0.554042 0.177950 0.551258 -0.198192 0.472764 -0.047513 -0.764246 -0.337943 -0.275257 0.785461 0.278134 0.948241 -0.070807 -1.935471 -1.552534 1.291484 0.557077 0.399618 -0.689047 -0.480614 -0.961248 0.389575 -2.148197 0.526970 -0.550095 -0.730274 -0.443586 -0.135067 1.064558 -0.770714 -0.628555 0.731746 0.550641 -1.400349 -0.117244 -0.843425 1.980726 -1.543501 0.317710 -0.159650 -0.905298 0.175148 -0.694762 -0.653410 0.910092 -0.135432 0.040259 1.001978 0.414419 -0.142208 0.466464 0.367878 0.727287 0.601113 0.743231 0.259237 0.425346 -1.399318 -0.553778 0.251766 0.572302 1.575322 -0.748731 1.292632 -1.122462 0.790619 0.984641 -0.514647 0.592091 -0.672235 0.106877 0.037647 0.082376 -0.354844 -1.162657 -0.214403 0.141575 0.046017 -0.252641 0.697716 0.951022 -0.105204 0.161353 0.578856 1.386060 -0.863635 -0.568079 -0.836476 -0.193994 -0.072184 -0.489181 -0.393998 -0.675337 -0.582086 1.705564 -0.705281 0.298987 0.824491 1.628137 1.140915 -0.043791 0.390520 0.461992 -0.530627 -1.116885 -0.003567 0.214070 -0.386591 0.285155 0.190969 -1.440691 -0.131802 -0.502576 -0.054679 -0.758012 1.095982 -0.361276 0.864587 -0.318505 0.272929 0.196059 -0.797126
